<?xml version="1.0" encoding="US-ASCII"?>

<!--
  Bayesian network in XMLBIF v0.3 (BayesNet Interchange Format)
  Produced by SamIam http://reasoning.cs.ucla.edu/samiam
  Output created Feb 13, 2017 4:30:08 PM
-->

<BIF VERSION="0.3">
<NETWORK>
  <NAME>BALS</NAME>

  <VARIABLE TYPE="nature">
    <NAME>grounding_t0</NAME>
    <OUTCOME>low</OUTCOME>
    <OUTCOME>medium</OUTCOME>
    <OUTCOME>high</OUTCOME>
    <PROPERTY>position = (425, 425)</PROPERTY>
  </VARIABLE>

  <VARIABLE TYPE="nature">
    <NAME>perception</NAME>
    <OUTCOME>low</OUTCOME>
    <OUTCOME>medium</OUTCOME>
    <OUTCOME>high</OUTCOME>
    <PROPERTY>position = (300, 200)</PROPERTY>
  </VARIABLE>

  <VARIABLE TYPE="nature">
    <NAME>gaze</NAME>
    <OUTCOME>agent</OUTCOME>
    <OUTCOME>away</OUTCOME>
    <PROPERTY>position = (400, 0)</PROPERTY>
  </VARIABLE>

  <VARIABLE TYPE="nature">
    <NAME>understanding</NAME>
    <OUTCOME>low</OUTCOME>
    <OUTCOME>medium</OUTCOME>
    <OUTCOME>high</OUTCOME>
    <PROPERTY>position = (500, 200)</PROPERTY>
  </VARIABLE>

  <VARIABLE TYPE="nature">
    <NAME>understanding_t0</NAME>
    <OUTCOME>low</OUTCOME>
    <OUTCOME>medium</OUTCOME>
    <OUTCOME>high</OUTCOME>
    <PROPERTY>position = (425, 225)</PROPERTY>
  </VARIABLE>

  <VARIABLE TYPE="nature">
    <NAME>fb_function</NAME>
    <OUTCOME>perception</OUTCOME>
    <OUTCOME>no_perception</OUTCOME>
    <OUTCOME>understanding</OUTCOME>
    <OUTCOME>no_understanding</OUTCOME>
    <OUTCOME>acceptance</OUTCOME>
    <OUTCOME>no_acceptance</OUTCOME>
    <OUTCOME>none</OUTCOME>
    <PROPERTY>position = (300, 0)</PROPERTY>
  </VARIABLE>

  <VARIABLE TYPE="nature">
    <NAME>certainty</NAME>
    <OUTCOME>low</OUTCOME>
    <OUTCOME>medium</OUTCOME>
    <OUTCOME>high</OUTCOME>
    <PROPERTY>position = (500, 0)</PROPERTY>
  </VARIABLE>

  <VARIABLE TYPE="nature">
    <NAME>perception_t0</NAME>
    <OUTCOME>low</OUTCOME>
    <OUTCOME>medium</OUTCOME>
    <OUTCOME>high</OUTCOME>
    <PROPERTY>position = (225, 225)</PROPERTY>
  </VARIABLE>

  <VARIABLE TYPE="nature">
    <NAME>grounding</NAME>
    <OUTCOME>low</OUTCOME>
    <OUTCOME>medium</OUTCOME>
    <OUTCOME>high</OUTCOME>
    <PROPERTY>position = (500, 400)</PROPERTY>
  </VARIABLE>

  <VARIABLE TYPE="nature">
    <NAME>acceptance_t0</NAME>
    <OUTCOME>low</OUTCOME>
    <OUTCOME>medium</OUTCOME>
    <OUTCOME>high</OUTCOME>
    <PROPERTY>position = (625, 125)</PROPERTY>
  </VARIABLE>

  <VARIABLE TYPE="nature">
    <NAME>head</NAME>
    <OUTCOME>nod</OUTCOME>
    <OUTCOME>jerk</OUTCOME>
    <OUTCOME>shake</OUTCOME>
    <OUTCOME>tilt</OUTCOME>
    <OUTCOME>none</OUTCOME>
    <PROPERTY>position = (300, 0)</PROPERTY>
  </VARIABLE>

  <VARIABLE TYPE="nature">
    <NAME>difficulty</NAME>
    <OUTCOME>low</OUTCOME>
    <OUTCOME>medium</OUTCOME>
    <OUTCOME>high</OUTCOME>
    <PROPERTY>position = (100, 0)</PROPERTY>
  </VARIABLE>

  <VARIABLE TYPE="nature">
    <NAME>acceptance</NAME>
    <OUTCOME>low</OUTCOME>
    <OUTCOME>medium</OUTCOME>
    <OUTCOME>high</OUTCOME>
    <PROPERTY>position = (700, 100)</PROPERTY>
  </VARIABLE>

  <DEFINITION>
    <FOR>grounding_t0</FOR>
    <TABLE>0.182 0.612 0.206 </TABLE>
  </DEFINITION>

  <DEFINITION>
    <FOR>perception</FOR>
    <GIVEN>perception_t0</GIVEN>
    <GIVEN>fb_function</GIVEN>
    <GIVEN>difficulty</GIVEN>
    <GIVEN>gaze</GIVEN>
    <GIVEN>head</GIVEN>
    <TABLE>0.16831683168316833 0.7673267326732673 0.06435643564356436 0.16831683168316833 0.7673267326732673 0.06435643564356436 0.5657084188911705 0.42813141683778233 0.006160164271047228 0.5657084188911705 0.42813141683778233 0.006160164271047228 0.41446028513238287 0.5712830957230143 0.014256619144602852 0.43425076452599387 0.5524974515800204 0.013251783893985729 0.43425076452599387 0.5524974515800204 0.013251783893985729 0.8252118644067796 0.17372881355932204 0.001059322033898305 0.8252118644067796 0.17372881355932204 0.001059322033898305 0.7215320910973084 0.27639751552795033 0.002070393374741201 0.23576423576423577 0.7232767232767233 0.04095904095904097 0.23576423576423577 0.7232767232767233 0.04095904095904097 0.6618556701030928 0.33505154639175255 0.003092783505154639 0.6618556701030928 0.33505154639175255 0.003092783505154639 0.5153688524590164 0.4764344262295082 0.00819672131147541 0.5364102564102564 0.45641025641025645 0.0071794871794871795 0.5364102564102564 0.45641025641025645 0.0071794871794871795 0.8769230769230769 0.12307692307692307 0.0 0.8769230769230769 0.12307692307692307 0.0 0.7945492662473794 0.20440251572327042 0.0010482180293501047 0.3191919191919192 0.6565656565656566 0.024242424242424242 0.3191919191919192 0.6565656565656566 0.024242424242424242 0.7448132780082988 0.25311203319502074 0.002074688796680498 0.7448132780082988 0.25311203319502074 0.002074688796680498 0.6152263374485597 0.38065843621399176 0.00411522633744856 0.6337448559670782 0.3621399176954732 0.00411522633744856 0.6337448559670782 0.3621399176954732 0.00411522633744856 0.9138533178114087 0.08614668218859138 0.0 0.9138533178114087 0.08614668218859138 0.0 0.853448275862069 0.14655172413793105 0.0 0.7677083333333333 0.23125 0.0010416666666666667 0.7677083333333333 0.23125 0.0010416666666666667 0.9526387009472259 0.047361299052774024 0.0 0.9526387009472259 0.047361299052774024 0.0 0.9167643610785463 0.08323563892145369 0.0 0.9226190476190476 0.07738095238095237 0.0 0.9226190476190476 0.07738095238095237 0.0 0.9858156028368794 0.014184397163120569 0.0 0.9858156028368794 0.014184397163120569 0.0 0.9756521739130435 0.024347826086956518 0.0 0.8310308182784272 0.16790648246546228 0.0010626992561105207 0.8310308182784272 0.16790648246546228 0.0010626992561105207 0.9674922600619195 0.032507739938080496 0.0 0.9674922600619195 0.032507739938080496 0.0 0.9424552429667519 0.05754475703324808 0.0 0.9464052287581699 0.05359477124183007 0.0 0.9464052287581699 0.05359477124183007 0.0 0.9908536585365854 0.009146341463414634 0.0 0.9908536585365854 0.009146341463414634 0.0 0.9830866807610994 0.016913319238900635 0.0 0.880794701986755 0.11920529801324503 0.0 0.880794701986755 0.11920529801324503 0.0 0.9779411764705882 0.022058823529411763 0.0 0.9779411764705882 0.022058823529411763 0.0 0.961038961038961 0.03896103896103896 0.0 0.9643916913946587 0.03560830860534125 0.0 0.9643916913946587 0.03560830860534125 0.0 0.991869918699187 0.008130081300813009 0.0 0.991869918699187 0.008130081300813009 0.0 0.9893048128342246 0.010695187165775402 0.0 0.14525691699604742 0.7786561264822135 0.07608695652173914 0.14525691699604742 0.7786561264822135 0.07608695652173914 0.5261538461538462 0.4666666666666667 0.0071794871794871795 0.5261538461538462 0.4666666666666667 0.0071794871794871795 0.3752535496957404 0.6064908722109533 0.018255578093306288 0.3947100712105799 0.5890132248219735 0.01627670396744659 0.3947100712105799 0.5890132248219735 0.01627670396744659 0.801470588235294 0.19747899159663865 0.0010504201680672268 0.801470588235294 0.19747899159663865 0.0010504201680672268 0.688728024819028 0.3092037228541882 0.0020682523267838674 0.20696517412935325 0.7442786069651742 0.048756218905472645 0.20696517412935325 0.7442786069651742 0.048756218905472645 0.6244855967078189 0.3713991769547325 0.00411522633744856 0.6244855967078189 0.3713991769547325 0.00411522633744856 0.47546012269938653 0.5143149284253579 0.010224948875255624 0.4953940634595701 0.4953940634595701 0.009211873080859774 0.4953940634595701 0.4953940634595701 0.009211873080859774 0.8583783783783784 0.14162162162162162 0.0 0.8583783783783784 0.14162162162162162 0.0 0.7677083333333333 0.23125 0.0010416666666666667 0.2844221105527638 0.685427135678392 0.030150753768844216 0.2844221105527638 0.685427135678392 0.030150753768844216 0.7135470527404343 0.28438469493278185 0.002068252326783868 0.7135470527404343 0.28438469493278185 0.002068252326783868 0.5765673175745119 0.41829393627954775 0.0051387461459403904 0.595679012345679 0.3991769547325103 0.0051440329218107 0.595679012345679 0.3991769547325103 0.0051440329218107 0.9002267573696145 0.09977324263038548 0.0 0.9002267573696145 0.09977324263038548 0.0 0.8310308182784272 0.16790648246546228 0.0010626992561105207 0.16831683168316833 0.7673267326732673 0.06435643564356436 0.16831683168316833 0.7673267326732673 0.06435643564356436 0.5657084188911705 0.42813141683778233 0.006160164271047228 0.5657084188911705 0.42813141683778233 0.006160164271047228 0.41446028513238287 0.5712830957230143 0.014256619144602852 0.43425076452599387 0.5524974515800204 0.013251783893985729 0.43425076452599387 0.5524974515800204 0.013251783893985729 0.8252118644067796 0.17372881355932204 0.001059322033898305 0.8252118644067796 0.17372881355932204 0.001059322033898305 0.7215320910973084 0.27639751552795033 0.002070393374741201 0.23576423576423577 0.7232767232767233 0.04095904095904097 0.23576423576423577 0.7232767232767233 0.04095904095904097 0.6618556701030928 0.33505154639175255 0.003092783505154639 0.6618556701030928 0.33505154639175255 0.003092783505154639 0.5153688524590164 0.4764344262295082 0.00819672131147541 0.5364102564102564 0.45641025641025645 0.0071794871794871795 0.5364102564102564 0.45641025641025645 0.0071794871794871795 0.8769230769230769 0.12307692307692307 0.0 0.8769230769230769 0.12307692307692307 0.0 0.7945492662473794 0.20440251572327042 0.0010482180293501047 0.3191919191919192 0.6565656565656566 0.024242424242424242 0.3191919191919192 0.6565656565656566 0.024242424242424242 0.7448132780082988 0.25311203319502074 0.002074688796680498 0.7448132780082988 0.25311203319502074 0.002074688796680498 0.6152263374485597 0.38065843621399176 0.00411522633744856 0.6337448559670782 0.3621399176954732 0.00411522633744856 0.6337448559670782 0.3621399176954732 0.00411522633744856 0.9138533178114087 0.08614668218859138 0.0 0.9138533178114087 0.08614668218859138 0.0 0.853448275862069 0.14655172413793105 0.0 0.14525691699604742 0.7786561264822135 0.07608695652173914 0.14525691699604742 0.7786561264822135 0.07608695652173914 0.5261538461538462 0.4666666666666667 0.0071794871794871795 0.5261538461538462 0.4666666666666667 0.0071794871794871795 0.3752535496957404 0.6064908722109533 0.018255578093306288 0.3947100712105799 0.5890132248219735 0.01627670396744659 0.3947100712105799 0.5890132248219735 0.01627670396744659 0.801470588235294 0.19747899159663865 0.0010504201680672268 0.801470588235294 0.19747899159663865 0.0010504201680672268 0.688728024819028 0.3092037228541882 0.0020682523267838674 0.20696517412935325 0.7442786069651742 0.048756218905472645 0.20696517412935325 0.7442786069651742 0.048756218905472645 0.6244855967078189 0.3713991769547325 0.00411522633744856 0.6244855967078189 0.3713991769547325 0.00411522633744856 0.47546012269938653 0.5143149284253579 0.010224948875255624 0.4953940634595701 0.4953940634595701 0.009211873080859774 0.4953940634595701 0.4953940634595701 0.009211873080859774 0.8583783783783784 0.14162162162162162 0.0 0.8583783783783784 0.14162162162162162 0.0 0.7677083333333333 0.23125 0.0010416666666666667 0.2844221105527638 0.685427135678392 0.030150753768844216 0.2844221105527638 0.685427135678392 0.030150753768844216 0.7135470527404343 0.28438469493278185 0.002068252326783868 0.7135470527404343 0.28438469493278185 0.002068252326783868 0.5765673175745119 0.41829393627954775 0.0051387461459403904 0.595679012345679 0.3991769547325103 0.0051440329218107 0.595679012345679 0.3991769547325103 0.0051440329218107 0.9002267573696145 0.09977324263038548 0.0 0.9002267573696145 0.09977324263038548 0.0 0.8310308182784272 0.16790648246546228 0.0010626992561105207 0.16831683168316833 0.7673267326732673 0.06435643564356436 0.16831683168316833 0.7673267326732673 0.06435643564356436 0.5657084188911705 0.42813141683778233 0.006160164271047228 0.5657084188911705 0.42813141683778233 0.006160164271047228 0.41446028513238287 0.5712830957230143 0.014256619144602852 0.43425076452599387 0.5524974515800204 0.013251783893985729 0.43425076452599387 0.5524974515800204 0.013251783893985729 0.8252118644067796 0.17372881355932204 0.001059322033898305 0.8252118644067796 0.17372881355932204 0.001059322033898305 0.7215320910973084 0.27639751552795033 0.002070393374741201 0.23576423576423577 0.7232767232767233 0.04095904095904097 0.23576423576423577 0.7232767232767233 0.04095904095904097 0.6618556701030928 0.33505154639175255 0.003092783505154639 0.6618556701030928 0.33505154639175255 0.003092783505154639 0.5153688524590164 0.4764344262295082 0.00819672131147541 0.5364102564102564 0.45641025641025645 0.0071794871794871795 0.5364102564102564 0.45641025641025645 0.0071794871794871795 0.8769230769230769 0.12307692307692307 0.0 0.8769230769230769 0.12307692307692307 0.0 0.7945492662473794 0.20440251572327042 0.0010482180293501047 0.3191919191919192 0.6565656565656566 0.024242424242424242 0.3191919191919192 0.6565656565656566 0.024242424242424242 0.7448132780082988 0.25311203319502074 0.002074688796680498 0.7448132780082988 0.25311203319502074 0.002074688796680498 0.6152263374485597 0.38065843621399176 0.00411522633744856 0.6337448559670782 0.3621399176954732 0.00411522633744856 0.6337448559670782 0.3621399176954732 0.00411522633744856 0.9138533178114087 0.08614668218859138 0.0 0.9138533178114087 0.08614668218859138 0.0 0.853448275862069 0.14655172413793105 0.0 0.25125125125125125 0.7117117117117117 0.037037037037037035 0.25125125125125125 0.7117117117117117 0.037037037037037035 0.6790505675954592 0.31785345717234265 0.0030959752321981426 0.6790505675954592 0.31785345717234265 0.0030959752321981426 0.5364102564102564 0.45641025641025645 0.0071794871794871795 0.5564681724845997 0.43737166324435317 0.006160164271047228 0.5564681724845997 0.43737166324435317 0.006160164271047228 0.8847006651884701 0.11529933481152993 0.0 0.8847006651884701 0.11529933481152993 0.0 0.8073684210526315 0.19157894736842104 0.0010526315789473684 0.3377148634984833 0.640040444893832 0.022244691607684525 0.3377148634984833 0.640040444893832 0.022244691607684525 0.7606659729448492 0.23829344432882416 0.001040582726326743 0.7606659729448492 0.23829344432882416 0.001040582726326743 0.6337448559670782 0.3621399176954732 0.00411522633744856 0.6525773195876288 0.3443298969072165 0.003092783505154639 0.6525773195876288 0.3443298969072165 0.003092783505154639 0.9197166469893743 0.08028335301062575 0.0 0.9197166469893743 0.08028335301062575 0.0 0.8631921824104235 0.13680781758957655 0.0 0.43425076452599387 0.5524974515800204 0.013251783893985729 0.43425076452599387 0.5524974515800204 0.013251783893985729 0.8252118644067796 0.17372881355932204 0.001059322033898305 0.8252118644067796 0.17372881355932204 0.001059322033898305 0.7215320910973084 0.27639751552795033 0.002070393374741201 0.737551867219917 0.2603734439834025 0.002074688796680498 0.737551867219917 0.2603734439834025 0.002074688796680498 0.9444444444444444 0.05555555555555555 0.0 0.9444444444444444 0.05555555555555555 0.0 0.904109589041096 0.09589041095890412 0.0 0.003095975232198142 0.326109391124871 0.6707946336429308 0.003095975232198142 0.326109391124871 0.6707946336429308 0.03896103896103897 0.7172827172827173 0.24375624375624377 0.03896103896103897 0.7172827172827173 0.24375624375624377 0.018255578093306288 0.6064908722109533 0.3752535496957404 0.020242914979757085 0.6234817813765182 0.3562753036437247 0.020242914979757085 0.6234817813765182 0.3562753036437247 0.15034619188921858 0.7764589515331355 0.07319485657764588 0.15034619188921858 0.7764589515331355 0.07319485657764588 0.08300395256916997 0.782608695652174 0.13438735177865613 0.0051387461459403904 0.41829393627954775 0.5765673175745119 0.0051387461459403904 0.41829393627954775 0.5765673175745119 0.06144697720515362 0.7641228939544104 0.17443012884043607 0.06144697720515362 0.7641228939544104 0.17443012884043607 0.030150753768844216 0.685427135678392 0.2844221105527638 0.033099297893681046 0.6990972918756269 0.2678034102306921 0.033099297893681046 0.6990972918756269 0.2678034102306921 0.21414342629482072 0.7390438247011952 0.046812749003984064 0.21414342629482072 0.7390438247011952 0.046812749003984064 0.12438302073050345 0.7847976307996051 0.0908193484698914 0.010224948875255624 0.5143149284253579 0.47546012269938653 0.010224948875255624 0.5143149284253579 0.47546012269938653 0.09467455621301775 0.7850098619329389 0.12031558185404338 0.09467455621301775 0.7850098619329389 0.12031558185404338 0.04875621890547263 0.744278606965174 0.2069651741293532 0.053624627606752726 0.7527308838133068 0.1936444885799404 0.053624627606752726 0.7527308838133068 0.1936444885799404 0.29275653923541245 0.6780684104627767 0.029175050301810862 0.29275653923541245 0.6780684104627767 0.029175050301810862 0.18055555555555555 0.7609126984126984 0.058531746031746025 0.10650887573964497 0.7869822485207101 0.10650887573964497 0.10650887573964497 0.7869822485207101 0.10650887573964497 0.4448979591836735 0.5428571428571429 0.012244897959183675 0.4448979591836735 0.5428571428571429 0.012244897959183675 0.3014112903225806 0.6713709677419355 0.027217741935483868 0.3191919191919192 0.6565656565656566 0.024242424242424242 0.3191919191919192 0.6565656565656566 0.024242424242424242 0.7448132780082988 0.25311203319502074 0.002074688796680498 0.7448132780082988 0.25311203319502074 0.002074688796680498 0.6152263374485597 0.38065843621399176 0.00411522633744856 0.1562809099901088 0.7734915924826904 0.07022749752720078 0.1562809099901088 0.7734915924826904 0.07022749752720078 0.5456410256410257 0.4471794871794872 0.0071794871794871795 0.5456410256410257 0.4471794871794872 0.0071794871794871795 0.3947100712105799 0.5890132248219735 0.01627670396744659 0.41446028513238287 0.5712830957230143 0.014256619144602852 0.41446028513238287 0.5712830957230143 0.014256619144602852 0.8132911392405063 0.18565400843881855 0.0010548523206751054 0.8132911392405063 0.18565400843881855 0.0010548523206751054 0.7052740434332988 0.2926577042399172 0.0020682523267838674 0.22111553784860558 0.7340637450199203 0.0448207171314741 0.22111553784860558 0.7340637450199203 0.0448207171314741 0.6436663233779609 0.35324407826982496 0.0030895983522142125 0.6436663233779609 0.35324407826982496 0.0030895983522142125 0.4953940634595701 0.4953940634595701 0.009211873080859774 0.5153688524590164 0.4764344262295082 0.00819672131147541 0.5153688524590164 0.4764344262295082 0.00819672131147541 0.8671023965141612 0.13289760348583876 0.0 0.8671023965141612 0.13289760348583876 0.0 0.7816091954022989 0.2173458725182863 0.0010449320794148381 0.0020682523267838674 0.2926577042399172 0.7052740434332988 0.0020682523267838674 0.2926577042399172 0.7052740434332988 0.0320962888665998 0.6920762286860581 0.27582748244734206 0.0320962888665998 0.6920762286860581 0.27582748244734206 0.014256619144602852 0.5712830957230143 0.41446028513238287 0.01627670396744659 0.5890132248219735 0.3947100712105799 0.01627670396744659 0.5890132248219735 0.3947100712105799 0.1293188548864758 0.7838104639684106 0.08687068114511351 0.1293188548864758 0.7838104639684106 0.08687068114511351 0.0702274975272008 0.7734915924826905 0.15628090999010882 0.00411522633744856 0.38065843621399176 0.6152263374485597 0.00411522633744856 0.38065843621399176 0.6152263374485597 0.05168986083499006 0.7485089463220675 0.19980119284294234 0.05168986083499006 0.7485089463220675 0.19980119284294234 0.024242424242424242 0.6565656565656566 0.3191919191919192 0.02721774193548387 0.6713709677419355 0.3014112903225806 0.02721774193548387 0.6713709677419355 0.3014112903225806 0.1865079365079365 0.7569444444444444 0.05654761904761905 0.1865079365079365 0.7569444444444444 0.05654761904761905 0.10650887573964497 0.7869822485207101 0.10650887573964497 0.00819672131147541 0.4764344262295082 0.5153688524590164 0.00819672131147541 0.4764344262295082 0.5153688524590164 0.0800395256916996 0.7806324110671937 0.1393280632411067 0.0800395256916996 0.7806324110671937 0.1393280632411067 0.04095904095904097 0.7232767232767233 0.23576423576423577 0.0448207171314741 0.7340637450199203 0.22111553784860558 0.0448207171314741 0.7340637450199203 0.22111553784860558 0.2595190380761523 0.7054108216432865 0.03507014028056112 0.2595190380761523 0.7054108216432865 0.03507014028056112 0.1562809099901088 0.7734915924826904 0.07022749752720078 0.003095975232198142 0.326109391124871 0.6707946336429308 0.003095975232198142 0.326109391124871 0.6707946336429308 0.03896103896103897 0.7172827172827173 0.24375624375624377 0.03896103896103897 0.7172827172827173 0.24375624375624377 0.018255578093306288 0.6064908722109533 0.3752535496957404 0.020242914979757085 0.6234817813765182 0.3562753036437247 0.020242914979757085 0.6234817813765182 0.3562753036437247 0.15034619188921858 0.7764589515331355 0.07319485657764588 0.15034619188921858 0.7764589515331355 0.07319485657764588 0.08300395256916997 0.782608695652174 0.13438735177865613 0.0051387461459403904 0.41829393627954775 0.5765673175745119 0.0051387461459403904 0.41829393627954775 0.5765673175745119 0.06144697720515362 0.7641228939544104 0.17443012884043607 0.06144697720515362 0.7641228939544104 0.17443012884043607 0.030150753768844216 0.685427135678392 0.2844221105527638 0.033099297893681046 0.6990972918756269 0.2678034102306921 0.033099297893681046 0.6990972918756269 0.2678034102306921 0.21414342629482072 0.7390438247011952 0.046812749003984064 0.21414342629482072 0.7390438247011952 0.046812749003984064 0.12438302073050345 0.7847976307996051 0.0908193484698914 0.010224948875255624 0.5143149284253579 0.47546012269938653 0.010224948875255624 0.5143149284253579 0.47546012269938653 0.09467455621301775 0.7850098619329389 0.12031558185404338 0.09467455621301775 0.7850098619329389 0.12031558185404338 0.04875621890547263 0.744278606965174 0.2069651741293532 0.053624627606752726 0.7527308838133068 0.1936444885799404 0.053624627606752726 0.7527308838133068 0.1936444885799404 0.29275653923541245 0.6780684104627767 0.029175050301810862 0.29275653923541245 0.6780684104627767 0.029175050301810862 0.18055555555555555 0.7609126984126984 0.058531746031746025 0.0020682523267838674 0.2926577042399172 0.7052740434332988 0.0020682523267838674 0.2926577042399172 0.7052740434332988 0.0320962888665998 0.6920762286860581 0.27582748244734206 0.0320962888665998 0.6920762286860581 0.27582748244734206 0.014256619144602852 0.5712830957230143 0.41446028513238287 0.01627670396744659 0.5890132248219735 0.3947100712105799 0.01627670396744659 0.5890132248219735 0.3947100712105799 0.1293188548864758 0.7838104639684106 0.08687068114511351 0.1293188548864758 0.7838104639684106 0.08687068114511351 0.0702274975272008 0.7734915924826905 0.15628090999010882 0.00411522633744856 0.38065843621399176 0.6152263374485597 0.00411522633744856 0.38065843621399176 0.6152263374485597 0.05168986083499006 0.7485089463220675 0.19980119284294234 0.05168986083499006 0.7485089463220675 0.19980119284294234 0.024242424242424242 0.6565656565656566 0.3191919191919192 0.02721774193548387 0.6713709677419355 0.3014112903225806 0.02721774193548387 0.6713709677419355 0.3014112903225806 0.1865079365079365 0.7569444444444444 0.05654761904761905 0.1865079365079365 0.7569444444444444 0.05654761904761905 0.10650887573964497 0.7869822485207101 0.10650887573964497 0.00819672131147541 0.4764344262295082 0.5153688524590164 0.00819672131147541 0.4764344262295082 0.5153688524590164 0.0800395256916996 0.7806324110671937 0.1393280632411067 0.0800395256916996 0.7806324110671937 0.1393280632411067 0.04095904095904097 0.7232767232767233 0.23576423576423577 0.0448207171314741 0.7340637450199203 0.22111553784860558 0.0448207171314741 0.7340637450199203 0.22111553784860558 0.2595190380761523 0.7054108216432865 0.03507014028056112 0.2595190380761523 0.7054108216432865 0.03507014028056112 0.1562809099901088 0.7734915924826904 0.07022749752720078 0.003095975232198142 0.326109391124871 0.6707946336429308 0.003095975232198142 0.326109391124871 0.6707946336429308 0.03896103896103897 0.7172827172827173 0.24375624375624377 0.03896103896103897 0.7172827172827173 0.24375624375624377 0.018255578093306288 0.6064908722109533 0.3752535496957404 0.020242914979757085 0.6234817813765182 0.3562753036437247 0.020242914979757085 0.6234817813765182 0.3562753036437247 0.15034619188921858 0.7764589515331355 0.07319485657764588 0.15034619188921858 0.7764589515331355 0.07319485657764588 0.08300395256916997 0.782608695652174 0.13438735177865613 0.0051387461459403904 0.41829393627954775 0.5765673175745119 0.0051387461459403904 0.41829393627954775 0.5765673175745119 0.06144697720515362 0.7641228939544104 0.17443012884043607 0.06144697720515362 0.7641228939544104 0.17443012884043607 0.030150753768844216 0.685427135678392 0.2844221105527638 0.033099297893681046 0.6990972918756269 0.2678034102306921 0.033099297893681046 0.6990972918756269 0.2678034102306921 0.21414342629482072 0.7390438247011952 0.046812749003984064 0.21414342629482072 0.7390438247011952 0.046812749003984064 0.12438302073050345 0.7847976307996051 0.0908193484698914 0.010224948875255624 0.5143149284253579 0.47546012269938653 0.010224948875255624 0.5143149284253579 0.47546012269938653 0.09467455621301775 0.7850098619329389 0.12031558185404338 0.09467455621301775 0.7850098619329389 0.12031558185404338 0.04875621890547263 0.744278606965174 0.2069651741293532 0.053624627606752726 0.7527308838133068 0.1936444885799404 0.053624627606752726 0.7527308838133068 0.1936444885799404 0.29275653923541245 0.6780684104627767 0.029175050301810862 0.29275653923541245 0.6780684104627767 0.029175050301810862 0.18055555555555555 0.7609126984126984 0.058531746031746025 0.006160164271047228 0.43737166324435317 0.5564681724845997 0.006160164271047228 0.43737166324435317 0.5564681724845997 0.0672601384767557 0.7705242334322454 0.16221562809099904 0.0672601384767557 0.7705242334322454 0.16221562809099904 0.033099297893681046 0.6990972918756269 0.2678034102306921 0.037037037037037035 0.7117117117117117 0.25125125125125125 0.037037037037037035 0.7117117117117117 0.25125125125125125 0.22831505483549355 0.728813559322034 0.04287138584247258 0.22831505483549355 0.728813559322034 0.04287138584247258 0.13438735177865613 0.782608695652174 0.08300395256916997 0.011235955056179773 0.5342185903983656 0.45454545454545453 0.011235955056179773 0.5342185903983656 0.45454545454545453 0.10256410256410256 0.7869822485207101 0.11045364891518737 0.10256410256410256 0.7869822485207101 0.11045364891518737 0.053624627606752726 0.7527308838133068 0.1936444885799404 0.058531746031746025 0.7609126984126984 0.18055555555555555 0.058531746031746025 0.7609126984126984 0.18055555555555555 0.31048387096774194 0.6633064516129032 0.026209677419354836 0.31048387096774194 0.6633064516129032 0.026209677419354836 0.1936444885799404 0.7527308838133068 0.053624627606752726 0.020242914979757085 0.6234817813765182 0.3562753036437247 0.020242914979757085 0.6234817813765182 0.3562753036437247 0.15034619188921858 0.7764589515331355 0.07319485657764588 0.15034619188921858 0.7764589515331355 0.07319485657764588 0.08300395256916997 0.782608695652174 0.13438735177865613 0.09081934846989143 0.7847976307996053 0.12438302073050347 0.09081934846989143 0.7847976307996053 0.12438302073050347 0.404883011190234 0.5798575788402848 0.01525940996948118 0.404883011190234 0.5798575788402848 0.01525940996948118 0.2678034102306921 0.6990972918756269 0.033099297893681046 0.0 0.012135922330097089 0.9878640776699029 0.0 0.012135922330097089 0.9878640776699029 0.0 0.07442977190876351 0.9255702280912366 0.0 0.07442977190876351 0.9255702280912366 0.0 0.04213483146067415 0.9578651685393258 0.0 0.045205479452054796 0.9547945205479451 0.0 0.045205479452054796 0.9547945205479451 0.0010438413361169103 0.2244258872651357 0.7745302713987474 0.0010438413361169103 0.2244258872651357 0.7745302713987474 0.0 0.13680781758957655 0.8631921824104235 0.0 0.01949317738791423 0.9805068226120858 0.0 0.01949317738791423 0.9805068226120858 0.0 0.10762331838565023 0.8923766816143498 0.0 0.10762331838565023 0.8923766816143498 0.0 0.06148055207026349 0.9385194479297364 0.0 0.06650246305418718 0.9334975369458127 0.0 0.06650246305418718 0.9334975369458127 0.0020682523267838674 0.3009307135470527 0.6970010341261634 0.0020682523267838674 0.3009307135470527 0.6970010341261634 0.0010526315789473684 0.19157894736842104 0.8073684210526316 0.0 0.02922077922077922 0.9707792207792207 0.0 0.02922077922077922 0.9707792207792207 0.0 0.15145005370569278 0.8485499462943072 0.0 0.15145005370569278 0.8485499462943072 0.0 0.08901734104046242 0.9109826589595377 0.0 0.09589041095890412 0.904109589041096 0.0 0.09589041095890412 0.904109589041096 0.00411522633744856 0.38991769547325106 0.6059670781893004 0.00411522633744856 0.38991769547325106 0.6059670781893004 0.002074688796680498 0.2603734439834025 0.737551867219917 0.0010626992561105207 0.16790648246546228 0.8310308182784272 0.0010626992561105207 0.16790648246546228 0.8310308182784272 0.012244897959183675 0.5428571428571429 0.4448979591836735 0.012244897959183675 0.5428571428571429 0.4448979591836735 0.0051440329218107 0.3991769547325103 0.595679012345679 0.0051387461459403904 0.41829393627954775 0.5765673175745119 0.0051387461459403904 0.41829393627954775 0.5765673175745119 0.06144697720515362 0.7641228939544104 0.17443012884043607 0.06144697720515362 0.7641228939544104 0.17443012884043607 0.030150753768844216 0.685427135678392 0.2844221105527638 0.0010416666666666667 0.23125 0.7677083333333333 0.0010416666666666667 0.23125 0.7677083333333333 0.021233569261880688 0.6319514661274014 0.34681496461071787 0.021233569261880688 0.6319514661274014 0.34681496461071787 0.009211873080859774 0.4953940634595701 0.4953940634595701 0.010224948875255624 0.5143149284253579 0.47546012269938653 0.010224948875255624 0.5143149284253579 0.47546012269938653 0.09467455621301775 0.7850098619329389 0.12031558185404338 0.09467455621301775 0.7850098619329389 0.12031558185404338 0.04875621890547263 0.744278606965174 0.2069651741293532 0.0020682523267838674 0.3092037228541882 0.688728024819028 0.0020682523267838674 0.3092037228541882 0.688728024819028 0.03507014028056112 0.7054108216432865 0.2595190380761523 0.03507014028056112 0.7054108216432865 0.2595190380761523 0.01627670396744659 0.5890132248219735 0.3947100712105799 0.018255578093306288 0.6064908722109533 0.3752535496957404 0.018255578093306288 0.6064908722109533 0.3752535496957404 0.1393280632411067 0.7806324110671937 0.0800395256916996 0.1393280632411067 0.7806324110671937 0.0800395256916996 0.07608695652173914 0.7786561264822135 0.14525691699604742 0.0 0.010695187165775402 0.9893048128342246 0.0 0.010695187165775402 0.9893048128342246 0.0 0.06459627329192547 0.9354037267080745 0.0 0.06459627329192547 0.9354037267080745 0.0 0.03560830860534125 0.9643916913946587 0.0 0.03896103896103896 0.961038961038961 0.0 0.03896103896103896 0.961038961038961 0.001050420168067227 0.19747899159663868 0.8014705882352942 0.001050420168067227 0.19747899159663868 0.8014705882352942 0.0 0.11920529801324503 0.880794701986755 0.0 0.016913319238900635 0.9830866807610994 0.0 0.016913319238900635 0.9830866807610994 0.0 0.09299655568312284 0.9070034443168772 0.0 0.09299655568312284 0.9070034443168772 0.0 0.05359477124183007 0.9464052287581699 0.0 0.05754475703324808 0.9424552429667519 0.0 0.05754475703324808 0.9424552429667519 0.002072538860103627 0.2683937823834197 0.7295336787564767 0.002072538860103627 0.2683937823834197 0.7295336787564767 0.0010626992561105207 0.16790648246546228 0.8310308182784272 0.0 0.024347826086956518 0.9756521739130435 0.0 0.024347826086956518 0.9756521739130435 0.0 0.13289760348583876 0.8671023965141612 0.0 0.13289760348583876 0.8671023965141612 0.0 0.07738095238095237 0.9226190476190476 0.0 0.08323563892145369 0.9167643610785463 0.0 0.08323563892145369 0.9167643610785463 0.003089598352214212 0.3532440782698249 0.6436663233779608 0.003089598352214212 0.3532440782698249 0.6436663233779608 0.0010416666666666667 0.23125 0.7677083333333333 0.0 0.012135922330097089 0.9878640776699029 0.0 0.012135922330097089 0.9878640776699029 0.0 0.07442977190876351 0.9255702280912366 0.0 0.07442977190876351 0.9255702280912366 0.0 0.04213483146067415 0.9578651685393258 0.0 0.045205479452054796 0.9547945205479451 0.0 0.045205479452054796 0.9547945205479451 0.0010438413361169103 0.2244258872651357 0.7745302713987474 0.0010438413361169103 0.2244258872651357 0.7745302713987474 0.0 0.13680781758957655 0.8631921824104235 0.0 0.01949317738791423 0.9805068226120858 0.0 0.01949317738791423 0.9805068226120858 0.0 0.10762331838565023 0.8923766816143498 0.0 0.10762331838565023 0.8923766816143498 0.0 0.06148055207026349 0.9385194479297364 0.0 0.06650246305418718 0.9334975369458127 0.0 0.06650246305418718 0.9334975369458127 0.0020682523267838674 0.3009307135470527 0.6970010341261634 0.0020682523267838674 0.3009307135470527 0.6970010341261634 0.0010526315789473684 0.19157894736842104 0.8073684210526316 0.0 0.02922077922077922 0.9707792207792207 0.0 0.02922077922077922 0.9707792207792207 0.0 0.15145005370569278 0.8485499462943072 0.0 0.15145005370569278 0.8485499462943072 0.0 0.08901734104046242 0.9109826589595377 0.0 0.09589041095890412 0.904109589041096 0.0 0.09589041095890412 0.904109589041096 0.00411522633744856 0.38991769547325106 0.6059670781893004 0.00411522633744856 0.38991769547325106 0.6059670781893004 0.002074688796680498 0.2603734439834025 0.737551867219917 0.0 0.010695187165775402 0.9893048128342246 0.0 0.010695187165775402 0.9893048128342246 0.0 0.06459627329192547 0.9354037267080745 0.0 0.06459627329192547 0.9354037267080745 0.0 0.03560830860534125 0.9643916913946587 0.0 0.03896103896103896 0.961038961038961 0.0 0.03896103896103896 0.961038961038961 0.001050420168067227 0.19747899159663868 0.8014705882352942 0.001050420168067227 0.19747899159663868 0.8014705882352942 0.0 0.11920529801324503 0.880794701986755 0.0 0.016913319238900635 0.9830866807610994 0.0 0.016913319238900635 0.9830866807610994 0.0 0.09299655568312284 0.9070034443168772 0.0 0.09299655568312284 0.9070034443168772 0.0 0.05359477124183007 0.9464052287581699 0.0 0.05754475703324808 0.9424552429667519 0.0 0.05754475703324808 0.9424552429667519 0.002072538860103627 0.2683937823834197 0.7295336787564767 0.002072538860103627 0.2683937823834197 0.7295336787564767 0.0010626992561105207 0.16790648246546228 0.8310308182784272 0.0 0.024347826086956518 0.9756521739130435 0.0 0.024347826086956518 0.9756521739130435 0.0 0.13289760348583876 0.8671023965141612 0.0 0.13289760348583876 0.8671023965141612 0.0 0.07738095238095237 0.9226190476190476 0.0 0.08323563892145369 0.9167643610785463 0.0 0.08323563892145369 0.9167643610785463 0.003089598352214212 0.3532440782698249 0.6436663233779608 0.003089598352214212 0.3532440782698249 0.6436663233779608 0.0010416666666666667 0.23125 0.7677083333333333 0.0 0.012135922330097089 0.9878640776699029 0.0 0.012135922330097089 0.9878640776699029 0.0 0.07442977190876351 0.9255702280912366 0.0 0.07442977190876351 0.9255702280912366 0.0 0.04213483146067415 0.9578651685393258 0.0 0.045205479452054796 0.9547945205479451 0.0 0.045205479452054796 0.9547945205479451 0.0010438413361169103 0.2244258872651357 0.7745302713987474 0.0010438413361169103 0.2244258872651357 0.7745302713987474 0.0 0.13680781758957655 0.8631921824104235 0.0 0.01949317738791423 0.9805068226120858 0.0 0.01949317738791423 0.9805068226120858 0.0 0.10762331838565023 0.8923766816143498 0.0 0.10762331838565023 0.8923766816143498 0.0 0.06148055207026349 0.9385194479297364 0.0 0.06650246305418718 0.9334975369458127 0.0 0.06650246305418718 0.9334975369458127 0.0020682523267838674 0.3009307135470527 0.6970010341261634 0.0020682523267838674 0.3009307135470527 0.6970010341261634 0.0010526315789473684 0.19157894736842104 0.8073684210526316 0.0 0.02922077922077922 0.9707792207792207 0.0 0.02922077922077922 0.9707792207792207 0.0 0.15145005370569278 0.8485499462943072 0.0 0.15145005370569278 0.8485499462943072 0.0 0.08901734104046242 0.9109826589595377 0.0 0.09589041095890412 0.904109589041096 0.0 0.09589041095890412 0.904109589041096 0.00411522633744856 0.38991769547325106 0.6059670781893004 0.00411522633744856 0.38991769547325106 0.6059670781893004 0.002074688796680498 0.2603734439834025 0.737551867219917 0.0 0.020599250936329586 0.9794007490636704 0.0 0.020599250936329586 0.9794007490636704 0.0 0.11529933481152993 0.8847006651884701 0.0 0.11529933481152993 0.8847006651884701 0.0 0.06650246305418718 0.9334975369458127 0.0 0.07142857142857142 0.9285714285714285 0.0 0.07142857142857142 0.9285714285714285 0.003095975232198142 0.3178534571723426 0.6790505675954592 0.003095975232198142 0.3178534571723426 0.6790505675954592 0.0010482180293501049 0.20440251572327045 0.7945492662473795 0.0 0.031446540880503145 0.9685534591194969 0.0 0.031446540880503145 0.9685534591194969 0.0010660980810234541 0.162046908315565 0.8368869936034115 0.0010660980810234541 0.162046908315565 0.8368869936034115 0.0 0.09589041095890412 0.904109589041096 0.0 0.10372040586245772 0.8962795941375423 0.0 0.10372040586245772 0.8962795941375423 0.0051387461459403904 0.40904419321685515 0.5858170606372045 0.0051387461459403904 0.40904419321685515 0.5858170606372045 0.002070393374741201 0.27639751552795033 0.7215320910973084 0.0 0.045205479452054796 0.9547945205479451 0.0 0.045205479452054796 0.9547945205479451 0.0010438413361169103 0.2244258872651357 0.7745302713987474 0.0010438413361169103 0.2244258872651357 0.7745302713987474 0.0 0.13680781758957655 0.8631921824104235 0.0 0.14655172413793105 0.853448275862069 0.0 0.14655172413793105 0.853448275862069 0.009211873080859774 0.5056294779938587 0.48515864892528143 0.009211873080859774 0.5056294779938587 0.48515864892528143 0.00411522633744856 0.3621399176954732 0.6337448559670782 </TABLE>
  </DEFINITION>

  <DEFINITION>
    <FOR>gaze</FOR>
    <TABLE>0.5 0.5 </TABLE>
  </DEFINITION>

  <DEFINITION>
    <FOR>understanding</FOR>
    <GIVEN>understanding_t0</GIVEN>
    <GIVEN>fb_function</GIVEN>
    <GIVEN>perception</GIVEN>
    <GIVEN>certainty</GIVEN>
    <GIVEN>difficulty</GIVEN>
    <GIVEN>gaze</GIVEN>
    <GIVEN>head</GIVEN>
    <TABLE>0.9354037267080745 0.06459627329192547 0.0 0.9255702280912366 0.07442977190876351 0.0 0.9769503546099291 0.023049645390070917 0.0 0.9790076335877862 0.020992366412213737 0.0 0.9654135338345864 0.03458646616541353 0.0 0.9526387009472259 0.047361299052774024 0.0 0.9444444444444444 0.05555555555555555 0.0 0.983402489626556 0.016597510373443983 0.0 0.9841986455981941 0.01580135440180587 0.0 0.9743589743589743 0.02564102564102564 0.0 0.9643916913946587 0.03560830860534125 0.0 0.9578651685393258 0.04213483146067415 0.0 0.9878640776699029 0.012135922330097089 0.0 0.9893048128342246 0.010695187165775402 0.0 0.9805068226120858 0.01949317738791423 0.0 0.973109243697479 0.02689075630252101 0.0 0.9685534591194969 0.031446540880503145 0.0 0.9910979228486647 0.008902077151335312 0.0 0.9933554817275747 0.006644518272425249 0.0 0.986111111111111 0.01388888888888889 0.0 0.9790076335877862 0.020992366412213737 0.0 0.9769503546099291 0.023049645390070917 0.0 0.9927797833935018 0.007220216606498194 0.0 0.991869918699187 0.008130081300813009 0.0 0.989041095890411 0.010958904109589041 0.0 0.9841986455981941 0.01580135440180587 0.0 0.983402489626556 0.016597510373443983 0.0 0.9953703703703703 0.004629629629629629 0.0 0.9947089947089947 0.005291005291005291 0.0 0.9931740614334471 0.006825938566552902 0.0 0.8671023965141612 0.13289760348583876 0.0 0.8485499462943072 0.15145005370569278 0.0 0.9484808454425363 0.05151915455746367 0.0 0.9556786703601108 0.0443213296398892 0.0 0.9255702280912366 0.07442977190876351 0.0 0.9002267573696145 0.09977324263038548 0.0 0.8847006651884701 0.11529933481152993 0.0 0.9619883040935672 0.038011695906432746 0.0 0.9674922600619195 0.032507739938080496 0.0 0.9444444444444444 0.05555555555555555 0.0 0.9226190476190476 0.07738095238095237 0.0 0.9109826589595377 0.08901734104046242 0.0 0.9707792207792207 0.02922077922077922 0.0 0.9756521739130435 0.024347826086956518 0.0 0.9578651685393258 0.04213483146067415 0.0 0.9424552429667519 0.05754475703324808 0.0 0.9334975369458127 0.06650246305418718 0.0 0.9794007490636704 0.020599250936329586 0.0 0.9817444219066936 0.018255578093306288 0.0 0.9685534591194969 0.031446540880503145 0.0 0.9556786703601108 0.0443213296398892 0.0 0.9484808454425363 0.05151915455746367 0.0 0.9848484848484849 0.015151515151515152 0.0 0.9858156028368794 0.014184397163120569 0.0 0.9769503546099291 0.023049645390070917 0.0 0.9674922600619195 0.032507739938080496 0.0 0.9619883040935672 0.038011695906432746 0.0 0.9895561357702349 0.010443864229765013 0.0 0.9913294797687862 0.008670520231213872 0.0 0.983402489626556 0.016597510373443983 0.0 0.7448132780082988 0.25311203319502074 0.002074688796680498 0.7135470527404343 0.28438469493278185 0.002068252326783868 0.8923766816143498 0.10762331838565023 0.0 0.9070034443168772 0.09299655568312284 0.0 0.8485499462943072 0.15145005370569278 0.0 0.801470588235294 0.19747899159663865 0.0010504201680672268 0.7745302713987474 0.2244258872651357 0.0010438413361169103 0.9197166469893743 0.08028335301062575 0.0 0.9304878048780487 0.06951219512195121 0.0 0.8847006651884701 0.11529933481152993 0.0 0.8418803418803419 0.15705128205128202 0.0010683760683760683 0.8192389006342494 0.17970401691331925 0.0010570824524312897 0.9385194479297364 0.06148055207026349 0.0 0.9464052287581699 0.05359477124183007 0.0 0.9109826589595377 0.08901734104046242 0.0 0.880794701986755 0.11920529801324503 0.0 0.8631921824104235 0.13680781758957655 0.0 0.9547945205479451 0.045205479452054796 0.0 0.961038961038961 0.03896103896103896 0.0 0.9334975369458127 0.06650246305418718 0.0 0.9070034443168772 0.09299655568312284 0.0 0.8923766816143498 0.10762331838565023 0.0 0.9654135338345864 0.03458646616541353 0.0 0.9696485623003195 0.03035143769968051 0.0 0.9484808454425363 0.05151915455746367 0.0 0.9304878048780487 0.06951219512195121 0.0 0.9197166469893743 0.08028335301062575 0.0 0.9743589743589743 0.02564102564102564 0.0 0.9779411764705882 0.022058823529411763 0.0 0.9619883040935672 0.038011695906432746 0.0 0.9226190476190476 0.07738095238095237 0.0 0.9109826589595377 0.08901734104046242 0.0 0.9707792207792207 0.02922077922077922 0.0 0.9756521739130435 0.024347826086956518 0.0 0.9578651685393258 0.04213483146067415 0.0 0.9424552429667519 0.05754475703324808 0.0 0.9334975369458127 0.06650246305418718 0.0 0.9794007490636704 0.020599250936329586 0.0 0.9817444219066936 0.018255578093306288 0.0 0.9685534591194969 0.031446540880503145 0.0 0.9556786703601108 0.0443213296398892 0.0 0.9484808454425363 0.05151915455746367 0.0 0.9848484848484849 0.015151515151515152 0.0 0.9858156028368794 0.014184397163120569 0.0 0.9769503546099291 0.023049645390070917 0.0 0.9674922600619195 0.032507739938080496 0.0 0.9619883040935672 0.038011695906432746 0.0 0.9895561357702349 0.010443864229765013 0.0 0.9913294797687862 0.008670520231213872 0.0 0.983402489626556 0.016597510373443983 0.0 0.9756521739130435 0.024347826086956518 0.0 0.9707792207792207 0.02922077922077922 0.0 0.9905956112852664 0.009404388714733543 0.0 0.9929824561403509 0.007017543859649124 0.0 0.9878640776699029 0.012135922330097089 0.0 0.9817444219066936 0.018255578093306288 0.0 0.9794007490636704 0.020599250936329586 0.0 0.9920948616600791 0.007905138339920948 0.0 0.9955156950672646 0.004484304932735426 0.0 0.9910979228486647 0.008902077151335312 0.0 0.8418803418803419 0.15705128205128202 0.0010683760683760683 0.8192389006342494 0.17970401691331925 0.0010570824524312897 0.9385194479297364 0.06148055207026349 0.0 0.9464052287581699 0.05359477124183007 0.0 0.9109826589595377 0.08901734104046242 0.0 0.880794701986755 0.11920529801324503 0.0 0.8631921824104235 0.13680781758957655 0.0 0.9547945205479451 0.045205479452054796 0.0 0.961038961038961 0.03896103896103896 0.0 0.9334975369458127 0.06650246305418718 0.0 0.9070034443168772 0.09299655568312284 0.0 0.8923766816143498 0.10762331838565023 0.0 0.9654135338345864 0.03458646616541353 0.0 0.9696485623003195 0.03035143769968051 0.0 0.9484808454425363 0.05151915455746367 0.0 0.9304878048780487 0.06951219512195121 0.0 0.9197166469893743 0.08028335301062575 0.0 0.9743589743589743 0.02564102564102564 0.0 0.9779411764705882 0.022058823529411763 0.0 0.9619883040935672 0.038011695906432746 0.0 0.9464052287581699 0.05359477124183007 0.0 0.9385194479297364 0.06148055207026349 0.0 0.9805068226120858 0.01949317738791423 0.0 0.9830866807610994 0.016913319238900635 0.0 0.9707792207792207 0.02922077922077922 0.0 0.961038961038961 0.03896103896103896 0.0 0.9547945205479451 0.045205479452054796 0.0 0.986111111111111 0.01388888888888889 0.0 0.9872773536895674 0.01272264631043257 0.0 0.9794007490636704 0.020599250936329586 0.0 0.7052740434332988 0.2926577042399172 0.0020682523267838674 0.6707946336429309 0.32610939112487103 0.0030959752321981426 0.8719912472647703 0.12800875273522977 0.0 0.8885172798216276 0.11148272017837235 0.0 0.8192389006342494 0.17970401691331925 0.0010570824524312897 0.7677083333333333 0.23125 0.0010416666666666667 0.737551867219917 0.2603734439834025 0.002074688796680498 0.904109589041096 0.09589041095890412 0.0 0.9167643610785463 0.08323563892145369 0.0 0.8631921824104235 0.13680781758957655 0.0 0.8132911392405063 0.18565400843881855 0.0010548523206751054 0.7884816753926702 0.2104712041884817 0.0010471204188481676 0.9255702280912366 0.07442977190876351 0.0 0.9354037267080745 0.06459627329192547 0.0 0.8923766816143498 0.10762331838565023 0.0 0.8583783783783784 0.14162162162162162 0.0 0.8368869936034115 0.162046908315565 0.0010660980810234541 0.9444444444444444 0.05555555555555555 0.0 0.9526387009472259 0.047361299052774024 0.0 0.9197166469893743 0.08028335301062575 0.0 0.8885172798216276 0.11148272017837235 0.0 0.8719912472647703 0.12800875273522977 0.0 0.9578651685393258 0.04213483146067415 0.0 0.9643916913946587 0.03560830860534125 0.0 0.9385194479297364 0.06148055207026349 0.0 0.9167643610785463 0.08323563892145369 0.0 0.904109589041096 0.09589041095890412 0.0 0.9685534591194969 0.031446540880503145 0.0 0.973109243697479 0.02689075630252101 0.0 0.9547945205479451 0.045205479452054796 0.0 0.9070034443168772 0.09299655568312284 0.0 0.8923766816143498 0.10762331838565023 0.0 0.9654135338345864 0.03458646616541353 0.0 0.9696485623003195 0.03035143769968051 0.0 0.9484808454425363 0.05151915455746367 0.0 0.9304878048780487 0.06951219512195121 0.0 0.9197166469893743 0.08028335301062575 0.0 0.9743589743589743 0.02564102564102564 0.0 0.9779411764705882 0.022058823529411763 0.0 0.9619883040935672 0.038011695906432746 0.0 0.9464052287581699 0.05359477124183007 0.0 0.9385194479297364 0.06148055207026349 0.0 0.9805068226120858 0.01949317738791423 0.0 0.9830866807610994 0.016913319238900635 0.0 0.9707792207792207 0.02922077922077922 0.0 0.961038961038961 0.03896103896103896 0.0 0.9547945205479451 0.045205479452054796 0.0 0.986111111111111 0.01388888888888889 0.0 0.9872773536895674 0.01272264631043257 0.0 0.9794007490636704 0.020599250936329586 0.0 0.9696485623003195 0.03035143769968051 0.0 0.9654135338345864 0.03458646616541353 0.0 0.989041095890411 0.010958904109589041 0.0 0.9908536585365854 0.009146341463414634 0.0 0.9848484848484849 0.015151515151515152 0.0 0.9779411764705882 0.022058823529411763 0.0 0.9743589743589743 0.02564102564102564 0.0 0.9931740614334471 0.006825938566552902 0.0 0.9923371647509579 0.007662835249042145 0.0 0.9895561357702349 0.010443864229765013 0.0 0.8132911392405063 0.18565400843881855 0.0010548523206751054 0.7884816753926702 0.2104712041884817 0.0010471204188481676 0.9255702280912366 0.07442977190876351 0.0 0.9354037267080745 0.06459627329192547 0.0 0.8923766816143498 0.10762331838565023 0.0 0.8583783783783784 0.14162162162162162 0.0 0.8368869936034115 0.162046908315565 0.0010660980810234541 0.9444444444444444 0.05555555555555555 0.0 0.9526387009472259 0.047361299052774024 0.0 0.9197166469893743 0.08028335301062575 0.0 0.8885172798216276 0.11148272017837235 0.0 0.8719912472647703 0.12800875273522977 0.0 0.9578651685393258 0.04213483146067415 0.0 0.9643916913946587 0.03560830860534125 0.0 0.9385194479297364 0.06148055207026349 0.0 0.9167643610785463 0.08323563892145369 0.0 0.904109589041096 0.09589041095890412 0.0 0.9685534591194969 0.031446540880503145 0.0 0.973109243697479 0.02689075630252101 0.0 0.9547945205479451 0.045205479452054796 0.0 0.9354037267080745 0.06459627329192547 0.0 0.9255702280912366 0.07442977190876351 0.0 0.9769503546099291 0.023049645390070917 0.0 0.9790076335877862 0.020992366412213737 0.0 0.9654135338345864 0.03458646616541353 0.0 0.9526387009472259 0.047361299052774024 0.0 0.9444444444444444 0.05555555555555555 0.0 0.983402489626556 0.016597510373443983 0.0 0.9841986455981941 0.01580135440180587 0.0 0.9743589743589743 0.02564102564102564 0.0 0.6618556701030928 0.33505154639175255 0.003092783505154639 0.6244855967078189 0.3713991769547325 0.00411522633744856 0.8485499462943072 0.15145005370569278 0.0 0.8671023965141612 0.13289760348583876 0.0 0.7884816753926702 0.2104712041884817 0.0010471204188481676 0.7295336787564767 0.2683937823834197 0.002072538860103627 0.6970010341261634 0.3009307135470527 0.0020682523267838674 0.8847006651884701 0.11529933481152993 0.0 0.9002267573696145 0.09977324263038548 0.0 0.8368869936034115 0.162046908315565 0.0010660980810234541 0.7816091954022989 0.2173458725182863 0.0010449320794148381 0.7533818938605619 0.24557752341311134 0.001040582726326743 0.9109826589595377 0.08901734104046242 0.0 0.9226190476190476 0.07738095238095237 0.0 0.8719912472647703 0.12800875273522977 0.0 0.8310308182784272 0.16790648246546228 0.0010626992561105207 0.8073684210526315 0.19157894736842104 0.0010526315789473684 0.9334975369458127 0.06650246305418718 0.0 0.9424552429667519 0.05754475703324808 0.0 0.904109589041096 0.09589041095890412 0.0 0.8671023965141612 0.13289760348583876 0.0 0.8485499462943072 0.15145005370569278 0.0 0.9484808454425363 0.05151915455746367 0.0 0.9556786703601108 0.0443213296398892 0.0 0.9255702280912366 0.07442977190876351 0.0 0.9002267573696145 0.09977324263038548 0.0 0.8847006651884701 0.11529933481152993 0.0 0.9619883040935672 0.038011695906432746 0.0 0.9674922600619195 0.032507739938080496 0.0 0.9444444444444444 0.05555555555555555 0.0 0.9434447300771208 0.056555269922879174 0.0 0.9344870210135969 0.06551297898640296 0.0 0.9792060491493384 0.020793950850661623 0.0 0.9815573770491803 0.018442622950819672 0.0 0.9698412698412698 0.03015873015873016 0.0 0.9589816124469589 0.04101838755304102 0.0 0.9516129032258064 0.04838709677419355 0.0 0.984375 0.015625 0.0 0.9877149877149877 0.012285012285012284 0.0 0.9781420765027322 0.02185792349726776 0.0 0.96875 0.03125 0.0 0.9631811487481591 0.036818851251840944 0.0 0.9894179894179894 0.010582010582010581 0.0 0.9912023460410557 0.00879765395894428 0.0 0.9832285115303983 0.016771488469601678 0.0 0.9767441860465116 0.02325581395348837 0.0 0.9733333333333333 0.02666666666666667 0.0 0.990228013029316 0.00977198697068404 0.0 0.9926739926739927 0.007326007326007326 0.0 0.9874371859296482 0.012562814070351758 0.0 0.9815573770491803 0.018442622950819672 0.0 0.9792060491493384 0.020793950850661623 0.0 0.992 0.008 0.0 0.9954337899543378 0.0045662100456621 0.0 0.9909638554216867 0.009036144578313253 0.0 0.9877149877149877 0.012285012285012284 0.0 0.984375 0.015625 0.0 0.9947916666666666 0.005208333333333333 0.0 0.9940476190476191 0.005952380952380952 0.0 0.9924528301886792 0.007547169811320755 0.0 0.8827433628318584 0.11725663716814158 0.0 0.8652173913043478 0.13478260869565217 0.0 0.9545454545454545 0.045454545454545456 0.0 0.9622093023255813 0.0377906976744186 0.0 0.9344870210135969 0.06551297898640296 0.0 0.9118329466357309 0.08816705336426914 0.0 0.8983050847457628 0.10169491525423728 0.0 0.9676923076923076 0.03230769230769231 0.0 0.9721311475409836 0.027868852459016397 0.0 0.9516129032258064 0.04838709677419355 0.0 0.9325153374233128 0.06748466257668712 0.0 0.9217081850533808 0.07829181494661923 0.0 0.9741379310344828 0.02586206896551724 0.0 0.9777365491651205 0.022263450834879406 0.0 0.9631811487481591 0.036818851251840944 0.0 0.9494680851063829 0.05053191489361702 0.0 0.9414012738853502 0.058598726114649675 0.0 0.9819277108433735 0.018072289156626505 0.0 0.9846827133479212 0.015317286652078774 0.0 0.9733333333333333 0.02666666666666667 0.0 0.9622093023255813 0.0377906976744186 0.0 0.9545454545454545 0.045454545454545456 0.0 0.9859484777517564 0.01405152224824356 0.0 0.987146529562982 0.012853470437017995 0.0 0.9792060491493384 0.020793950850661623 0.0 0.9721311475409836 0.027868852459016397 0.0 0.9676923076923076 0.03230769230769231 0.0 0.9886039886039886 0.011396011396011397 0.0 0.9904761904761905 0.009523809523809525 0.0 0.984375 0.015625 0.0 0.7713987473903967 0.22755741127348644 0.0010438413361169103 0.7406639004149378 0.2572614107883818 0.002074688796680498 0.9050343249427918 0.09496567505720824 0.0 0.9187279151943464 0.08127208480565372 0.0 0.8652173913043478 0.13478260869565217 0.0 0.8222222222222222 0.17671957671957672 0.001058201058201058 0.7983193277310924 0.20063025210084032 0.0010504201680672268 0.9295261239368164 0.07047387606318348 0.0 0.9394703656998739 0.0605296343001261 0.0 0.8983050847457628 0.10169491525423728 0.0 0.8603896103896104 0.1396103896103896 0.0 0.8388473852721451 0.16008537886872998 0.0010672358591248667 0.9453836150845253 0.054616384915474644 0.0 0.9537414965986394 0.04625850340136055 0.0 0.9217081850533808 0.07829181494661923 0.0 0.8943820224719101 0.10561797752808989 0.0 0.8788546255506609 0.1211453744493392 0.0 0.9598853868194842 0.040114613180515755 0.0 0.9651515151515151 0.034848484848484844 0.0 0.9414012738853502 0.058598726114649675 0.0 0.9187279151943464 0.08127208480565372 0.0 0.9050343249427918 0.09496567505720824 0.0 0.9698412698412698 0.03015873015873016 0.0 0.9745762711864406 0.025423728813559324 0.0 0.9545454545454545 0.045454545454545456 0.0 0.9394703656998739 0.0605296343001261 0.0 0.9295261239368164 0.07047387606318348 0.0 0.9781420765027322 0.02185792349726776 0.0 0.9803149606299213 0.01968503937007874 0.0 0.9676923076923076 0.03230769230769231 0.0 0.9325153374233128 0.06748466257668712 0.0 0.9217081850533808 0.07829181494661923 0.0 0.9741379310344828 0.02586206896551724 0.0 0.9777365491651205 0.022263450834879406 0.0 0.9631811487481591 0.036818851251840944 0.0 0.9494680851063829 0.05053191489361702 0.0 0.9414012738853502 0.058598726114649675 0.0 0.9819277108433735 0.018072289156626505 0.0 0.9846827133479212 0.015317286652078774 0.0 0.9733333333333333 0.02666666666666667 0.0 0.9622093023255813 0.0377906976744186 0.0 0.9545454545454545 0.045454545454545456 0.0 0.9859484777517564 0.01405152224824356 0.0 0.987146529562982 0.012853470437017995 0.0 0.9792060491493384 0.020793950850661623 0.0 0.9721311475409836 0.027868852459016397 0.0 0.9676923076923076 0.03230769230769231 0.0 0.9886039886039886 0.011396011396011397 0.0 0.9904761904761905 0.009523809523809525 0.0 0.984375 0.015625 0.0 0.9777365491651205 0.022263450834879406 0.0 0.9741379310344828 0.02586206896551724 0.0 0.9930795847750865 0.006920415224913496 0.0 0.9922178988326849 0.007782101167315175 0.0 0.9894179894179894 0.010582010582010581 0.0 0.9846827133479212 0.015317286652078774 0.0 0.9819277108433735 0.018072289156626505 0.0 0.995575221238938 0.004424778761061947 0.0 0.9949748743718593 0.005025125628140704 0.0 0.990228013029316 0.00977198697068404 0.0 0.8603896103896104 0.1396103896103896 0.0 0.8388473852721451 0.16008537886872998 0.0010672358591248667 0.9453836150845253 0.054616384915474644 0.0 0.9537414965986394 0.04625850340136055 0.0 0.9217081850533808 0.07829181494661923 0.0 0.8943820224719101 0.10561797752808989 0.0 0.8788546255506609 0.1211453744493392 0.0 0.9598853868194842 0.040114613180515755 0.0 0.9651515151515151 0.034848484848484844 0.0 0.9414012738853502 0.058598726114649675 0.0 0.9187279151943464 0.08127208480565372 0.0 0.9050343249427918 0.09496567505720824 0.0 0.9698412698412698 0.03015873015873016 0.0 0.9745762711864406 0.025423728813559324 0.0 0.9545454545454545 0.045454545454545456 0.0 0.9394703656998739 0.0605296343001261 0.0 0.9295261239368164 0.07047387606318348 0.0 0.9781420765027322 0.02185792349726776 0.0 0.9803149606299213 0.01968503937007874 0.0 0.9676923076923076 0.03230769230769231 0.0 0.9537414965986394 0.04625850340136055 0.0 0.9453836150845253 0.054616384915474644 0.0 0.9832285115303983 0.016771488469601678 0.0 0.9862700228832951 0.013729977116704806 0.0 0.9741379310344828 0.02586206896551724 0.0 0.9651515151515151 0.034848484848484844 0.0 0.9598853868194842 0.040114613180515755 0.0 0.9874371859296482 0.012562814070351758 0.0 0.9888888888888889 0.011111111111111112 0.0 0.9819277108433735 0.018072289156626505 0.0 0.7336787564766839 0.26424870466321243 0.002072538860103627 0.7011375387797311 0.29679420889348496 0.0020682523267838674 0.8866666666666667 0.11333333333333333 0.0 0.9021615472127418 0.09783845278725824 0.0 0.8388473852721451 0.16008537886872998 0.0010672358591248667 0.7916230366492147 0.20732984293193718 0.0010471204188481676 0.7645833333333334 0.23437500000000003 0.0010416666666666667 0.9148191365227538 0.08518086347724621 0.0 0.9265060240963855 0.07349397590361445 0.0 0.8788546255506609 0.1211453744493392 0.0 0.8340425531914893 0.16489361702127658 0.0010638297872340426 0.8103266596417282 0.1886195995785037 0.0010537407797681772 0.9344870210135969 0.06551297898640296 0.0 0.9434447300771208 0.056555269922879174 0.0 0.9050343249427918 0.09496567505720824 0.0 0.8740416210295728 0.12595837897042717 0.0 0.8554476806903991 0.14455231930960086 0.0 0.9516129032258064 0.04838709677419355 0.0 0.9589816124469589 0.04101838755304102 0.0 0.9295261239368164 0.07047387606318348 0.0 0.9021615472127418 0.09783845278725824 0.0 0.8866666666666667 0.11333333333333333 0.0 0.9631811487481591 0.036818851251840944 0.0 0.96875 0.03125 0.0 0.9453836150845253 0.054616384915474644 0.0 0.9265060240963855 0.07349397590361445 0.0 0.9148191365227538 0.08518086347724621 0.0 0.9733333333333333 0.02666666666666667 0.0 0.9767441860465116 0.02325581395348837 0.0 0.9598853868194842 0.040114613180515755 0.0 0.9187279151943464 0.08127208480565372 0.0 0.9050343249427918 0.09496567505720824 0.0 0.9698412698412698 0.03015873015873016 0.0 0.9745762711864406 0.025423728813559324 0.0 0.9545454545454545 0.045454545454545456 0.0 0.9394703656998739 0.0605296343001261 0.0 0.9295261239368164 0.07047387606318348 0.0 0.9781420765027322 0.02185792349726776 0.0 0.9803149606299213 0.01968503937007874 0.0 0.9676923076923076 0.03230769230769231 0.0 0.9537414965986394 0.04625850340136055 0.0 0.9453836150845253 0.054616384915474644 0.0 0.9832285115303983 0.016771488469601678 0.0 0.9862700228832951 0.013729977116704806 0.0 0.9741379310344828 0.02586206896551724 0.0 0.9651515151515151 0.034848484848484844 0.0 0.9598853868194842 0.040114613180515755 0.0 0.9874371859296482 0.012562814070351758 0.0 0.9888888888888889 0.011111111111111112 0.0 0.9819277108433735 0.018072289156626505 0.0 0.9745762711864406 0.025423728813559324 0.0 0.9698412698412698 0.03015873015873016 0.0 0.9909638554216867 0.009036144578313253 0.0 0.9932659932659933 0.006734006734006735 0.0 0.9859484777517564 0.01405152224824356 0.0 0.9803149606299213 0.01968503937007874 0.0 0.9781420765027322 0.02185792349726776 0.0 0.9924528301886792 0.007547169811320755 0.0 0.9957264957264957 0.004273504273504273 0.0 0.9886039886039886 0.011396011396011397 0.0 0.8340425531914893 0.16489361702127658 0.0010638297872340426 0.8103266596417282 0.1886195995785037 0.0010537407797681772 0.9344870210135969 0.06551297898640296 0.0 0.9434447300771208 0.056555269922879174 0.0 0.9050343249427918 0.09496567505720824 0.0 0.8740416210295728 0.12595837897042717 0.0 0.8554476806903991 0.14455231930960086 0.0 0.9516129032258064 0.04838709677419355 0.0 0.9589816124469589 0.04101838755304102 0.0 0.9295261239368164 0.07047387606318348 0.0 0.9021615472127418 0.09783845278725824 0.0 0.8866666666666667 0.11333333333333333 0.0 0.9631811487481591 0.036818851251840944 0.0 0.96875 0.03125 0.0 0.9453836150845253 0.054616384915474644 0.0 0.9265060240963855 0.07349397590361445 0.0 0.9148191365227538 0.08518086347724621 0.0 0.9733333333333333 0.02666666666666667 0.0 0.9767441860465116 0.02325581395348837 0.0 0.9598853868194842 0.040114613180515755 0.0 0.9434447300771208 0.056555269922879174 0.0 0.9344870210135969 0.06551297898640296 0.0 0.9792060491493384 0.020793950850661623 0.0 0.9815573770491803 0.018442622950819672 0.0 0.9698412698412698 0.03015873015873016 0.0 0.9589816124469589 0.04101838755304102 0.0 0.9516129032258064 0.04838709677419355 0.0 0.984375 0.015625 0.0 0.9877149877149877 0.012285012285012284 0.0 0.9781420765027322 0.02185792349726776 0.0 0.6928645294725957 0.30506721820062044 0.0020682523267838674 0.6573787409700723 0.3395252837977296 0.0030959752321981426 0.8652173913043478 0.13478260869565217 0.0 0.8827433628318584 0.11725663716814158 0.0 0.8103266596417282 0.1886195995785037 0.0010537407797681772 0.7565036420395421 0.24245577523413114 0.001040582726326743 0.7256728778467909 0.2722567287784679 0.002070393374741201 0.8983050847457628 0.10169491525423728 0.0 0.9118329466357309 0.08816705336426914 0.0 0.8554476806903991 0.14455231930960086 0.0 0.8044164037854891 0.19453207150368035 0.0010515247108307045 0.7784743991640544 0.22048066875653083 0.0010449320794148381 0.9217081850533808 0.07829181494661923 0.0 0.9325153374233128 0.06748466257668712 0.0 0.8866666666666667 0.11333333333333333 0.0 0.8505376344086022 0.14946236559139786 0.0 0.8280254777070063 0.17091295116772823 0.0010615711252653928 0.9414012738853502 0.058598726114649675 0.0 0.9494680851063829 0.05053191489361702 0.0 0.9148191365227538 0.08518086347724621 0.0 0.8827433628318584 0.11725663716814158 0.0 0.8652173913043478 0.13478260869565217 0.0 0.9545454545454545 0.045454545454545456 0.0 0.9622093023255813 0.0377906976744186 0.0 0.9344870210135969 0.06551297898640296 0.0 0.9118329466357309 0.08816705336426914 0.0 0.8983050847457628 0.10169491525423728 0.0 0.9676923076923076 0.03230769230769231 0.0 0.9721311475409836 0.027868852459016397 0.0 0.9516129032258064 0.04838709677419355 0.0 0.6385169927909372 0.3573635427394439 0.004119464469618949 0.6002055498458376 0.39465570400822203 0.0051387461459403904 0.8340425531914893 0.16489361702127658 0.0010638297872340426 0.8554476806903991 0.14455231930960086 0.0 0.7713987473903967 0.22755741127348644 0.0010438413361169103 0.7094105480868665 0.28852119958634953 0.0020682523267838674 0.6749226006191951 0.3219814241486068 0.0030959752321981426 0.8740416210295728 0.12595837897042717 0.0 0.8905027932960894 0.10949720670391061 0.0 0.8222222222222222 0.17671957671957672 0.001058201058201058 0.7645833333333334 0.23437500000000003 0.0010416666666666667 0.7336787564766839 0.26424870466321243 0.002072538860103627 0.9021615472127418 0.09783845278725824 0.0 0.9148191365227538 0.08518086347724621 0.0 0.8603896103896104 0.1396103896103896 0.0 0.8162618796198522 0.1826821541710665 0.0010559662090813095 0.7916230366492147 0.20732984293193718 0.0010471204188481676 0.9265060240963855 0.07349397590361445 0.0 0.9375 0.0625 0.0 0.8943820224719101 0.10561797752808989 0.0 0.8554476806903991 0.14455231930960086 0.0 0.8340425531914893 0.16489361702127658 0.0010638297872340426 0.9434447300771208 0.056555269922879174 0.0 0.9516129032258064 0.04838709677419355 0.0 0.9187279151943464 0.08127208480565372 0.0 0.8905027932960894 0.10949720670391061 0.0 0.8740416210295728 0.12595837897042717 0.0 0.9589816124469589 0.04101838755304102 0.0 0.9641791044776119 0.035820895522388055 0.0 0.9394703656998739 0.0605296343001261 0.0 0.43979591836734694 0.5479591836734694 0.012244897959183675 0.3997965412004069 0.5849440488301119 0.01525940996948118 0.6928645294725957 0.30506721820062044 0.0020682523267838674 0.7256728778467909 0.2722567287784679 0.002070393374741201 0.6002055498458376 0.39465570400822203 0.0051387461459403904 0.5204918032786885 0.4713114754098361 0.00819672131147541 0.48004094165813715 0.5097236438075742 0.01023541453428864 0.7565036420395421 0.24245577523413114 0.001040582726326743 0.7845188284518829 0.21443514644351463 0.0010460251046025106 0.6749226006191951 0.3219814241486068 0.0030959752321981426 0.5909558067831449 0.40390544707091475 0.0051387461459403904 0.5513347022587269 0.44250513347022585 0.006160164271047228 0.8044164037854891 0.19453207150368035 0.0010515247108307045 0.8280254777070063 0.17091295116772823 0.0010615711252653928 0.7336787564766839 0.26424870466321243 0.002072538860103627 0.6659793814432989 0.3309278350515464 0.003092783505154639 0.6292481977342945 0.3666323377960865 0.004119464469618949 0.8505376344086022 0.14946236559139786 0.0 0.8700873362445415 0.1299126637554585 0.0 0.7916230366492147 0.20732984293193718 0.0010471204188481676 0.7256728778467909 0.2722567287784679 0.002070393374741201 0.6928645294725957 0.30506721820062044 0.0020682523267838674 0.8827433628318584 0.11725663716814158 0.0 0.8983050847457628 0.10169491525423728 0.0 0.8340425531914893 0.16489361702127658 0.0010638297872340426 0.7845188284518829 0.21443514644351463 0.0010460251046025106 0.7565036420395421 0.24245577523413114 0.001040582726326743 0.9118329466357309 0.08816705336426914 0.0 0.9246411483253588 0.07535885167464114 0.0 0.8740416210295728 0.12595837897042717 0.0 0.2552552552552553 0.7087087087087087 0.036036036036036036 0.22432701894317053 0.7318045862412762 0.043868394815553345 0.5005117707267144 0.49027635619242577 0.009211873080859774 0.5405128205128206 0.4523076923076923 0.0071794871794871795 0.3997965412004069 0.5849440488301119 0.01525940996948118 0.32391523713420783 0.651866801210898 0.024217961654894045 0.28873239436619713 0.682092555331992 0.029175050301810862 0.581275720164609 0.4135802469135803 0.0051440329218107 0.619979402677652 0.37590113285272914 0.004119464469618949 0.48004094165813715 0.5097236438075742 0.01023541453428864 0.3902439024390244 0.5934959349593496 0.016260162601626018 0.3515704154002026 0.6281661600810537 0.020263424518743668 0.6484536082474226 0.34845360824742266 0.003092783505154639 0.6831785345717235 0.3137254901960784 0.0030959752321981426 0.5513347022587269 0.44250513347022585 0.006160164271047228 0.47034764826175873 0.5194274028629857 0.010224948875255624 0.4295918367346938 0.5571428571428572 0.013265306122448977 0.717391304347826 0.28053830227743276 0.002070393374741201 0.7494802494802495 0.24948024948024947 0.0010395010395010396 0.6292481977342945 0.3666323377960865 0.004119464469618949 0.5405128205128206 0.4523076923076923 0.0071794871794871795 0.5005117707267144 0.49027635619242577 0.009211873080859774 0.7713987473903967 0.22755741127348644 0.0010438413361169103 0.7983193277310924 0.20063025210084032 0.0010504201680672268 0.6928645294725957 0.30506721820062044 0.0020682523267838674 0.619979402677652 0.37590113285272914 0.004119464469618949 0.581275720164609 0.4135802469135803 0.0051440329218107 0.8222222222222222 0.17671957671957672 0.001058201058201058 0.8456591639871383 0.15434083601286172 0.0 0.7565036420395421 0.24245577523413114 0.001040582726326743 0.5909558067831449 0.40390544707091475 0.0051387461459403904 0.5513347022587269 0.44250513347022585 0.006160164271047228 0.8044164037854891 0.19453207150368035 0.0010515247108307045 0.8280254777070063 0.17091295116772823 0.0010615711252653928 0.7336787564766839 0.26424870466321243 0.002072538860103627 0.6659793814432989 0.3309278350515464 0.003092783505154639 0.6292481977342945 0.3666323377960865 0.004119464469618949 0.8505376344086022 0.14946236559139786 0.0 0.8700873362445415 0.1299126637554585 0.0 0.7916230366492147 0.20732984293193718 0.0010471204188481676 0.7256728778467909 0.2722567287784679 0.002070393374741201 0.6928645294725957 0.30506721820062044 0.0020682523267838674 0.8827433628318584 0.11725663716814158 0.0 0.8983050847457628 0.10169491525423728 0.0 0.8340425531914893 0.16489361702127658 0.0010638297872340426 0.7845188284518829 0.21443514644351463 0.0010460251046025106 0.7565036420395421 0.24245577523413114 0.001040582726326743 0.9118329466357309 0.08816705336426914 0.0 0.9246411483253588 0.07535885167464114 0.0 0.8740416210295728 0.12595837897042717 0.0 0.8280254777070063 0.17091295116772823 0.0010615711252653928 0.8044164037854891 0.19453207150368035 0.0010515247108307045 0.9325153374233128 0.06748466257668712 0.0 0.9414012738853502 0.058598726114649675 0.0 0.9021615472127418 0.09783845278725824 0.0 0.8700873362445415 0.1299126637554585 0.0 0.8505376344086022 0.14946236559139786 0.0 0.9494680851063829 0.05053191489361702 0.0 0.9567642956764295 0.04323570432357043 0.0 0.9265060240963855 0.07349397590361445 0.0 0.3902439024390244 0.5934959349593496 0.016260162601626018 0.3515704154002026 0.6281661600810537 0.020263424518743668 0.6484536082474226 0.34845360824742266 0.003092783505154639 0.6831785345717235 0.3137254901960784 0.0030959752321981426 0.5513347022587269 0.44250513347022585 0.006160164271047228 0.47034764826175873 0.5194274028629857 0.010224948875255624 0.4295918367346938 0.5571428571428572 0.013265306122448977 0.717391304347826 0.28053830227743276 0.002070393374741201 0.7494802494802495 0.24948024948024947 0.0010395010395010396 0.6292481977342945 0.3666323377960865 0.004119464469618949 0.5405128205128206 0.4523076923076923 0.0071794871794871795 0.5005117707267144 0.49027635619242577 0.009211873080859774 0.7713987473903967 0.22755741127348644 0.0010438413361169103 0.7983193277310924 0.20063025210084032 0.0010504201680672268 0.6928645294725957 0.30506721820062044 0.0020682523267838674 0.619979402677652 0.37590113285272914 0.004119464469618949 0.581275720164609 0.4135802469135803 0.0051440329218107 0.8222222222222222 0.17671957671957672 0.001058201058201058 0.8456591639871383 0.15434083601286172 0.0 0.7565036420395421 0.24245577523413114 0.001040582726326743 0.6831785345717235 0.3137254901960784 0.0030959752321981426 0.6484536082474226 0.34845360824742266 0.003092783505154639 0.8603896103896104 0.1396103896103896 0.0 0.8788546255506609 0.1211453744493392 0.0 0.8044164037854891 0.19453207150368035 0.0010515247108307045 0.7494802494802495 0.24948024948024947 0.0010395010395010396 0.717391304347826 0.28053830227743276 0.002070393374741201 0.8943820224719101 0.10561797752808989 0.0 0.9089861751152074 0.09101382488479264 0.0 0.8505376344086022 0.14946236559139786 0.0 0.2173479561316052 0.73678963110668 0.04586241276171486 0.18986083499005965 0.7554671968190855 0.05467196819085487 0.45 0.5377551020408163 0.012244897959183675 0.49027635619242577 0.5005117707267144 0.009211873080859774 0.3515704154002026 0.6281661600810537 0.020263424518743668 0.28012048192771083 0.6887550200803213 0.031124497991967866 0.248 0.714 0.038 0.5312820512820513 0.46153846153846156 0.0071794871794871795 0.5708418891170431 0.42299794661190965 0.006160164271047228 0.4295918367346938 0.5571428571428572 0.013265306122448977 0.34210526315789475 0.6366396761133603 0.02125506072874494 0.3064516129032258 0.6673387096774194 0.026209677419354836 0.6002055498458376 0.39465570400822203 0.0051387461459403904 0.6385169927909372 0.3573635427394439 0.004119464469618949 0.5005117707267144 0.49027635619242577 0.009211873080859774 0.4195519348268839 0.5661914460285133 0.014256619144602852 0.3800813008130081 0.6026422764227642 0.017276422764227643 0.6749226006191951 0.3219814241486068 0.0030959752321981426 0.7094105480868665 0.28852119958634953 0.0020682523267838674 0.581275720164609 0.4135802469135803 0.0051440329218107 0.49027635619242577 0.5005117707267144 0.009211873080859774 0.45 0.5377551020408163 0.012244897959183675 0.7336787564766839 0.26424870466321243 0.002072538860103627 0.7645833333333334 0.23437500000000003 0.0010416666666666667 0.6484536082474226 0.34845360824742266 0.003092783505154639 0.5708418891170431 0.42299794661190965 0.006160164271047228 0.5312820512820513 0.46153846153846156 0.0071794871794871795 0.7916230366492147 0.20732984293193718 0.0010471204188481676 0.8162618796198522 0.1826821541710665 0.0010559662090813095 0.717391304347826 0.28053830227743276 0.002070393374741201 0.5405128205128206 0.4523076923076923 0.0071794871794871795 0.5005117707267144 0.49027635619242577 0.009211873080859774 0.7713987473903967 0.22755741127348644 0.0010438413361169103 0.7983193277310924 0.20063025210084032 0.0010504201680672268 0.6928645294725957 0.30506721820062044 0.0020682523267838674 0.619979402677652 0.37590113285272914 0.004119464469618949 0.581275720164609 0.4135802469135803 0.0051440329218107 0.8222222222222222 0.17671957671957672 0.001058201058201058 0.8456591639871383 0.15434083601286172 0.0 0.7565036420395421 0.24245577523413114 0.001040582726326743 0.6831785345717235 0.3137254901960784 0.0030959752321981426 0.6484536082474226 0.34845360824742266 0.003092783505154639 0.8603896103896104 0.1396103896103896 0.0 0.8788546255506609 0.1211453744493392 0.0 0.8044164037854891 0.19453207150368035 0.0010515247108307045 0.7494802494802495 0.24948024948024947 0.0010395010395010396 0.717391304347826 0.28053830227743276 0.002070393374741201 0.8943820224719101 0.10561797752808989 0.0 0.9089861751152074 0.09101382488479264 0.0 0.8505376344086022 0.14946236559139786 0.0 0.7983193277310924 0.20063025210084032 0.0010504201680672268 0.7713987473903967 0.22755741127348644 0.0010438413361169103 0.9187279151943464 0.08127208480565372 0.0 0.9295261239368164 0.07047387606318348 0.0 0.8827433628318584 0.11725663716814158 0.0 0.8456591639871383 0.15434083601286172 0.0 0.8222222222222222 0.17671957671957672 0.001058201058201058 0.9394703656998739 0.0605296343001261 0.0 0.9474375821287779 0.052562417871222074 0.0 0.9118329466357309 0.08816705336426914 0.0 0.34210526315789475 0.6366396761133603 0.02125506072874494 0.3064516129032258 0.6673387096774194 0.026209677419354836 0.6002055498458376 0.39465570400822203 0.0051387461459403904 0.6385169927909372 0.3573635427394439 0.004119464469618949 0.5005117707267144 0.49027635619242577 0.009211873080859774 0.4195519348268839 0.5661914460285133 0.014256619144602852 0.3800813008130081 0.6026422764227642 0.017276422764227643 0.6749226006191951 0.3219814241486068 0.0030959752321981426 0.7094105480868665 0.28852119958634953 0.0020682523267838674 0.581275720164609 0.4135802469135803 0.0051440329218107 0.49027635619242577 0.5005117707267144 0.009211873080859774 0.45 0.5377551020408163 0.012244897959183675 0.7336787564766839 0.26424870466321243 0.002072538860103627 0.7645833333333334 0.23437500000000003 0.0010416666666666667 0.6484536082474226 0.34845360824742266 0.003092783505154639 0.5708418891170431 0.42299794661190965 0.006160164271047228 0.5312820512820513 0.46153846153846156 0.0071794871794871795 0.7916230366492147 0.20732984293193718 0.0010471204188481676 0.8162618796198522 0.1826821541710665 0.0010559662090813095 0.717391304347826 0.28053830227743276 0.002070393374741201 0.6385169927909372 0.3573635427394439 0.004119464469618949 0.6002055498458376 0.39465570400822203 0.0051387461459403904 0.8340425531914893 0.16489361702127658 0.0010638297872340426 0.8554476806903991 0.14455231930960086 0.0 0.7713987473903967 0.22755741127348644 0.0010438413361169103 0.7094105480868665 0.28852119958634953 0.0020682523267838674 0.6749226006191951 0.3219814241486068 0.0030959752321981426 0.8740416210295728 0.12595837897042717 0.0 0.8905027932960894 0.10949720670391061 0.0 0.8222222222222222 0.17671957671957672 0.001058201058201058 0.18353174603174602 0.7589285714285714 0.05753968253968254 0.1594059405940594 0.7722772277227723 0.06831683168316832 0.3997965412004069 0.5849440488301119 0.01525940996948118 0.43979591836734694 0.5479591836734694 0.012244897959183675 0.3064516129032258 0.6673387096774194 0.026209677419354836 0.23976023976023977 0.7202797202797203 0.03996003996003997 0.21015936254980078 0.7420318725099602 0.04780876494023904 0.48004094165813715 0.5097236438075742 0.01023541453428864 0.5204918032786885 0.4713114754098361 0.00819672131147541 0.3800813008130081 0.6026422764227642 0.017276422764227643 0.29707955689828797 0.67472306143001 0.02819738167170191 0.2635270541082164 0.7024048096192385 0.03406813627254509 0.5513347022587269 0.44250513347022585 0.006160164271047228 0.5909558067831449 0.40390544707091475 0.0051387461459403904 0.45 0.5377551020408163 0.012244897959183675 0.37055837563451777 0.6111675126903553 0.0182741116751269 0.33265925176946415 0.6440849342770475 0.023255813953488372 0.6292481977342945 0.3666323377960865 0.004119464469618949 0.6659793814432989 0.3309278350515464 0.003092783505154639 0.5312820512820513 0.46153846153846156 0.0071794871794871795 0.43979591836734694 0.5479591836734694 0.012244897959183675 0.3997965412004069 0.5849440488301119 0.01525940996948118 0.6928645294725957 0.30506721820062044 0.0020682523267838674 0.7256728778467909 0.2722567287784679 0.002070393374741201 0.6002055498458376 0.39465570400822203 0.0051387461459403904 0.5204918032786885 0.4713114754098361 0.00819672131147541 0.48004094165813715 0.5097236438075742 0.01023541453428864 0.7565036420395421 0.24245577523413114 0.001040582726326743 0.7845188284518829 0.21443514644351463 0.0010460251046025106 0.6749226006191951 0.3219814241486068 0.0030959752321981426 0.9505347593582887 0.049465240641711226 0.0 0.9424552429667519 0.05754475703324808 0.0 0.9817444219066936 0.018255578093306288 0.0 0.9845132743362832 0.015486725663716814 0.0 0.973109243697479 0.02689075630252101 0.0 0.9643916913946587 0.03560830860534125 0.0 0.9578651685393258 0.04213483146067415 0.0 0.9878640776699029 0.012135922330097089 0.0 0.9893048128342246 0.010695187165775402 0.0 0.9805068226120858 0.01949317738791423 0.0 0.9719471947194719 0.028052805280528056 0.0 0.9674922600619195 0.032507739938080496 0.0 0.9913294797687862 0.008670520231213872 0.0 0.9903536977491961 0.00964630225080386 0.0 0.9841986455981941 0.01580135440180587 0.0 0.9790076335877862 0.020992366412213737 0.0 0.9769503546099291 0.023049645390070917 0.0 0.9927797833935018 0.007220216606498194 0.0 0.991869918699187 0.008130081300813009 0.0 0.989041095890411 0.010958904109589041 0.0 0.9845132743362832 0.015486725663716814 0.0 0.9817444219066936 0.018255578093306288 0.0 0.9955156950672646 0.004484304932735426 0.0 0.9948979591836735 0.00510204081632653 0.0 0.9933554817275747 0.006644518272425249 0.0 0.9893048128342246 0.010695187165775402 0.0 0.9878640776699029 0.012135922330097089 0.0 0.9941520467836257 0.005847953216374269 0.0 0.9932432432432432 0.006756756756756757 0.0 0.9957805907172996 0.0042194092827004225 0.0 0.8962795941375423 0.10372040586245772 0.0 0.880794701986755 0.11920529801324503 0.0 0.961038961038961 0.03896103896103896 0.0 0.9664122137404579 0.03358778625954198 0.0 0.9424552429667519 0.05754475703324808 0.0 0.9226190476190476 0.07738095238095237 0.0 0.9109826589595377 0.08901734104046242 0.0 0.9707792207792207 0.02922077922077922 0.0 0.9756521739130435 0.024347826086956518 0.0 0.9578651685393258 0.04213483146067415 0.0 0.9404309252217997 0.059569074778200254 0.0 0.9304878048780487 0.06951219512195121 0.0 0.9779411764705882 0.022058823529411763 0.0 0.9821073558648111 0.017892644135188866 0.0 0.9674922600619195 0.032507739938080496 0.0 0.9556786703601108 0.0443213296398892 0.0 0.9484808454425363 0.05151915455746367 0.0 0.9848484848484849 0.015151515151515152 0.0 0.9858156028368794 0.014184397163120569 0.0 0.9769503546099291 0.023049645390070917 0.0 0.9664122137404579 0.03358778625954198 0.0 0.961038961038961 0.03896103896103896 0.0 0.9872773536895674 0.01272264631043257 0.0 0.9887640449438202 0.011235955056179777 0.0 0.9817444219066936 0.018255578093306288 0.0 0.9756521739130435 0.024347826086956518 0.0 0.9707792207792207 0.02922077922077922 0.0 0.9905956112852664 0.009404388714733543 0.0 0.9929824561403509 0.007017543859649124 0.0 0.9878640776699029 0.012135922330097089 0.0 0.7945492662473794 0.20440251572327042 0.0010482180293501047 0.7677083333333333 0.23125 0.0010416666666666667 0.9167643610785463 0.08323563892145369 0.0 0.9285714285714285 0.07142857142857142 0.0 0.880794701986755 0.11920529801324503 0.0 0.8418803418803419 0.15705128205128202 0.0010683760683760683 0.8192389006342494 0.17970401691331925 0.0010570824524312897 0.9385194479297364 0.06148055207026349 0.0 0.9464052287581699 0.05359477124183007 0.0 0.9109826589595377 0.08901734104046242 0.0 0.8769230769230769 0.12307692307692307 0.0 0.8583783783783784 0.14162162162162162 0.0 0.9526387009472259 0.047361299052774024 0.0 0.9587482219061166 0.041251778093883355 0.0 0.9304878048780487 0.06951219512195121 0.0 0.9070034443168772 0.09299655568312284 0.0 0.8923766816143498 0.10762331838565023 0.0 0.9654135338345864 0.03458646616541353 0.0 0.9696485623003195 0.03035143769968051 0.0 0.9484808454425363 0.05151915455746367 0.0 0.9285714285714285 0.07142857142857142 0.0 0.9167643610785463 0.08323563892145369 0.0 0.973109243697479 0.02689075630252101 0.0 0.9765765765765766 0.02342342342342342 0.0 0.961038961038961 0.03896103896103896 0.0 0.9464052287581699 0.05359477124183007 0.0 0.9385194479297364 0.06148055207026349 0.0 0.9805068226120858 0.01949317738791423 0.0 0.9830866807610994 0.016913319238900635 0.0 0.9707792207792207 0.02922077922077922 0.0 0.9404309252217997 0.059569074778200254 0.0 0.9304878048780487 0.06951219512195121 0.0 0.9779411764705882 0.022058823529411763 0.0 0.9821073558648111 0.017892644135188866 0.0 0.9674922600619195 0.032507739938080496 0.0 0.9556786703601108 0.0443213296398892 0.0 0.9484808454425363 0.05151915455746367 0.0 0.9848484848484849 0.015151515151515152 0.0 0.9858156028368794 0.014184397163120569 0.0 0.9769503546099291 0.023049645390070917 0.0 0.9664122137404579 0.03358778625954198 0.0 0.961038961038961 0.03896103896103896 0.0 0.9872773536895674 0.01272264631043257 0.0 0.9887640449438202 0.011235955056179777 0.0 0.9817444219066936 0.018255578093306288 0.0 0.9756521739130435 0.024347826086956518 0.0 0.9707792207792207 0.02922077922077922 0.0 0.9905956112852664 0.009404388714733543 0.0 0.9929824561403509 0.007017543859649124 0.0 0.9878640776699029 0.012135922330097089 0.0 0.9821073558648111 0.017892644135188866 0.0 0.9779411764705882 0.022058823529411763 0.0 0.9923371647509579 0.007662835249042145 0.0 0.9956521739130435 0.004347826086956522 0.0 0.9913294797687862 0.008670520231213872 0.0 0.9858156028368794 0.014184397163120569 0.0 0.9848484848484849 0.015151515151515152 0.0 0.995049504950495 0.0049504950495049506 0.0 0.9943502824858756 0.005649717514124295 0.0 0.9927797833935018 0.007220216606498194 0.0 0.8769230769230769 0.12307692307692307 0.0 0.8583783783783784 0.14162162162162162 0.0 0.9526387009472259 0.047361299052774024 0.0 0.9587482219061166 0.041251778093883355 0.0 0.9304878048780487 0.06951219512195121 0.0 0.9070034443168772 0.09299655568312284 0.0 0.8923766816143498 0.10762331838565023 0.0 0.9654135338345864 0.03458646616541353 0.0 0.9696485623003195 0.03035143769968051 0.0 0.9484808454425363 0.05151915455746367 0.0 0.9285714285714285 0.07142857142857142 0.0 0.9167643610785463 0.08323563892145369 0.0 0.973109243697479 0.02689075630252101 0.0 0.9765765765765766 0.02342342342342342 0.0 0.961038961038961 0.03896103896103896 0.0 0.9464052287581699 0.05359477124183007 0.0 0.9385194479297364 0.06148055207026349 0.0 0.9805068226120858 0.01949317738791423 0.0 0.9830866807610994 0.016913319238900635 0.0 0.9707792207792207 0.02922077922077922 0.0 0.9587482219061166 0.041251778093883355 0.0 0.9526387009472259 0.047361299052774024 0.0 0.9841986455981941 0.01580135440180587 0.0 0.9875930521091811 0.012406947890818858 0.0 0.9779411764705882 0.022058823529411763 0.0 0.9696485623003195 0.03035143769968051 0.0 0.9654135338345864 0.03458646616541353 0.0 0.989041095890411 0.010958904109589041 0.0 0.9908536585365854 0.009146341463414634 0.0 0.9848484848484849 0.015151515151515152 0.0 0.7606659729448492 0.23829344432882416 0.001040582726326743 0.7295336787564767 0.2683937823834197 0.002072538860103627 0.9002267573696145 0.09977324263038548 0.0 0.9138533178114087 0.08614668218859138 0.0 0.8583783783783784 0.14162162162162162 0.0 0.8132911392405063 0.18565400843881855 0.0010548523206751054 0.7884816753926702 0.2104712041884817 0.0010471204188481676 0.9255702280912366 0.07442977190876351 0.0 0.9354037267080745 0.06459627329192547 0.0 0.8923766816143498 0.10762331838565023 0.0 0.853448275862069 0.14655172413793105 0.0 0.8310308182784272 0.16790648246546228 0.0010626992561105207 0.9424552429667519 0.05754475703324808 0.0 0.9505347593582887 0.049465240641711226 0.0 0.9167643610785463 0.08323563892145369 0.0 0.8885172798216276 0.11148272017837235 0.0 0.8719912472647703 0.12800875273522977 0.0 0.9578651685393258 0.04213483146067415 0.0 0.9643916913946587 0.03560830860534125 0.0 0.9385194479297364 0.06148055207026349 0.0 0.9138533178114087 0.08614668218859138 0.0 0.9002267573696145 0.09977324263038548 0.0 0.9674922600619195 0.032507739938080496 0.0 0.9719471947194719 0.028052805280528056 0.0 0.9526387009472259 0.047361299052774024 0.0 0.9354037267080745 0.06459627329192547 0.0 0.9255702280912366 0.07442977190876351 0.0 0.9769503546099291 0.023049645390070917 0.0 0.9790076335877862 0.020992366412213737 0.0 0.9654135338345864 0.03458646616541353 0.0 0.9285714285714285 0.07142857142857142 0.0 0.9167643610785463 0.08323563892145369 0.0 0.973109243697479 0.02689075630252101 0.0 0.9765765765765766 0.02342342342342342 0.0 0.961038961038961 0.03896103896103896 0.0 0.9464052287581699 0.05359477124183007 0.0 0.9385194479297364 0.06148055207026349 0.0 0.9805068226120858 0.01949317738791423 0.0 0.9830866807610994 0.016913319238900635 0.0 0.9707792207792207 0.02922077922077922 0.0 0.9587482219061166 0.041251778093883355 0.0 0.9526387009472259 0.047361299052774024 0.0 0.9841986455981941 0.01580135440180587 0.0 0.9875930521091811 0.012406947890818858 0.0 0.9779411764705882 0.022058823529411763 0.0 0.9696485623003195 0.03035143769968051 0.0 0.9654135338345864 0.03458646616541353 0.0 0.989041095890411 0.010958904109589041 0.0 0.9908536585365854 0.009146341463414634 0.0 0.9848484848484849 0.015151515151515152 0.0 0.9765765765765766 0.02342342342342342 0.0 0.973109243697479 0.02689075630252101 0.0 0.9933554817275747 0.006644518272425249 0.0 0.9925650557620818 0.007434944237918215 0.0 0.9872773536895674 0.01272264631043257 0.0 0.9830866807610994 0.016913319238900635 0.0 0.9805068226120858 0.01949317738791423 0.0 0.9957805907172996 0.0042194092827004225 0.0 0.9952153110047847 0.004784688995215312 0.0 0.9905956112852664 0.009404388714733543 0.0 0.853448275862069 0.14655172413793105 0.0 0.8310308182784272 0.16790648246546228 0.0010626992561105207 0.9424552429667519 0.05754475703324808 0.0 0.9505347593582887 0.049465240641711226 0.0 0.9167643610785463 0.08323563892145369 0.0 0.8885172798216276 0.11148272017837235 0.0 0.8719912472647703 0.12800875273522977 0.0 0.9578651685393258 0.04213483146067415 0.0 0.9643916913946587 0.03560830860534125 0.0 0.9385194479297364 0.06148055207026349 0.0 0.9138533178114087 0.08614668218859138 0.0 0.9002267573696145 0.09977324263038548 0.0 0.9674922600619195 0.032507739938080496 0.0 0.9719471947194719 0.028052805280528056 0.0 0.9526387009472259 0.047361299052774024 0.0 0.9354037267080745 0.06459627329192547 0.0 0.9255702280912366 0.07442977190876351 0.0 0.9769503546099291 0.023049645390070917 0.0 0.9790076335877862 0.020992366412213737 0.0 0.9654135338345864 0.03458646616541353 0.0 0.9505347593582887 0.049465240641711226 0.0 0.9424552429667519 0.05754475703324808 0.0 0.9817444219066936 0.018255578093306288 0.0 0.9845132743362832 0.015486725663716814 0.0 0.973109243697479 0.02689075630252101 0.0 0.9643916913946587 0.03560830860534125 0.0 0.9578651685393258 0.04213483146067415 0.0 0.9878640776699029 0.012135922330097089 0.0 0.9893048128342246 0.010695187165775402 0.0 0.9805068226120858 0.01949317738791423 0.0 0.7215320910973084 0.27639751552795033 0.002070393374741201 0.688728024819028 0.3092037228541882 0.0020682523267838674 0.880794701986755 0.11920529801324503 0.0 0.8962795941375423 0.10372040586245772 0.0 0.8310308182784272 0.16790648246546228 0.0010626992561105207 0.7816091954022989 0.2173458725182863 0.0010449320794148381 0.7533818938605619 0.24557752341311134 0.001040582726326743 0.9109826589595377 0.08901734104046242 0.0 0.9226190476190476 0.07738095238095237 0.0 0.8719912472647703 0.12800875273522977 0.0 0.8252118644067796 0.17372881355932204 0.001059322033898305 0.801470588235294 0.19747899159663865 0.0010504201680672268 0.9304878048780487 0.06951219512195121 0.0 0.9404309252217997 0.059569074778200254 0.0 0.9002267573696145 0.09977324263038548 0.0 0.8671023965141612 0.13289760348583876 0.0 0.8485499462943072 0.15145005370569278 0.0 0.9484808454425363 0.05151915455746367 0.0 0.9556786703601108 0.0443213296398892 0.0 0.9255702280912366 0.07442977190876351 0.0 0.8962795941375423 0.10372040586245772 0.0 0.880794701986755 0.11920529801324503 0.0 0.961038961038961 0.03896103896103896 0.0 0.9664122137404579 0.03358778625954198 0.0 0.9424552429667519 0.05754475703324808 0.0 0.9226190476190476 0.07738095238095237 0.0 0.9109826589595377 0.08901734104046242 0.0 0.9707792207792207 0.02922077922077922 0.0 0.9756521739130435 0.024347826086956518 0.0 0.9578651685393258 0.04213483146067415 0.0 0.6059670781893004 0.38991769547325106 0.00411522633744856 0.5657084188911705 0.42813141683778233 0.006160164271047228 0.8132911392405063 0.18565400843881855 0.0010548523206751054 0.8368869936034115 0.162046908315565 0.0010660980810234541 0.7448132780082988 0.25311203319502074 0.002074688796680498 0.6790505675954592 0.31785345717234265 0.0030959752321981426 0.6436663233779609 0.35324407826982496 0.0030895983522142125 0.8583783783783784 0.14162162162162162 0.0 0.8769230769230769 0.12307692307692307 0.0 0.801470588235294 0.19747899159663865 0.0010504201680672268 0.737551867219917 0.2603734439834025 0.002074688796680498 0.7052740434332988 0.2926577042399172 0.0020682523267838674 0.8885172798216276 0.11148272017837235 0.0 0.904109589041096 0.09589041095890412 0.0 0.8418803418803419 0.15705128205128202 0.0010683760683760683 0.7945492662473794 0.20440251572327042 0.0010482180293501047 0.7677083333333333 0.23125 0.0010416666666666667 0.9167643610785463 0.08323563892145369 0.0 0.9285714285714285 0.07142857142857142 0.0 0.880794701986755 0.11920529801324503 0.0 0.8368869936034115 0.162046908315565 0.0010660980810234541 0.8132911392405063 0.18565400843881855 0.0010548523206751054 0.9354037267080745 0.06459627329192547 0.0 0.9444444444444444 0.05555555555555555 0.0 0.9070034443168772 0.09299655568312284 0.0 0.8769230769230769 0.12307692307692307 0.0 0.8583783783783784 0.14162162162162162 0.0 0.9526387009472259 0.047361299052774024 0.0 0.9587482219061166 0.041251778093883355 0.0 0.9304878048780487 0.06951219512195121 0.0 0.404883011190234 0.5798575788402848 0.01525940996948118 0.3657548125633232 0.6149949341438703 0.019250253292806482 0.6618556701030928 0.33505154639175255 0.003092783505154639 0.6970010341261634 0.3009307135470527 0.0020682523267838674 0.5657084188911705 0.42813141683778233 0.006160164271047228 0.48515864892528143 0.5056294779938587 0.009211873080859774 0.4448979591836735 0.5428571428571429 0.012244897959183675 0.7295336787564767 0.2683937823834197 0.002072538860103627 0.7606659729448492 0.23829344432882416 0.001040582726326743 0.6436663233779609 0.35324407826982496 0.0030895983522142125 0.5564681724845997 0.43737166324435317 0.006160164271047228 0.5153688524590164 0.4764344262295082 0.00819672131147541 0.7816091954022989 0.2173458725182863 0.0010449320794148381 0.8073684210526315 0.19157894736842104 0.0010526315789473684 0.7052740434332988 0.2926577042399172 0.0020682523267838674 0.6337448559670782 0.3621399176954732 0.00411522633744856 0.595679012345679 0.3991769547325103 0.0051440329218107 0.8310308182784272 0.16790648246546228 0.0010626992561105207 0.853448275862069 0.14655172413793105 0.0 0.7677083333333333 0.23125 0.0010416666666666667 0.6970010341261634 0.3009307135470527 0.0020682523267838674 0.6618556701030928 0.33505154639175255 0.003092783505154639 0.8671023965141612 0.13289760348583876 0.0 0.8847006651884701 0.11529933481152993 0.0 0.8132911392405063 0.18565400843881855 0.0010548523206751054 0.7606659729448492 0.23829344432882416 0.001040582726326743 0.7295336787564767 0.2683937823834197 0.002072538860103627 0.9002267573696145 0.09977324263038548 0.0 0.9138533178114087 0.08614668218859138 0.0 0.8583783783783784 0.14162162162162162 0.0 0.22831505483549355 0.728813559322034 0.04287138584247258 0.19980119284294234 0.7485089463220675 0.05168986083499006 0.46475995914198165 0.5240040858018387 0.011235955056179775 0.5061475409836066 0.48565573770491804 0.00819672131147541 0.3657548125633232 0.6149949341438703 0.019250253292806482 0.29275653923541245 0.6780684104627767 0.029175050301810862 0.2595190380761523 0.7054108216432865 0.03507014028056112 0.5456410256410257 0.4471794871794872 0.0071794871794871795 0.5858170606372045 0.40904419321685515 0.0051387461459403904 0.4448979591836735 0.5428571428571429 0.012244897959183675 0.3562753036437247 0.6234817813765182 0.020242914979757085 0.3191919191919192 0.6565656565656566 0.024242424242424242 0.6152263374485597 0.38065843621399176 0.00411522633744856 0.6525773195876288 0.3443298969072165 0.003092783505154639 0.5153688524590164 0.4764344262295082 0.00819672131147541 0.43425076452599387 0.5524974515800204 0.013251783893985729 0.3947100712105799 0.5890132248219735 0.01627670396744659 0.688728024819028 0.3092037228541882 0.0020682523267838674 0.7215320910973084 0.27639751552795033 0.002070393374741201 0.595679012345679 0.3991769547325103 0.0051440329218107 0.5061475409836066 0.48565573770491804 0.00819672131147541 0.46475995914198165 0.5240040858018387 0.011235955056179775 0.7448132780082988 0.25311203319502074 0.002074688796680498 0.7745302713987474 0.2244258872651357 0.0010438413361169103 0.6618556701030928 0.33505154639175255 0.003092783505154639 0.5858170606372045 0.40904419321685515 0.0051387461459403904 0.5456410256410257 0.4471794871794872 0.0071794871794871795 0.801470588235294 0.19747899159663865 0.0010504201680672268 0.8252118644067796 0.17372881355932204 0.001059322033898305 0.7295336787564767 0.2683937823834197 0.002072538860103627 0.5564681724845997 0.43737166324435317 0.006160164271047228 0.5153688524590164 0.4764344262295082 0.00819672131147541 0.7816091954022989 0.2173458725182863 0.0010449320794148381 0.8073684210526315 0.19157894736842104 0.0010526315789473684 0.7052740434332988 0.2926577042399172 0.0020682523267838674 0.6337448559670782 0.3621399176954732 0.00411522633744856 0.595679012345679 0.3991769547325103 0.0051440329218107 0.8310308182784272 0.16790648246546228 0.0010626992561105207 0.853448275862069 0.14655172413793105 0.0 0.7677083333333333 0.23125 0.0010416666666666667 0.6970010341261634 0.3009307135470527 0.0020682523267838674 0.6618556701030928 0.33505154639175255 0.003092783505154639 0.8671023965141612 0.13289760348583876 0.0 0.8847006651884701 0.11529933481152993 0.0 0.8132911392405063 0.18565400843881855 0.0010548523206751054 0.7606659729448492 0.23829344432882416 0.001040582726326743 0.7295336787564767 0.2683937823834197 0.002072538860103627 0.9002267573696145 0.09977324263038548 0.0 0.9138533178114087 0.08614668218859138 0.0 0.8583783783783784 0.14162162162162162 0.0 0.8073684210526315 0.19157894736842104 0.0010526315789473684 0.7816091954022989 0.2173458725182863 0.0010449320794148381 0.9226190476190476 0.07738095238095237 0.0 0.9334975369458127 0.06650246305418718 0.0 0.8885172798216276 0.11148272017837235 0.0 0.853448275862069 0.14655172413793105 0.0 0.8310308182784272 0.16790648246546228 0.0010626992561105207 0.9424552429667519 0.05754475703324808 0.0 0.9505347593582887 0.049465240641711226 0.0 0.9167643610785463 0.08323563892145369 0.0 0.3562753036437247 0.6234817813765182 0.020242914979757085 0.3191919191919192 0.6565656565656566 0.024242424242424242 0.6152263374485597 0.38065843621399176 0.00411522633744856 0.6525773195876288 0.3443298969072165 0.003092783505154639 0.5153688524590164 0.4764344262295082 0.00819672131147541 0.43425076452599387 0.5524974515800204 0.013251783893985729 0.3947100712105799 0.5890132248219735 0.01627670396744659 0.688728024819028 0.3092037228541882 0.0020682523267838674 0.7215320910973084 0.27639751552795033 0.002070393374741201 0.595679012345679 0.3991769547325103 0.0051440329218107 0.5061475409836066 0.48565573770491804 0.00819672131147541 0.46475995914198165 0.5240040858018387 0.011235955056179775 0.7448132780082988 0.25311203319502074 0.002074688796680498 0.7745302713987474 0.2244258872651357 0.0010438413361169103 0.6618556701030928 0.33505154639175255 0.003092783505154639 0.5858170606372045 0.40904419321685515 0.0051387461459403904 0.5456410256410257 0.4471794871794872 0.0071794871794871795 0.801470588235294 0.19747899159663865 0.0010504201680672268 0.8252118644067796 0.17372881355932204 0.001059322033898305 0.7295336787564767 0.2683937823834197 0.002072538860103627 0.6525773195876288 0.3443298969072165 0.003092783505154639 0.6152263374485597 0.38065843621399176 0.00411522633744856 0.8418803418803419 0.15705128205128202 0.0010683760683760683 0.8631921824104235 0.13680781758957655 0.0 0.7816091954022989 0.2173458725182863 0.0010449320794148381 0.7215320910973084 0.27639751552795033 0.002070393374741201 0.688728024819028 0.3092037228541882 0.0020682523267838674 0.880794701986755 0.11920529801324503 0.0 0.8962795941375423 0.10372040586245772 0.0 0.8310308182784272 0.16790648246546228 0.0010626992561105207 0.1936444885799404 0.7527308838133068 0.053624627606752726 0.16831683168316833 0.7673267326732673 0.06435643564356436 0.41446028513238287 0.5712830957230143 0.014256619144602852 0.4545454545454546 0.5342185903983657 0.011235955056179775 0.3191919191919192 0.6565656565656566 0.024242424242424242 0.25125125125125125 0.7117117117117117 0.037037037037037035 0.22111553784860558 0.7340637450199203 0.0448207171314741 0.4953940634595701 0.4953940634595701 0.009211873080859774 0.5364102564102564 0.45641025641025645 0.0071794871794871795 0.3947100712105799 0.5890132248219735 0.01627670396744659 0.31048387096774194 0.6633064516129032 0.026209677419354836 0.27582748244734206 0.6920762286860581 0.0320962888665998 0.5657084188911705 0.42813141683778233 0.006160164271047228 0.6059670781893004 0.38991769547325106 0.00411522633744856 0.46475995914198165 0.5240040858018387 0.011235955056179775 0.38477157360406095 0.5979695431472081 0.017258883248730966 0.3468149646107179 0.6319514661274014 0.021233569261880688 0.6436663233779609 0.35324407826982496 0.0030895983522142125 0.6790505675954592 0.31785345717234265 0.0030959752321981426 0.5456410256410257 0.4471794871794872 0.0071794871794871795 0.4545454545454546 0.5342185903983657 0.011235955056179775 0.41446028513238287 0.5712830957230143 0.014256619144602852 0.7052740434332988 0.2926577042399172 0.0020682523267838674 0.737551867219917 0.2603734439834025 0.002074688796680498 0.6152263374485597 0.38065843621399176 0.00411522633744856 0.5364102564102564 0.45641025641025645 0.0071794871794871795 0.4953940634595701 0.4953940634595701 0.009211873080859774 0.7677083333333333 0.23125 0.0010416666666666667 0.7945492662473794 0.20440251572327042 0.0010482180293501047 0.688728024819028 0.3092037228541882 0.0020682523267838674 0.5061475409836066 0.48565573770491804 0.00819672131147541 0.46475995914198165 0.5240040858018387 0.011235955056179775 0.7448132780082988 0.25311203319502074 0.002074688796680498 0.7745302713987474 0.2244258872651357 0.0010438413361169103 0.6618556701030928 0.33505154639175255 0.003092783505154639 0.5858170606372045 0.40904419321685515 0.0051387461459403904 0.5456410256410257 0.4471794871794872 0.0071794871794871795 0.801470588235294 0.19747899159663865 0.0010504201680672268 0.8252118644067796 0.17372881355932204 0.001059322033898305 0.7295336787564767 0.2683937823834197 0.002072538860103627 0.6525773195876288 0.3443298969072165 0.003092783505154639 0.6152263374485597 0.38065843621399176 0.00411522633744856 0.8418803418803419 0.15705128205128202 0.0010683760683760683 0.8631921824104235 0.13680781758957655 0.0 0.7816091954022989 0.2173458725182863 0.0010449320794148381 0.7215320910973084 0.27639751552795033 0.002070393374741201 0.688728024819028 0.3092037228541882 0.0020682523267838674 0.880794701986755 