<?xml version="1.0" encoding="US-ASCII"?>

<!--
  Bayesian network in XMLBIF v0.3 (BayesNet Interchange Format)
  Produced by SamIam http://reasoning.cs.ucla.edu/samiam
  Output created Feb 13, 2017 4:29:38 PM
-->

<BIF VERSION="0.3">
<NETWORK>
  <NAME>BALS</NAME>

  <VARIABLE TYPE="nature">
    <NAME>fb_function</NAME>
    <OUTCOME>perception</OUTCOME>
    <OUTCOME>no_perception</OUTCOME>
    <OUTCOME>understanding</OUTCOME>
    <OUTCOME>no_understanding</OUTCOME>
    <OUTCOME>acceptance</OUTCOME>
    <OUTCOME>no_acceptance</OUTCOME>
    <OUTCOME>none</OUTCOME>
    <PROPERTY>position = (300, 0)</PROPERTY>
  </VARIABLE>

  <VARIABLE TYPE="nature">
    <NAME>gaze</NAME>
    <OUTCOME>agent</OUTCOME>
    <OUTCOME>away</OUTCOME>
    <PROPERTY>position = (400, 0)</PROPERTY>
  </VARIABLE>

  <VARIABLE TYPE="nature">
    <NAME>head</NAME>
    <OUTCOME>nod</OUTCOME>
    <OUTCOME>jerk</OUTCOME>
    <OUTCOME>shake</OUTCOME>
    <OUTCOME>tilt</OUTCOME>
    <OUTCOME>none</OUTCOME>
    <PROPERTY>position = (300, 0)</PROPERTY>
  </VARIABLE>

  <VARIABLE TYPE="nature">
    <NAME>perception</NAME>
    <OUTCOME>low</OUTCOME>
    <OUTCOME>medium</OUTCOME>
    <OUTCOME>high</OUTCOME>
    <PROPERTY>position = (300, 200)</PROPERTY>
  </VARIABLE>

  <VARIABLE TYPE="nature">
    <NAME>understanding</NAME>
    <OUTCOME>low</OUTCOME>
    <OUTCOME>medium</OUTCOME>
    <OUTCOME>high</OUTCOME>
    <PROPERTY>position = (500, 200)</PROPERTY>
  </VARIABLE>

  <VARIABLE TYPE="nature">
    <NAME>difficulty</NAME>
    <OUTCOME>low</OUTCOME>
    <OUTCOME>medium</OUTCOME>
    <OUTCOME>high</OUTCOME>
    <PROPERTY>position = (100, 0)</PROPERTY>
  </VARIABLE>

  <VARIABLE TYPE="nature">
    <NAME>acceptance</NAME>
    <OUTCOME>low</OUTCOME>
    <OUTCOME>medium</OUTCOME>
    <OUTCOME>high</OUTCOME>
    <PROPERTY>position = (700, 100)</PROPERTY>
  </VARIABLE>

  <VARIABLE TYPE="nature">
    <NAME>grounding</NAME>
    <OUTCOME>low</OUTCOME>
    <OUTCOME>medium</OUTCOME>
    <OUTCOME>high</OUTCOME>
    <PROPERTY>position = (500, 400)</PROPERTY>
  </VARIABLE>

  <VARIABLE TYPE="nature">
    <NAME>certainty</NAME>
    <OUTCOME>low</OUTCOME>
    <OUTCOME>medium</OUTCOME>
    <OUTCOME>high</OUTCOME>
    <PROPERTY>position = (500, 0)</PROPERTY>
  </VARIABLE>

  <DEFINITION>
    <FOR>fb_function</FOR>
    <TABLE>0.14285714285714288 0.14285714285714288 0.14285714285714288 0.14285714285714288 0.14285714285714288 0.14285714285714288 0.14285714285714288 </TABLE>
  </DEFINITION>

  <DEFINITION>
    <FOR>gaze</FOR>
    <TABLE>0.5 0.5 </TABLE>
  </DEFINITION>

  <DEFINITION>
    <FOR>head</FOR>
    <TABLE>0.2 0.2 0.2 0.2 0.2 </TABLE>
  </DEFINITION>

  <DEFINITION>
    <FOR>perception</FOR>
    <GIVEN>fb_function</GIVEN>
    <GIVEN>difficulty</GIVEN>
    <GIVEN>gaze</GIVEN>
    <GIVEN>head</GIVEN>
    <TABLE>0.0010570824524312897 0.17970401691331925 0.8192389006342494 0.0010570824524312897 0.17970401691331925 0.8192389006342494 0.013251783893985727 0.5616717635066258 0.4250764525993883 0.013251783893985727 0.5616717635066258 0.4250764525993883 0.0051387461459403904 0.41829393627954775 0.5765673175745119 0.006160164271047228 0.43737166324435317 0.5564681724845997 0.006160164271047228 0.43737166324435317 0.5564681724845997 0.0672601384767557 0.7705242334322454 0.16221562809099904 0.0672601384767557 0.7705242334322454 0.16221562809099904 0.033099297893681046 0.6990972918756269 0.2678034102306921 0.001040582726326743 0.24557752341311134 0.7533818938605619 0.001040582726326743 0.24557752341311134 0.7533818938605619 0.023232323232323233 0.6484848484848486 0.3282828282828283 0.023232323232323233 0.6484848484848486 0.3282828282828283 0.010224948875255624 0.5143149284253579 0.47546012269938653 0.011235955056179773 0.5342185903983656 0.45454545454545453 0.011235955056179773 0.5342185903983656 0.45454545454545453 0.10256410256410256 0.7869822485207101 0.11045364891518737 0.10256410256410256 0.7869822485207101 0.11045364891518737 0.053624627606752726 0.7527308838133068 0.1936444885799404 0.003095975232198142 0.326109391124871 0.6707946336429308 0.003095975232198142 0.326109391124871 0.6707946336429308 0.03896103896103897 0.7172827172827173 0.24375624375624377 0.03896103896103897 0.7172827172827173 0.24375624375624377 0.018255578093306288 0.6064908722109533 0.3752535496957404 0.020242914979757085 0.6234817813765182 0.3562753036437247 0.020242914979757085 0.6234817813765182 0.3562753036437247 0.15034619188921858 0.7764589515331355 0.07319485657764588 0.15034619188921858 0.7764589515331355 0.07319485657764588 0.08300395256916997 0.782608695652174 0.13438735177865613 0.0448207171314741 0.7340637450199203 0.22111553784860558 0.0448207171314741 0.7340637450199203 0.22111553784860558 0.2595190380761523 0.7054108216432865 0.03507014028056112 0.2595190380761523 0.7054108216432865 0.03507014028056112 0.1562809099901088 0.7734915924826904 0.07022749752720078 0.16831683168316833 0.7673267326732673 0.06435643564356436 0.16831683168316833 0.7673267326732673 0.06435643564356436 0.5657084188911705 0.42813141683778233 0.006160164271047228 0.5657084188911705 0.42813141683778233 0.006160164271047228 0.41446028513238287 0.5712830957230143 0.014256619144602852 0.0702274975272008 0.7734915924826905 0.15628090999010882 0.0702274975272008 0.7734915924826905 0.15628090999010882 0.3468149646107179 0.6319514661274014 0.021233569261880688 0.3468149646107179 0.6319514661274014 0.021233569261880688 0.22111553784860558 0.7340637450199203 0.0448207171314741 0.23576423576423577 0.7232767232767233 0.04095904095904097 0.23576423576423577 0.7232767232767233 0.04095904095904097 0.6618556701030928 0.33505154639175255 0.003092783505154639 0.6618556701030928 0.33505154639175255 0.003092783505154639 0.5153688524590164 0.4764344262295082 0.00819672131147541 0.10650887573964497 0.7869822485207101 0.10650887573964497 0.10650887573964497 0.7869822485207101 0.10650887573964497 0.4448979591836735 0.5428571428571429 0.012244897959183675 0.4448979591836735 0.5428571428571429 0.012244897959183675 0.3014112903225806 0.6713709677419355 0.027217741935483868 0.3191919191919192 0.6565656565656566 0.024242424242424242 0.3191919191919192 0.6565656565656566 0.024242424242424242 0.7448132780082988 0.25311203319502074 0.002074688796680498 0.7448132780082988 0.25311203319502074 0.002074688796680498 0.6152263374485597 0.38065843621399176 0.00411522633744856 0.0010683760683760683 0.15705128205128202 0.8418803418803419 0.0010683760683760683 0.15705128205128202 0.8418803418803419 0.011235955056179773 0.5240040858018385 0.4647599591419816 0.011235955056179773 0.5240040858018385 0.4647599591419816 0.00411522633744856 0.38065843621399176 0.6152263374485597 0.0051440329218107 0.3991769547325103 0.595679012345679 0.0051440329218107 0.3991769547325103 0.595679012345679 0.05654761904761905 0.7569444444444444 0.1865079365079365 0.05654761904761905 0.7569444444444444 0.1865079365079365 0.02721774193548387 0.6713709677419355 0.3014112903225806 0.0010449320794148381 0.2173458725182863 0.7816091954022989 0.0010449320794148381 0.2173458725182863 0.7816091954022989 0.019250253292806482 0.6149949341438703 0.3657548125633232 0.019250253292806482 0.6149949341438703 0.3657548125633232 0.00819672131147541 0.4764344262295082 0.5153688524590164 0.009211873080859774 0.4953940634595701 0.4953940634595701 0.009211873080859774 0.4953940634595701 0.4953940634595701 0.08687068114511352 0.7838104639684108 0.12931885488647582 0.08687068114511352 0.7838104639684108 0.12931885488647582 0.0448207171314741 0.7340637450199203 0.22111553784860558 0.0020682523267838674 0.2926577042399172 0.7052740434332988 0.0020682523267838674 0.2926577042399172 0.7052740434332988 0.0320962888665998 0.6920762286860581 0.27582748244734206 0.0320962888665998 0.6920762286860581 0.27582748244734206 0.014256619144602852 0.5712830957230143 0.41446028513238287 0.01627670396744659 0.5890132248219735 0.3947100712105799 0.01627670396744659 0.5890132248219735 0.3947100712105799 0.1293188548864758 0.7838104639684106 0.08687068114511351 0.1293188548864758 0.7838104639684106 0.08687068114511351 0.0702274975272008 0.7734915924826905 0.15628090999010882 0.0010570824524312897 0.17970401691331925 0.8192389006342494 0.0010570824524312897 0.17970401691331925 0.8192389006342494 0.013251783893985727 0.5616717635066258 0.4250764525993883 0.013251783893985727 0.5616717635066258 0.4250764525993883 0.0051387461459403904 0.41829393627954775 0.5765673175745119 0.006160164271047228 0.43737166324435317 0.5564681724845997 0.006160164271047228 0.43737166324435317 0.5564681724845997 0.0672601384767557 0.7705242334322454 0.16221562809099904 0.0672601384767557 0.7705242334322454 0.16221562809099904 0.033099297893681046 0.6990972918756269 0.2678034102306921 0.001040582726326743 0.24557752341311134 0.7533818938605619 0.001040582726326743 0.24557752341311134 0.7533818938605619 0.023232323232323233 0.6484848484848486 0.3282828282828283 0.023232323232323233 0.6484848484848486 0.3282828282828283 0.010224948875255624 0.5143149284253579 0.47546012269938653 0.011235955056179773 0.5342185903983656 0.45454545454545453 0.011235955056179773 0.5342185903983656 0.45454545454545453 0.10256410256410256 0.7869822485207101 0.11045364891518737 0.10256410256410256 0.7869822485207101 0.11045364891518737 0.053624627606752726 0.7527308838133068 0.1936444885799404 0.003095975232198142 0.326109391124871 0.6707946336429308 0.003095975232198142 0.326109391124871 0.6707946336429308 0.03896103896103897 0.7172827172827173 0.24375624375624377 0.03896103896103897 0.7172827172827173 0.24375624375624377 0.018255578093306288 0.6064908722109533 0.3752535496957404 0.020242914979757085 0.6234817813765182 0.3562753036437247 0.020242914979757085 0.6234817813765182 0.3562753036437247 0.15034619188921858 0.7764589515331355 0.07319485657764588 0.15034619188921858 0.7764589515331355 0.07319485657764588 0.08300395256916997 0.782608695652174 0.13438735177865613 0.0010683760683760683 0.15705128205128202 0.8418803418803419 0.0010683760683760683 0.15705128205128202 0.8418803418803419 0.011235955056179773 0.5240040858018385 0.4647599591419816 0.011235955056179773 0.5240040858018385 0.4647599591419816 0.00411522633744856 0.38065843621399176 0.6152263374485597 0.0051440329218107 0.3991769547325103 0.595679012345679 0.0051440329218107 0.3991769547325103 0.595679012345679 0.05654761904761905 0.7569444444444444 0.1865079365079365 0.05654761904761905 0.7569444444444444 0.1865079365079365 0.02721774193548387 0.6713709677419355 0.3014112903225806 0.0010449320794148381 0.2173458725182863 0.7816091954022989 0.0010449320794148381 0.2173458725182863 0.7816091954022989 0.019250253292806482 0.6149949341438703 0.3657548125633232 0.019250253292806482 0.6149949341438703 0.3657548125633232 0.00819672131147541 0.4764344262295082 0.5153688524590164 0.009211873080859774 0.4953940634595701 0.4953940634595701 0.009211873080859774 0.4953940634595701 0.4953940634595701 0.08687068114511352 0.7838104639684108 0.12931885488647582 0.08687068114511352 0.7838104639684108 0.12931885488647582 0.0448207171314741 0.7340637450199203 0.22111553784860558 0.0020682523267838674 0.2926577042399172 0.7052740434332988 0.0020682523267838674 0.2926577042399172 0.7052740434332988 0.0320962888665998 0.6920762286860581 0.27582748244734206 0.0320962888665998 0.6920762286860581 0.27582748244734206 0.014256619144602852 0.5712830957230143 0.41446028513238287 0.01627670396744659 0.5890132248219735 0.3947100712105799 0.01627670396744659 0.5890132248219735 0.3947100712105799 0.1293188548864758 0.7838104639684106 0.08687068114511351 0.1293188548864758 0.7838104639684106 0.08687068114511351 0.0702274975272008 0.7734915924826905 0.15628090999010882 0.0010570824524312897 0.17970401691331925 0.8192389006342494 0.0010570824524312897 0.17970401691331925 0.8192389006342494 0.013251783893985727 0.5616717635066258 0.4250764525993883 0.013251783893985727 0.5616717635066258 0.4250764525993883 0.0051387461459403904 0.41829393627954775 0.5765673175745119 0.006160164271047228 0.43737166324435317 0.5564681724845997 0.006160164271047228 0.43737166324435317 0.5564681724845997 0.0672601384767557 0.7705242334322454 0.16221562809099904 0.0672601384767557 0.7705242334322454 0.16221562809099904 0.033099297893681046 0.6990972918756269 0.2678034102306921 0.001040582726326743 0.24557752341311134 0.7533818938605619 0.001040582726326743 0.24557752341311134 0.7533818938605619 0.023232323232323233 0.6484848484848486 0.3282828282828283 0.023232323232323233 0.6484848484848486 0.3282828282828283 0.010224948875255624 0.5143149284253579 0.47546012269938653 0.011235955056179773 0.5342185903983656 0.45454545454545453 0.011235955056179773 0.5342185903983656 0.45454545454545453 0.10256410256410256 0.7869822485207101 0.11045364891518737 0.10256410256410256 0.7869822485207101 0.11045364891518737 0.053624627606752726 0.7527308838133068 0.1936444885799404 0.003095975232198142 0.326109391124871 0.6707946336429308 0.003095975232198142 0.326109391124871 0.6707946336429308 0.03896103896103897 0.7172827172827173 0.24375624375624377 0.03896103896103897 0.7172827172827173 0.24375624375624377 0.018255578093306288 0.6064908722109533 0.3752535496957404 0.020242914979757085 0.6234817813765182 0.3562753036437247 0.020242914979757085 0.6234817813765182 0.3562753036437247 0.15034619188921858 0.7764589515331355 0.07319485657764588 0.15034619188921858 0.7764589515331355 0.07319485657764588 0.08300395256916997 0.782608695652174 0.13438735177865613 0.002074688796680498 0.2603734439834025 0.737551867219917 0.002074688796680498 0.2603734439834025 0.737551867219917 0.026209677419354836 0.6633064516129032 0.31048387096774194 0.026209677419354836 0.6633064516129032 0.31048387096774194 0.011235955056179773 0.5342185903983656 0.45454545454545453 0.013251783893985727 0.5524974515800204 0.4342507645259938 0.013251783893985727 0.5524974515800204 0.4342507645259938 0.11045364891518737 0.7869822485207101 0.10256410256410256 0.11045364891518737 0.7869822485207101 0.10256410256410256 0.058531746031746025 0.7609126984126984 0.18055555555555555 0.0030927835051546395 0.34432989690721655 0.6525773195876289 0.0030927835051546395 0.34432989690721655 0.6525773195876289 0.042871385842472576 0.7288135593220338 0.2283150548354935 0.042871385842472576 0.7288135593220338 0.2283150548354935 0.020242914979757085 0.6234817813765182 0.3562753036437247 0.022244691607684525 0.640040444893832 0.3377148634984833 0.022244691607684525 0.640040444893832 0.3377148634984833 0.162215628090999 0.7705242334322452 0.06726013847675569 0.162215628090999 0.7705242334322452 0.06726013847675569 0.09081934846989143 0.7847976307996053 0.12438302073050347 0.006160164271047228 0.43737166324435317 0.5564681724845997 0.006160164271047228 0.43737166324435317 0.5564681724845997 0.0672601384767557 0.7705242334322454 0.16221562809099904 0.0672601384767557 0.7705242334322454 0.16221562809099904 0.033099297893681046 0.6990972918756269 0.2678034102306921 0.037037037037037035 0.7117117117117117 0.25125125125125125 0.037037037037037035 0.7117117117117117 0.25125125125125125 0.22831505483549355 0.728813559322034 0.04287138584247258 0.22831505483549355 0.728813559322034 0.04287138584247258 0.13438735177865613 0.782608695652174 0.08300395256916997 </TABLE>
  </DEFINITION>

  <DEFINITION>
    <FOR>understanding</FOR>
    <GIVEN>fb_function</GIVEN>
    <GIVEN>perception</GIVEN>
    <GIVEN>certainty</GIVEN>
    <GIVEN>difficulty</GIVEN>
    <GIVEN>gaze</GIVEN>
    <GIVEN>head</GIVEN>
    <TABLE>0.19980119284294234 0.7485089463220675 0.05168986083499006 0.17443012884043604 0.7641228939544102 0.06144697720515361 0.42507645259938837 0.561671763506626 0.013251783893985729 0.46475995914198165 0.5240040858018387 0.011235955056179775 0.3282828282828283 0.6484848484848484 0.02323232323232323 0.2595190380761523 0.7054108216432865 0.03507014028056112 0.22831505483549355 0.728813559322034 0.04287138584247258 0.5061475409836066 0.48565573770491804 0.00819672131147541 0.5456410256410257 0.4471794871794872 0.0071794871794871795 0.404883011190234 0.5798575788402848 0.01525940996948118 0.3191919191919192 0.6565656565656566 0.024242424242424242 0.2844221105527638 0.685427135678392 0.030150753768844216 0.5765673175745119 0.41829393627954775 0.0051387461459403904 0.6152263374485597 0.38065843621399176 0.00411522633744856 0.47546012269938653 0.5143149284253579 0.010224948875255624 0.3947100712105799 0.5890132248219735 0.01627670396744659 0.3562753036437247 0.6234817813765182 0.020242914979757085 0.6525773195876288 0.3443298969072165 0.003092783505154639 0.688728024819028 0.3092037228541882 0.0020682523267838674 0.5564681724845997 0.43737166324435317 0.006160164271047228 0.46475995914198165 0.5240040858018387 0.011235955056179775 0.42507645259938837 0.561671763506626 0.013251783893985729 0.7135470527404343 0.28438469493278185 0.002068252326783868 0.7448132780082988 0.25311203319502074 0.002074688796680498 0.6244855967078189 0.3713991769547325 0.00411522633744856 0.5456410256410257 0.4471794871794872 0.0071794871794871795 0.5061475409836066 0.48565573770491804 0.00819672131147541 0.7745302713987474 0.2244258872651357 0.0010438413361169103 0.801470588235294 0.19747899159663865 0.0010504201680672268 0.6970010341261634 0.3009307135470527 0.0020682523267838674 0.09467455621301775 0.7850098619329389 0.12031558185404338 0.0800395256916996 0.7806324110671937 0.1393280632411067 0.24375624375624377 0.7172827172827173 0.03896103896103897 0.27582748244734206 0.6920762286860581 0.0320962888665998 0.17443012884043604 0.7641228939544102 0.06144697720515361 0.1293188548864758 0.7838104639684106 0.08687068114511351 0.11045364891518737 0.7869822485207101 0.10256410256410256 0.31048387096774194 0.6633064516129032 0.026209677419354836 0.3468149646107179 0.6319514661274014 0.021233569261880688 0.22831505483549355 0.728813559322034 0.04287138584247258 0.16831683168316833 0.7673267326732673 0.06435643564356436 0.14525691699604742 0.7786561264822135 0.07608695652173914 0.3752535496957404 0.6064908722109533 0.018255578093306288 0.41446028513238287 0.5712830957230143 0.014256619144602852 0.2844221105527638 0.685427135678392 0.030150753768844216 0.22111553784860558 0.7340637450199203 0.0448207171314741 0.1936444885799404 0.7527308838133068 0.053624627606752726 0.4545454545454546 0.5342185903983657 0.011235955056179775 0.4953940634595701 0.4953940634595701 0.009211873080859774 0.3562753036437247 0.6234817813765182 0.020242914979757085 0.27582748244734206 0.6920762286860581 0.0320962888665998 0.24375624375624377 0.7172827172827173 0.03896103896103897 0.5261538461538462 0.4666666666666667 0.0071794871794871795 0.5657084188911705 0.42813141683778233 0.006160164271047228 0.42507645259938837 0.561671763506626 0.013251783893985729 0.3468149646107179 0.6319514661274014 0.021233569261880688 0.31048387096774194 0.6633064516129032 0.026209677419354836 0.6059670781893004 0.38991769547325106 0.00411522633744856 0.6436663233779609 0.35324407826982496 0.0030895983522142125 0.5061475409836066 0.48565573770491804 0.00819672131147541 0.03896103896103897 0.7172827172827173 0.24375624375624377 0.0320962888665998 0.6920762286860581 0.27582748244734206 0.12031558185404338 0.7850098619329389 0.09467455621301775 0.1393280632411067 0.7806324110671937 0.0800395256916996 0.0800395256916996 0.7806324110671937 0.1393280632411067 0.05654761904761905 0.7569444444444444 0.1865079365079365 0.046812749003984064 0.7390438247011952 0.21414342629482072 0.162215628090999 0.7705242334322452 0.06726013847675569 0.1865079365079365 0.7569444444444444 0.05654761904761905 0.11045364891518737 0.7869822485207101 0.10256410256410256 0.07608695652173914 0.7786561264822135 0.14525691699604742 0.06435643564356436 0.7673267326732673 0.16831683168316833 0.20696517412935325 0.7442786069651742 0.048756218905472645 0.23576423576423577 0.7232767232767233 0.04095904095904097 0.14525691699604742 0.7786561264822135 0.07608695652173914 0.10650887573964497 0.7869822485207101 0.10650887573964497 0.09081934846989143 0.7847976307996053 0.12438302073050347 0.2678034102306921 0.6990972918756269 0.033099297893681046 0.3014112903225806 0.6713709677419355 0.027217741935483868 0.1936444885799404 0.7527308838133068 0.053624627606752726 0.1393280632411067 0.7806324110671937 0.0800395256916996 0.12031558185404338 0.7850098619329389 0.09467455621301775 0.3282828282828283 0.6484848484848484 0.02323232323232323 0.3657548125633232 0.6149949341438703 0.019250253292806482 0.24375624375624377 0.7172827172827173 0.03896103896103897 0.1865079365079365 0.7569444444444444 0.05654761904761905 0.162215628090999 0.7705242334322452 0.06726013847675569 0.404883011190234 0.5798575788402848 0.01525940996948118 0.4448979591836735 0.5428571428571429 0.012244897959183675 0.31048387096774194 0.6633064516129032 0.026209677419354836 0.16831683168316833 0.7673267326732673 0.06435643564356436 0.14525691699604742 0.7786561264822135 0.07608695652173914 0.3752535496957404 0.6064908722109533 0.018255578093306288 0.41446028513238287 0.5712830957230143 0.014256619144602852 0.2844221105527638 0.685427135678392 0.030150753768844216 0.22111553784860558 0.7340637450199203 0.0448207171314741 0.1936444885799404 0.7527308838133068 0.053624627606752726 0.4545454545454546 0.5342185903983657 0.011235955056179775 0.4953940634595701 0.4953940634595701 0.009211873080859774 0.3562753036437247 0.6234817813765182 0.020242914979757085 0.27582748244734206 0.6920762286860581 0.0320962888665998 0.24375624375624377 0.7172827172827173 0.03896103896103897 0.5261538461538462 0.4666666666666667 0.0071794871794871795 0.5657084188911705 0.42813141683778233 0.006160164271047228 0.42507645259938837 0.561671763506626 0.013251783893985729 0.3468149646107179 0.6319514661274014 0.021233569261880688 0.31048387096774194 0.6633064516129032 0.026209677419354836 0.6059670781893004 0.38991769547325106 0.00411522633744856 0.6436663233779609 0.35324407826982496 0.0030895983522142125 0.5061475409836066 0.48565573770491804 0.00819672131147541 0.41446028513238287 0.5712830957230143 0.014256619144602852 0.3752535496957404 0.6064908722109533 0.018255578093306288 0.6707946336429309 0.32610939112487103 0.0030959752321981426 0.7052740434332988 0.2926577042399172 0.0020682523267838674 0.5765673175745119 0.41829393627954775 0.0051387461459403904 0.4953940634595701 0.4953940634595701 0.009211873080859774 0.4545454545454546 0.5342185903983657 0.011235955056179775 0.737551867219917 0.2603734439834025 0.002074688796680498 0.7677083333333333 0.23125 0.0010416666666666667 0.6525773195876288 0.3443298969072165 0.003092783505154639 0.07608695652173914 0.7786561264822135 0.14525691699604742 0.06435643564356436 0.7673267326732673 0.16831683168316833 0.20696517412935325 0.7442786069651742 0.048756218905472645 0.23576423576423577 0.7232767232767233 0.04095904095904097 0.14525691699604742 0.7786561264822135 0.07608695652173914 0.10650887573964497 0.7869822485207101 0.10650887573964497 0.09081934846989143 0.7847976307996053 0.12438302073050347 0.2678034102306921 0.6990972918756269 0.033099297893681046 0.3014112903225806 0.6713709677419355 0.027217741935483868 0.1936444885799404 0.7527308838133068 0.053624627606752726 0.1393280632411067 0.7806324110671937 0.0800395256916996 0.12031558185404338 0.7850098619329389 0.09467455621301775 0.3282828282828283 0.6484848484848484 0.02323232323232323 0.3657548125633232 0.6149949341438703 0.019250253292806482 0.24375624375624377 0.7172827172827173 0.03896103896103897 0.1865079365079365 0.7569444444444444 0.05654761904761905 0.162215628090999 0.7705242334322452 0.06726013847675569 0.404883011190234 0.5798575788402848 0.01525940996948118 0.4448979591836735 0.5428571428571429 0.012244897959183675 0.31048387096774194 0.6633064516129032 0.026209677419354836 0.23576423576423577 0.7232767232767233 0.04095904095904097 0.20696517412935325 0.7442786069651742 0.048756218905472645 0.47546012269938653 0.5143149284253579 0.010224948875255624 0.5153688524590164 0.4764344262295082 0.00819672131147541 0.3752535496957404 0.6064908722109533 0.018255578093306288 0.3014112903225806 0.6713709677419355 0.027217741935483868 0.2678034102306921 0.6990972918756269 0.033099297893681046 0.5564681724845997 0.43737166324435317 0.006160164271047228 0.595679012345679 0.3991769547325103 0.0051440329218107 0.4545454545454546 0.5342185903983657 0.011235955056179775 0.030150753768844216 0.685427135678392 0.2844221105527638 0.024242424242424242 0.6565656565656566 0.3191919191919192 0.09861932938856016 0.7859960552268245 0.11538461538461539 0.11538461538461539 0.7859960552268245 0.09861932938856016 0.06435643564356436 0.7673267326732673 0.16831683168316833 0.0448207171314741 0.7340637450199203 0.22111553784860558 0.037037037037037035 0.7117117117117117 0.25125125125125125 0.13438735177865613 0.782608695652174 0.08300395256916997 0.1562809099901088 0.7734915924826904 0.07022749752720078 0.09081934846989143 0.7847976307996053 0.12438302073050347 0.06144697720515362 0.7641228939544104 0.17443012884043607 0.05168986083499006 0.7485089463220675 0.19980119284294234 0.17443012884043604 0.7641228939544102 0.06144697720515361 0.19980119284294234 0.7485089463220675 0.05168986083499006 0.12031558185404338 0.7850098619329389 0.09467455621301775 0.08687068114511352 0.7838104639684108 0.12931885488647582 0.07319485657764589 0.7764589515331356 0.1503461918892186 0.22831505483549355 0.728813559322034 0.04287138584247258 0.2595190380761523 0.7054108216432865 0.03507014028056112 0.162215628090999 0.7705242334322452 0.06726013847675569 0.11538461538461539 0.7859960552268245 0.09861932938856016 0.09861932938856016 0.7859960552268245 0.11538461538461539 0.2844221105527638 0.685427135678392 0.030150753768844216 0.3191919191919192 0.6565656565656566 0.024242424242424242 0.20696517412935325 0.7442786069651742 0.048756218905472645 0.1562809099901088 0.7734915924826904 0.07022749752720078 0.13438735177865613 0.782608695652174 0.08300395256916997 0.3562753036437247 0.6234817813765182 0.020242914979757085 0.3947100712105799 0.5890132248219735 0.01627670396744659 0.2678034102306921 0.6990972918756269 0.033099297893681046 0.1393280632411067 0.7806324110671937 0.0800395256916996 0.12031558185404338 0.7850098619329389 0.09467455621301775 0.3282828282828283 0.6484848484848484 0.02323232323232323 0.3657548125633232 0.6149949341438703 0.019250253292806482 0.24375624375624377 0.7172827172827173 0.03896103896103897 0.1865079365079365 0.7569444444444444 0.05654761904761905 0.162215628090999 0.7705242334322452 0.06726013847675569 0.404883011190234 0.5798575788402848 0.01525940996948118 0.4448979591836735 0.5428571428571429 0.012244897959183675 0.31048387096774194 0.6633064516129032 0.026209677419354836 0.23576423576423577 0.7232767232767233 0.04095904095904097 0.20696517412935325 0.7442786069651742 0.048756218905472645 0.47546012269938653 0.5143149284253579 0.010224948875255624 0.5153688524590164 0.4764344262295082 0.00819672131147541 0.3752535496957404 0.6064908722109533 0.018255578093306288 0.3014112903225806 0.6713709677419355 0.027217741935483868 0.2678034102306921 0.6990972918756269 0.033099297893681046 0.5564681724845997 0.43737166324435317 0.006160164271047228 0.595679012345679 0.3991769547325103 0.0051440329218107 0.4545454545454546 0.5342185903983657 0.011235955056179775 0.3657548125633232 0.6149949341438703 0.019250253292806482 0.3282828282828283 0.6484848484848484 0.02323232323232323 0.6244855967078189 0.3713991769547325 0.00411522633744856 0.6618556701030928 0.33505154639175255 0.003092783505154639 0.5261538461538462 0.4666666666666667 0.0071794871794871795 0.4448979591836735 0.5428571428571429 0.012244897959183675 0.404883011190234 0.5798575788402848 0.01525940996948118 0.6970010341261634 0.3009307135470527 0.0020682523267838674 0.7295336787564767 0.2683937823834197 0.002072538860103627 0.6059670781893004 0.38991769547325106 0.00411522633744856 0.06144697720515362 0.7641228939544104 0.17443012884043607 0.05168986083499006 0.7485089463220675 0.19980119284294234 0.17443012884043604 0.7641228939544102 0.06144697720515361 0.19980119284294234 0.7485089463220675 0.05168986083499006 0.12031558185404338 0.7850098619329389 0.09467455621301775 0.08687068114511352 0.7838104639684108 0.12931885488647582 0.07319485657764589 0.7764589515331356 0.1503461918892186 0.22831505483549355 0.728813559322034 0.04287138584247258 0.2595190380761523 0.7054108216432865 0.03507014028056112 0.162215628090999 0.7705242334322452 0.06726013847675569 0.11538461538461539 0.7859960552268245 0.09861932938856016 0.09861932938856016 0.7859960552268245 0.11538461538461539 0.2844221105527638 0.685427135678392 0.030150753768844216 0.3191919191919192 0.6565656565656566 0.024242424242424242 0.20696517412935325 0.7442786069651742 0.048756218905472645 0.1562809099901088 0.7734915924826904 0.07022749752720078 0.13438735177865613 0.782608695652174 0.08300395256916997 0.3562753036437247 0.6234817813765182 0.020242914979757085 0.3947100712105799 0.5890132248219735 0.01627670396744659 0.2678034102306921 0.6990972918756269 0.033099297893681046 0.19980119284294234 0.7485089463220675 0.05168986083499006 0.17443012884043604 0.7641228939544102 0.06144697720515361 0.42507645259938837 0.561671763506626 0.013251783893985729 0.46475995914198165 0.5240040858018387 0.011235955056179775 0.3282828282828283 0.6484848484848484 0.02323232323232323 0.2595190380761523 0.7054108216432865 0.03507014028056112 0.22831505483549355 0.728813559322034 0.04287138584247258 0.5061475409836066 0.48565573770491804 0.00819672131147541 0.5456410256410257 0.4471794871794872 0.0071794871794871795 0.404883011190234 0.5798575788402848 0.01525940996948118 0.023232323232323233 0.6484848484848486 0.3282828282828283 0.019250253292806482 0.6149949341438703 0.3657548125633232 0.0800395256916996 0.7806324110671937 0.1393280632411067 0.09467455621301775 0.7850098619329389 0.12031558185404338 0.05168986083499006 0.7485089463220675 0.19980119284294234 0.03507014028056112 0.7054108216432865 0.2595190380761523 0.029175050301810865 0.6780684104627767 0.29275653923541245 0.11045364891518737 0.7869822485207101 0.10256410256410256 0.1293188548864758 0.7838104639684106 0.08687068114511351 0.07319485657764589 0.7764589515331356 0.1503461918892186 0.04875621890547263 0.744278606965174 0.2069651741293532 0.04095904095904097 0.7232767232767233 0.23576423576423577 0.14525691699604742 0.7786561264822135 0.07608695652173914 0.16831683168316833 0.7673267326732673 0.06435643564356436 0.09861932938856016 0.7859960552268245 0.11538461538461539 0.0702274975272008 0.7734915924826905 0.15628090999010882 0.058531746031746025 0.7609126984126984 0.18055555555555555 0.1936444885799404 0.7527308838133068 0.053624627606752726 0.22111553784860558 0.7340637450199203 0.0448207171314741 0.13438735177865613 0.782608695652174 0.08300395256916997 0.09467455621301775 0.7850098619329389 0.12031558185404338 0.0800395256916996 0.7806324110671937 0.1393280632411067 0.24375624375624377 0.7172827172827173 0.03896103896103897 0.27582748244734206 0.6920762286860581 0.0320962888665998 0.17443012884043604 0.7641228939544102 0.06144697720515361 0.1293188548864758 0.7838104639684106 0.08687068114511351 0.11045364891518737 0.7869822485207101 0.10256410256410256 0.31048387096774194 0.6633064516129032 0.026209677419354836 0.3468149646107179 0.6319514661274014 0.021233569261880688 0.22831505483549355 0.728813559322034 0.04287138584247258 0.22432701894317053 0.7318045862412762 0.043868394815553345 0.19662363455809337 0.7507447864945384 0.052631578947368425 0.4596527068437181 0.5291113381001021 0.011235955056179775 0.5005117707267144 0.49027635619242577 0.009211873080859774 0.3610547667342799 0.6196754563894523 0.019269776876267748 0.28873239436619713 0.682092555331992 0.029175050301810862 0.2552552552552553 0.7087087087087087 0.036036036036036036 0.5405128205128206 0.4523076923076923 0.0071794871794871795 0.581275720164609 0.4135802469135803 0.0051440329218107 0.43979591836734694 0.5479591836734694 0.012244897959183675 0.3515704154002026 0.6281661600810537 0.020263424518743668 0.3148335015136226 0.6599394550958628 0.025227043390514632 0.6107106076210093 0.38516992790937177 0.004119464469618949 0.6484536082474226 0.34845360824742266 0.003092783505154639 0.5107692307692308 0.481025641025641 0.008205128205128205 0.4295918367346938 0.5571428571428572 0.013265306122448977 0.3902439024390244 0.5934959349593496 0.016260162601626018 0.6831785345717235 0.3137254901960784 0.0030959752321981426 0.717391304347826 0.28053830227743276 0.002070393374741201 0.5909558067831449 0.40390544707091475 0.0051387461459403904 0.5005117707267144 0.49027635619242577 0.009211873080859774 0.4596527068437181 0.5291113381001021 0.011235955056179775 0.7406639004149378 0.2572614107883818 0.002074688796680498 0.7713987473903967 0.22755741127348644 0.0010438413361169103 0.6573787409700723 0.3395252837977296 0.0030959752321981426 0.581275720164609 0.4135802469135803 0.0051440329218107 0.5405128205128206 0.4523076923076923 0.0071794871794871795 0.7983193277310924 0.20063025210084032 0.0010504201680672268 0.8222222222222222 0.17671957671957672 0.001058201058201058 0.7256728778467909 0.2722567287784679 0.002070393374741201 0.10848126232741617 0.7869822485207101 0.10453648915187376 0.09270216962524655 0.7850098619329389 0.1222879684418146 0.27181544633901705 0.6950852557673018 0.033099297893681046 0.3064516129032258 0.6673387096774194 0.026209677419354836 0.19662363455809337 0.7507447864945384 0.052631578947368425 0.1482213438735178 0.7766798418972333 0.07509881422924901 0.12721893491124261 0.7840236686390533 0.08875739644970414 0.34210526315789475 0.6366396761133603 0.02125506072874494 0.3800813008130081 0.6026422764227642 0.017276422764227643 0.2552552552552553 0.7087087087087087 0.036036036036036036 0.18986083499005965 0.7554671968190855 0.05467196819085487 0.16534653465346535 0.7693069306930693 0.06534653465346535 0.4093686354378819 0.575356415478615 0.015274949083503055 0.45 0.5377551020408163 0.012244897959183675 0.3148335015136226 0.6599394550958628 0.025227043390514632 0.248 0.714 0.038 0.2173479561316052 0.73678963110668 0.04586241276171486 0.49027635619242577 0.5005117707267144 0.009211873080859774 0.5312820512820513 0.46153846153846156 0.0071794871794871795 0.3902439024390244 0.5934959349593496 0.016260162601626018 0.3064516129032258 0.6673387096774194 0.026209677419354836 0.27181544633901705 0.6950852557673018 0.033099297893681046 0.5611510791366906 0.4326824254881808 0.006166495375128468 0.6002055498458376 0.39465570400822203 0.0051387461459403904 0.4596527068437181 0.5291113381001021 0.011235955056179775 0.3800813008130081 0.6026422764227642 0.017276422764227643 0.34210526315789475 0.6366396761133603 0.02125506072874494 0.6385169927909372 0.3573635427394439 0.004119464469618949 0.6749226006191951 0.3219814241486068 0.0030959752321981426 0.5405128205128206 0.4523076923076923 0.0071794871794871795 0.04586241276171485 0.7367896311066798 0.21734795613160515 0.038 0.714 0.248 0.1372161895360316 0.7808489634748272 0.08193484698914116 0.1594059405940594 0.7722772277227723 0.06831683168316832 0.09270216962524655 0.7850098619329389 0.1222879684418146 0.06534653465346535 0.7693069306930693 0.16534653465346535 0.05467196819085487 0.7554671968190855 0.18986083499005965 0.18353174603174602 0.7589285714285714 0.05753968253968254 0.21015936254980078 0.7420318725099602 0.04780876494023904 0.12721893491124261 0.7840236686390533 0.08875739644970414 0.08875739644970414 0.7840236686390533 0.12721893491124261 0.07509881422924901 0.7766798418972333 0.1482213438735178 0.23253493013972057 0.7255489021956087 0.04191616766467066 0.2635270541082164 0.7024048096192385 0.03406813627254509 0.16534653465346535 0.7693069306930693 0.06534653465346535 0.1222879684418146 0.7850098619329389 0.09270216962524655 0.10453648915187376 0.7869822485207101 0.10848126232741617 0.29707955689828797 0.67472306143001 0.02819738167170191 0.33265925176946415 0.6440849342770475 0.023255813953488372 0.2173479561316052 0.73678963110668 0.04586241276171486 0.1594059405940594 0.7722772277227723 0.06831683168316832 0.1372161895360316 0.7808489634748272 0.08193484698914116 0.3610547667342799 0.6196754563894523 0.019269776876267748 0.3997965412004069 0.5849440488301119 0.01525940996948118 0.27181544633901705 0.6950852557673018 0.033099297893681046 0.21015936254980078 0.7420318725099602 0.04780876494023904 0.18353174603174602 0.7589285714285714 0.05753968253968254 0.43979591836734694 0.5479591836734694 0.012244897959183675 0.48004094165813715 0.5097236438075742 0.01023541453428864 0.34210526315789475 0.6366396761133603 0.02125506072874494 0.18986083499005965 0.7554671968190855 0.05467196819085487 0.16534653465346535 0.7693069306930693 0.06534653465346535 0.4093686354378819 0.575356415478615 0.015274949083503055 0.45 0.5377551020408163 0.012244897959183675 0.3148335015136226 0.6599394550958628 0.025227043390514632 0.248 0.714 0.038 0.2173479561316052 0.73678963110668 0.04586241276171486 0.49027635619242577 0.5005117707267144 0.009211873080859774 0.5312820512820513 0.46153846153846156 0.0071794871794871795 0.3902439024390244 0.5934959349593496 0.016260162601626018 0.3064516129032258 0.6673387096774194 0.026209677419354836 0.27181544633901705 0.6950852557673018 0.033099297893681046 0.5611510791366906 0.4326824254881808 0.006166495375128468 0.6002055498458376 0.39465570400822203 0.0051387461459403904 0.4596527068437181 0.5291113381001021 0.011235955056179775 0.3800813008130081 0.6026422764227642 0.017276422764227643 0.34210526315789475 0.6366396761133603 0.02125506072874494 0.6385169927909372 0.3573635427394439 0.004119464469618949 0.6749226006191951 0.3219814241486068 0.0030959752321981426 0.5405128205128206 0.4523076923076923 0.0071794871794871795 0.45 0.5377551020408163 0.012244897959183675 0.4093686354378819 0.575356415478615 0.015274949083503055 0.7011375387797311 0.29679420889348496 0.0020682523267838674 0.7336787564766839 0.26424870466321243 0.002072538860103627 0.6107106076210093 0.38516992790937177 0.004119464469618949 0.5312820512820513 0.46153846153846156 0.0071794871794871795 0.49027635619242577 0.5005117707267144 0.009211873080859774 0.7645833333333334 0.23437500000000003 0.0010416666666666667 0.7916230366492147 0.20732984293193718 0.0010471204188481676 0.6831785345717235 0.3137254901960784 0.0030959752321981426 0.08875739644970414 0.7840236686390533 0.12721893491124261 0.07509881422924901 0.7766798418972333 0.1482213438735178 0.23253493013972057 0.7255489021956087 0.04191616766467066 0.2635270541082164 0.7024048096192385 0.03406813627254509 0.16534653465346535 0.7693069306930693 0.06534653465346535 0.1222879684418146 0.7850098619329389 0.09270216962524655 0.10453648915187376 0.7869822485207101 0.10848126232741617 0.29707955689828797 0.67472306143001 0.02819738167170191 0.33265925176946415 0.6440849342770475 0.023255813953488372 0.2173479561316052 0.73678963110668 0.04586241276171486 0.1594059405940594 0.7722772277227723 0.06831683168316832 0.1372161895360316 0.7808489634748272 0.08193484698914116 0.3610547667342799 0.6196754563894523 0.019269776876267748 0.3997965412004069 0.5849440488301119 0.01525940996948118 0.27181544633901705 0.6950852557673018 0.033099297893681046 0.21015936254980078 0.7420318725099602 0.04780876494023904 0.18353174603174602 0.7589285714285714 0.05753968253968254 0.43979591836734694 0.5479591836734694 0.012244897959183675 0.48004094165813715 0.5097236438075742 0.01023541453428864 0.34210526315789475 0.6366396761133603 0.02125506072874494 0.2635270541082164 0.7024048096192385 0.03406813627254509 0.23253493013972057 0.7255489021956087 0.04191616766467066 0.5107692307692308 0.481025641025641 0.008205128205128205 0.5513347022587269 0.44250513347022585 0.006160164271047228 0.4093686354378819 0.575356415478615 0.015274949083503055 0.33265925176946415 0.6440849342770475 0.023255813953488372 0.29707955689828797 0.67472306143001 0.02819738167170191 0.5909558067831449 0.40390544707091475 0.0051387461459403904 0.6292481977342945 0.3666323377960865 0.004119464469618949 0.49027635619242577 0.5005117707267144 0.009211873080859774 0.036036036036036036 0.7087087087087087 0.2552552552552553 0.029175050301810865 0.682092555331992 0.2887323943661972 0.11330049261083742 0.786206896551724 0.1004926108374384 0.13228035538005922 0.7828232971372161 0.08489634748272457 0.07509881422924901 0.7766798418972333 0.1482213438735178 0.05263157894736841 0.7507447864945381 0.19662363455809334 0.04386839481555333 0.7318045862412761 0.22432701894317048 0.15316205533596838 0.7747035573122529 0.07213438735177866 0.1774033696729435 0.7621407333994055 0.060455896927651145 0.10453648915187376 0.7869822485207101 0.10848126232741617 0.07213438735177866 0.7747035573122529 0.15316205533596838 0.06045589692765113 0.7621407333994052 0.17740336967294348 0.19662363455809337 0.7507447864945384 0.052631578947368425 0.22432701894317053 0.7318045862412762 0.043868394815553345 0.1372161895360316 0.7808489634748272 0.08193484698914116 0.1004926108374384 0.786206896551724 0.11330049261083742 0.08489634748272458 0.7828232971372163 0.13228035538005925 0.2552552552552553 0.7087087087087087 0.036036036036036036 0.28873239436619713 0.682092555331992 0.029175050301810862 0.18353174603174602 0.7589285714285714 0.05753968253968254 0.13228035538005922 0.7828232971372161 0.08489634748272457 0.11330049261083742 0.786206896551724 0.1004926108374384 0.3148335015136226 0.6599394550958628 0.025227043390514632 0.3515704154002026 0.6281661600810537 0.020263424518743668 0.23253493013972057 0.7255489021956087 0.04191616766467066 0.1774033696729435 0.7621407333994055 0.060455896927651145 0.15316205533596838 0.7747035573122529 0.07213438735177866 0.3902439024390244 0.5934959349593496 0.016260162601626018 0.4295918367346938 0.5571428571428572 0.013265306122448977 0.29707955689828797 0.67472306143001 0.02819738167170191 0.1594059405940594 0.7722772277227723 0.06831683168316832 0.1372161895360316 0.7808489634748272 0.08193484698914116 0.3610547667342799 0.6196754563894523 0.019269776876267748 0.3997965412004069 0.5849440488301119 0.01525940996948118 0.27181544633901705 0.6950852557673018 0.033099297893681046 0.21015936254980078 0.7420318725099602 0.04780876494023904 0.18353174603174602 0.7589285714285714 0.05753968253968254 0.43979591836734694 0.5479591836734694 0.012244897959183675 0.48004094165813715 0.5097236438075742 0.01023541453428864 0.34210526315789475 0.6366396761133603 0.02125506072874494 0.2635270541082164 0.7024048096192385 0.03406813627254509 0.23253493013972057 0.7255489021956087 0.04191616766467066 0.5107692307692308 0.481025641025641 0.008205128205128205 0.5513347022587269 0.44250513347022585 0.006160164271047228 0.4093686354378819 0.575356415478615 0.015274949083503055 0.33265925176946415 0.6440849342770475 0.023255813953488372 0.29707955689828797 0.67472306143001 0.02819738167170191 0.5909558067831449 0.40390544707091475 0.0051387461459403904 0.6292481977342945 0.3666323377960865 0.004119464469618949 0.49027635619242577 0.5005117707267144 0.009211873080859774 0.3997965412004069 0.5849440488301119 0.01525940996948118 0.3610547667342799 0.6196754563894523 0.019269776876267748 0.6573787409700723 0.3395252837977296 0.0030959752321981426 0.6928645294725957 0.30506721820062044 0.0020682523267838674 0.5611510791366906 0.4326824254881808 0.006166495375128468 0.48004094165813715 0.5097236438075742 0.01023541453428864 0.43979591836734694 0.5479591836734694 0.012244897959183675 0.7256728778467909 0.2722567287784679 0.002070393374741201 0.7565036420395421 0.24245577523413114 0.001040582726326743 0.6385169927909372 0.3573635427394439 0.004119464469618949 0.07213438735177866 0.7747035573122529 0.15316205533596838 0.06045589692765113 0.7621407333994052 0.17740336967294348 0.19662363455809337 0.7507447864945384 0.052631578947368425 0.22432701894317053 0.7318045862412762 0.043868394815553345 0.1372161895360316 0.7808489634748272 0.08193484698914116 0.1004926108374384 0.786206896551724 0.11330049261083742 0.08489634748272458 0.7828232971372163 0.13228035538005925 0.2552552552552553 0.7087087087087087 0.036036036036036036 0.28873239436619713 0.682092555331992 0.029175050301810862 0.18353174603174602 0.7589285714285714 0.05753968253968254 0.13228035538005922 0.7828232971372161 0.08489634748272457 0.11330049261083742 0.786206896551724 0.1004926108374384 0.3148335015136226 0.6599394550958628 0.025227043390514632 0.3515704154002026 0.6281661600810537 0.020263424518743668 0.23253493013972057 0.7255489021956087 0.04191616766467066 0.1774033696729435 0.7621407333994055 0.060455896927651145 0.15316205533596838 0.7747035573122529 0.07213438735177866 0.3902439024390244 0.5934959349593496 0.016260162601626018 0.4295918367346938 0.5571428571428572 0.013265306122448977 0.29707955689828797 0.67472306143001 0.02819738167170191 0.22432701894317053 0.7318045862412762 0.043868394815553345 0.19662363455809337 0.7507447864945384 0.052631578947368425 0.4596527068437181 0.5291113381001021 0.011235955056179775 0.5005117707267144 0.49027635619242577 0.009211873080859774 0.3610547667342799 0.6196754563894523 0.019269776876267748 0.28873239436619713 0.682092555331992 0.029175050301810862 0.2552552552552553 0.7087087087087087 0.036036036036036036 0.5405128205128206 0.4523076923076923 0.0071794871794871795 0.581275720164609 0.4135802469135803 0.0051440329218107 0.43979591836734694 0.5479591836734694 0.012244897959183675 0.02819738167170191 0.67472306143001 0.29707955689828797 0.02325581395348837 0.6440849342770475 0.3326592517694641 0.09270216962524655 0.7850098619329389 0.1222879684418146 0.10848126232741617 0.7869822485207101 0.10453648915187376 0.06045589692765113 0.7621407333994052 0.17740336967294348 0.04191616766467066 0.7255489021956087 0.23253493013972057 0.03406813627254509 0.7024048096192385 0.2635270541082164 0.12721893491124261 0.7840236686390533 0.08875739644970414 0.1482213438735178 0.7766798418972333 0.07509881422924901 0.08489634748272458 0.7828232971372163 0.13228035538005925 0.05753968253968254 0.7589285714285714 0.18353174603174602 0.04780876494023904 0.7420318725099602 0.21015936254980078 0.16534653465346535 0.7693069306930693 0.06534653465346535 0.18986083499005965 0.7554671968190855 0.05467196819085487 0.11330049261083742 0.786206896551724 0.1004926108374384 0.08193484698914118 0.7808489634748274 0.13721618953603162 0.06831683168316832 0.7722772277227723 0.1594059405940594 0.2173479561316052 0.73678963110668 0.04586241276171486 0.248 0.714 0.038 0.15316205533596838 0.7747035573122529 0.07213438735177866 0.10848126232741617 0.7869822485207101 0.10453648915187376 0.09270216962524655 0.7850098619329389 0.1222879684418146 0.27181544633901705 0.6950852557673018 0.033099297893681046 0.3064516129032258 0.6673387096774194 0.026209677419354836 0.19662363455809337 0.7507447864945384 0.052631578947368425 0.1482213438735178 0.7766798418972333 0.07509881422924901 0.12721893491124261 0.7840236686390533 0.08875739644970414 0.34210526315789475 0.6366396761133603 0.02125506072874494 0.3800813008130081 0.6026422764227642 0.017276422764227643 0.2552552552552553 0.7087087087087087 0.036036036036036036 0.020263424518743668 0.6281661600810537 0.3515704154002026 0.016260162601626018 0.5934959349593496 0.3902439024390244 0.07213438735177866 0.7747035573122529 0.15316205533596838 0.08489634748272458 0.7828232971372163 0.13228035538005925 0.04586241276171485 0.7367896311066798 0.21734795613160515 0.031124497991967866 0.6887550200803213 0.28012048192771083 0.025227043390514632 0.6599394550958627 0.31483350151362255 0.1004926108374384 0.786206896551724 0.11330049261083742 0.11735700197238658 0.7859960552268245 0.09664694280078896 0.06534653465346535 0.7693069306930693 0.16534653465346535 0.04386839481555333 0.7318045862412761 0.22432701894317048 0.036036036036036036 0.7087087087087087 0.2552552552552553 0.13228035538005922 0.7828232971372161 0.08489634748272457 0.15316205533596838 0.7747035573122529 0.07213438735177866 0.08875739644970414 0.7840236686390533 0.12721893491124261 0.06243805748265609 0.7661050545094152 0.1714568880079286 0.05263157894736841 0.7507447864945381 0.19662363455809334 0.1774033696729435 0.7621407333994055 0.060455896927651145 0.20398009950248758 0.746268656716418 0.04975124378109454 0.1222879684418146 0.7850098619329389 0.09270216962524655 0.08489634748272458 0.7828232971372163 0.13228035538005925 0.07213438735177866 0.7747035573122529 0.15316205533596838 0.22432701894317053 0.7318045862412762 0.043868394815553345 0.2552552552552553 0.7087087087087087 0.036036036036036036 0.1594059405940594 0.7722772277227723 0.06831683168316832 0.11735700197238658 0.7859960552268245 0.09664694280078896 0.1004926108374384 0.786206896551724 0.11330049261083742 0.28873239436619713 0.682092555331992 0.029175050301810862 0.32391523713420783 0.651866801210898 0.024217961654894045 0.21015936254980078 0.7420318725099602 0.04780876494023904 0.006160164271047228 0.44250513347022585 0.5513347022587269 0.0051387461459403904 0.40390544707091475 0.5909558067831449 0.02819738167170191 0.67472306143001 0.29707955689828797 0.03406813627254509 0.7024048096192385 0.2635270541082164 0.016260162601626018 0.5934959349593496 0.3902439024390244 0.010224948875255624 0.5194274028629857 0.47034764826175873 0.008205128205128205 0.481025641025641 0.5107692307692308 0.04191616766467066 0.7255489021956087 0.23253493013972057 0.04975124378109452 0.7462686567164178 0.20398009950248752 0.025227043390514632 0.6599394550958627 0.31483350151362255 0.01525940996948118 0.5849440488301119 0.3997965412004069 0.012244897959183675 0.5479591836734694 0.43979591836734694 0.05753968253968254 0.7589285714285714 0.18353174603174602 0.06831683168316832 0.7722772277227723 0.1594059405940594 0.036036036036036036 0.7087087087087087 0.2552552552552553 0.024217961654894045 0.651866801210898 0.32391523713420783 0.019269776876267748 0.6196754563894523 0.3610547667342799 0.08193484698914118 0.7808489634748274 0.13721618953603162 0.09664694280078896 0.7859960552268245 0.11735700197238658 0.05263157894736841 0.7507447864945381 0.19662363455809334 0.03406813627254509 0.7024048096192385 0.2635270541082164 0.02819738167170191 0.67472306143001 0.29707955689828797 0.10848126232741617 0.7869822485207101 0.10453648915187376 0.12721893491124261 0.7840236686390533 0.08875739644970414 0.07213438735177866 0.7747035573122529 0.15316205533596838 0.04975124378109452 0.7462686567164178 0.20398009950248752 0.04191616766467066 0.7255489021956087 0.23253493013972057 0.1482213438735178 0.7766798418972333 0.07509881422924901 0.17145688800792866 0.7661050545094154 0.0624380574826561 0.1004926108374384 0.786206896551724 0.11330049261083742 0.002072538860103627 0.26424870466321243 0.7336787564766839 0.0010416666666666667 0.23437500000000003 0.7645833333333334 0.009211873080859774 0.5005117707267144 0.49027635619242577 0.012244897959183675 0.5377551020408163 0.45 0.0051387461459403904 0.40390544707091475 0.5909558067831449 0.0030927835051546395 0.3309278350515464 0.665979381443299 0.0020682523267838674 0.29679420889348496 0.7011375387797311 0.015274949083503055 0.575356415478615 0.4093686354378819 0.0182741116751269 0.6111675126903553 0.37055837563451777 0.008205128205128205 0.481025641025641 0.5107692307692308 0.0051387461459403904 0.39465570400822203 0.6002055498458376 0.004119464469618949 0.3573635427394439 0.6385169927909372 0.021255060728744942 0.6366396761133604 0.34210526315789475 0.026209677419354836 0.6673387096774194 0.3064516129032258 0.012244897959183675 0.5479591836734694 0.43979591836734694 0.00819672131147541 0.4713114754098361 0.5204918032786885 0.006166495375128468 0.4326824254881808 0.5611510791366906 0.033099297893681046 0.6950852557673018 0.27181544633901705 0.03996003996003997 0.7202797202797203 0.23976023976023977 0.019269776876267748 0.6196754563894523 0.3610547667342799 0.012244897959183675 0.5377551020408163 0.45 0.009211873080859774 0.5005117707267144 0.49027635619242577 0.04586241276171485 0.7367896311066798 0.21734795613160515 0.05467196819085487 0.7554671968190855 0.18986083499005965 0.02819738167170191 0.67472306143001 0.29707955689828797 0.0182741116751269 0.6111675126903553 0.37055837563451777 0.015274949083503055 0.575356415478615 0.4093686354378819 0.06534653465346535 0.7693069306930693 0.16534653465346535 0.07806324110671936 0.7796442687747036 0.14229249011857706 0.04191616766467066 0.7255489021956087 0.23253493013972057 0.01525940996948118 0.5849440488301119 0.3997965412004069 0.012244897959183675 0.5479591836734694 0.43979591836734694 0.05753968253968254 0.7589285714285714 0.18353174603174602 0.06831683168316832 0.7722772277227723 0.1594059405940594 0.036036036036036036 0.7087087087087087 0.2552552552552553 0.024217961654894045 0.651866801210898 0.32391523713420783 0.019269776876267748 0.6196754563894523 0.3610547667342799 0.08193484698914118 0.7808489634748274 0.13721618953603162 0.09664694280078896 0.7859960552268245 0.11735700197238658 0.05263157894736841 0.7507447864945381 0.19662363455809334 0.03406813627254509 0.7024048096192385 0.2635270541082164 0.02819738167170191 0.67472306143001 0.29707955689828797 0.10848126232741617 0.7869822485207101 0.10453648915187376 0.12721893491124261 0.7840236686390533 0.08875739644970414 0.07213438735177866 0.7747035573122529 0.15316205533596838 0.04975124378109452 0.7462686567164178 0.20398009950248752 0.04191616766467066 0.7255489021956087 0.23253493013972057 0.1482213438735178 0.7766798418972333 0.07509881422924901 0.17145688800792866 0.7661050545094154 0.0624380574826561 0.1004926108374384 0.786206896551724 0.11330049261083742 0.06831683168316832 0.7722772277227723 0.1594059405940594 0.05753968253968254 0.7589285714285714 0.18353174603174602 0.18986083499005965 0.7554671968190855 0.05467196819085487 0.2173479561316052 0.73678963110668 0.04586241276171486 0.13228035538005922 0.7828232971372161 0.08489634748272457 0.09664694280078896 0.7859960552268245 0.11735700197238658 0.08193484698914118 0.7808489634748274 0.13721618953603162 0.248 0.714 0.038 0.28012048192771083 0.6887550200803213 0.031124497991967866 0.1774033696729435 0.7621407333994055 0.060455896927651145 0.0051387461459403904 0.39465570400822203 0.6002055498458376 0.004119464469618949 0.3573635427394439 0.6385169927909372 0.021255060728744942 0.6366396761133604 0.34210526315789475 0.026209677419354836 0.6673387096774194 0.3064516129032258 0.012244897959183675 0.5479591836734694 0.43979591836734694 0.00819672131147541 0.4713114754098361 0.5204918032786885 0.006166495375128468 0.4326824254881808 0.5611510791366906 0.033099297893681046 0.6950852557673018 0.27181544633901705 0.03996003996003997 0.7202797202797203 0.23976023976023977 0.019269776876267748 0.6196754563894523 0.3610547667342799 0.012244897959183675 0.5377551020408163 0.45 0.009211873080859774 0.5005117707267144 0.49027635619242577 0.04586241276171485 0.7367896311066798 0.21734795613160515 0.05467196819085487 0.7554671968190855 0.18986083499005965 0.02819738167170191 0.67472306143001 0.29707955689828797 0.0182741116751269 0.6111675126903553 0.37055837563451777 0.015274949083503055 0.575356415478615 0.4093686354378819 0.06534653465346535 0.7693069306930693 0.16534653465346535 0.07806324110671936 0.7796442687747036 0.14229249011857706 0.04191616766467066 0.7255489021956087 0.23253493013972057 0.026209677419354836 0.6673387096774194 0.3064516129032258 0.021255060728744942 0.6366396761133604 0.34210526315789475 0.08875739644970414 0.7840236686390533 0.12721893491124261 0.10453648915187376 0.7869822485207101 0.10848126232741617 0.05753968253968254 0.7589285714285714 0.18353174603174602 0.03996003996003997 0.7202797202797203 0.23976023976023977 0.033099297893681046 0.6950852557673018 0.27181544633901705 0.1222879684418146 0.7850098619329389 0.09270216962524655 0.14229249011857706 0.7796442687747036 0.07806324110671936 0.08193484698914118 0.7808489634748274 0.13721618953603162 0.0010438413361169103 0.22755741127348644 0.7713987473903967 0.001050420168067227 0.20063025210084034 0.7983193277310925 0.007179487179487179 0.45230769230769224 0.5405128205128205 0.009211873080859774 0.49027635619242577 0.5005117707267144 0.004119464469618949 0.3573635427394439 0.6385169927909372 0.0020682523267838674 0.28852119958634953 0.7094105480868665 0.002074688796680498 0.2572614107883818 0.7406639004149378 0.011235955056179773 0.5291113381001021 0.45965270684371806 0.014256619144602852 0.5661914460285133 0.4195519348268839 0.006166495375128468 0.4326824254881808 0.5611510791366906 0.0030927835051546395 0.3484536082474227 0.6484536082474227 0.003095975232198142 0.31372549019607837 0.6831785345717234 0.016260162601626018 0.5934959349593496 0.3902439024390244 0.020263424518743668 0.6281661600810537 0.3515704154002026 0.009211873080859774 0.5005117707267144 0.49027635619242577 0.006160164271047228 0.42299794661190965 0.5708418891170431 0.004119464469618949 0.38516992790937177 0.6107106076210093 0.025227043390514632 0.6599394550958627 0.31483350151362255 0.031124497991967866 0.6887550200803213 0.28012048192771083 0.015274949083503055 0.575356415478615 0.4093686354378819 0.009211873080859774 0.49027635619242577 0.5005117707267144 0.007179487179487179 0.45230769230769224 0.5405128205128205 0.036036036036036036 0.7087087087087087 0.2552552552552553 0.04386839481555333 0.7318045862412761 0.22432701894317048 0.021255060728744942 0.6366396761133604 0.34210526315789475 0.014256619144602852 0.5661914460285133 0.4195519348268839 0.011235955056179773 0.5291113381001021 0.45965270684371806 0.05263157894736841 0.7507447864945381 0.19662363455809334 0.06243805748265609 0.7661050545094152 0.1714568880079286 0.033099297893681046 0.6950852557673018 0.27181544633901705 0.012244897959183675 0.5377551020408163 0.45 0.009211873080859774 0.5005117707267144 0.49027635619242577 0.04586241276171485 0.7367896311066798 0.21734795613160515 0.05467196819085487 0.7554671968190855 0.18986083499005965 0.02819738167170191 0.67472306143001 0.29707955689828797 0.0182741116751269 0.6111675126903553 0.37055837563451777 0.015274949083503055 0.575356415478615 0.4093686354378819 0.06534653465346535 0.7693069306930693 0.16534653465346535 0.07806324110671936 0.7796442687747036 0.14229249011857706 0.04191616766467066 0.7255489021956087 0.23253493013972057 0.026209677419354836 0.6673387096774194 0.3064516129032258 0.021255060728744942 0.6366396761133604 0.34210526315789475 0.08875739644970414 0.7840236686390533 0.12721893491124261 0.10453648915187376 0.7869822485207101 0.10848126232741617 0.05753968253968254 0.7589285714285714 0.18353174603174602 0.03996003996003997 0.7202797202797203 0.23976023976023977 0.033099297893681046 0.6950852557673018 0.27181544633901705 0.1222879684418146 0.7850098619329389 0.09270216962524655 0.14229249011857706 0.7796442687747036 0.07806324110671936 0.08193484698914118 0.7808489634748274 0.13721618953603162 0.05467196819085487 0.7554671968190855 0.18986083499005965 0.04586241276171485 0.7367896311066798 0.21734795613160515 0.1594059405940594 0.7722772277227723 0.06831683168316832 0.18353174603174602 0.7589285714285714 0.05753968253968254 0.10848126232741617 0.7869822485207101 0.10453648915187376 0.07806324110671936 0.7796442687747036 0.14229249011857706 0.06534653465346535 0.7693069306930693 0.16534653465346535 0.21015936254980078 0.7420318725099602 0.04780876494023904 0.23976023976023977 0.7202797202797203 0.03996003996003997 0.1482213438735178 0.7766798418972333 0.07509881422924901 0.0030927835051546395 0.3484536082474227 0.6484536082474227 0.003095975232198142 0.31372549019607837 0.6831785345717234 0.016260162601626018 0.5934959349593496 0.3902439024390244 0.020263424518743668 0.6281661600810537 0.3515704154002026 0.009211873080859774 0.5005117707267144 0.49027635619242577 0.006160164271047228 0.42299794661190965 0.5708418891170431 0.004119464469618949 0.38516992790937177 0.6107106076210093 0.025227043390514632 0.6599394550958627 0.31483350151362255 0.031124497991967866 0.6887550200803213 0.28012048192771083 0.015274949083503055 0.575356415478615 0.4093686354378819 0.009211873080859774 0.49027635619242577 0.5005117707267144 0.007179487179487179 0.45230769230769224 0.5405128205128205 0.036036036036036036 0.7087087087087087 0.2552552552552553 0.04386839481555333 0.7318045862412761 0.22432701894317048 0.021255060728744942 0.6366396761133604 0.34210526315789475 0.014256619144602852 0.5661914460285133 0.4195519348268839 0.011235955056179773 0.5291113381001021 0.45965270684371806 0.05263157894736841 0.7507447864945381 0.19662363455809334 0.06243805748265609 0.7661050545094152 0.1714568880079286 0.033099297893681046 0.6950852557673018 0.27181544633901705 0.020263424518743668 0.6281661600810537 0.3515704154002026 0.016260162601626018 0.5934959349593496 0.3902439024390244 0.07213438735177866 0.7747035573122529 0.15316205533596838 0.08489634748272458 0.7828232971372163 0.13228035538005925 0.04586241276171485 0.7367896311066798 0.21734795613160515 0.031124497991967866 0.6887550200803213 0.28012048192771083 0.025227043390514632 0.6599394550958627 0.31483350151362255 0.1004926108374384 0.786206896551724 0.11330049261083742 0.11735700197238658 0.7859960552268245 0.09664694280078896 0.06534653465346535 0.7693069306930693 0.16534653465346535 0.0010515247108307045 0.19453207150368032 0.804416403785489 0.0010615711252653928 0.17091295116772823 0.8280254777070063 0.0051387461459403904 0.40390544707091475 0.5909558067831449 0.006160164271047228 0.44250513347022585 0.5513347022587269 0.003095975232198142 0.31372549019607837 0.6831785345717234 0.0010395010395010396 0.24948024948024947 0.7494802494802495 0.0010449320794148381 0.22048066875653083 0.7784743991640544 0.008205128205128205 0.481025641025641 0.5107692307692308 0.010224948875255624 0.5194274028629857 0.47034764826175873 0.004119464469618949 0.38516992790937177 0.6107106076210093 0.0020682523267838674 0.30506721820062044 0.6928645294725957 0.002070393374741201 0.2722567287784679 0.7256728778467909 0.012244897959183675 0.5479591836734694 0.43979591836734694 0.01525940996948118 0.5849440488301119 0.3997965412004069 0.007179487179487179 0.45230769230769224 0.5405128205128205 0.004119464469618949 0.37590113285272914 0.619979402677652 0.003095975232198142 0.3395252837977296 0.6573787409700722 0.019269776876267748 0.6196754563894523 0.3610547667342799 0.024217961654894045 0.651866801210898 0.32391523713420783 0.011235955056179773 0.5291113381001021 0.45965270684371806 0.006160164271047228 0.44250513347022585 0.5513347022587269 0.0051387461459403904 0.40390544707091475 0.5909558067831449 0.02819738167170191 0.67472306143001 0.29707955689828797 0.03406813627254509 0.7024048096192385 0.2635270541082164 0.016260162601626018 0.5934959349593496 0.3902439024390244 0.010224948875255624 0.5194274028629857 0.47034764826175873 0.008205128205128205 0.481025641025641 0.5107692307692308 0.04191616766467066 0.7255489021956087 0.23253493013972057 0.04975124378109452 0.7462686567164178 0.20398009950248752 0.025227043390514632 0.6599394550958627 0.31483350151362255 0.25125125125125125 0.7117117117117117 0.037037037037037035 0.22111553784860558 0.7340637450199203 0.0448207171314741 0.4953940634595701 0.4953940634595701 0.009211873080859774 0.5364102564102564 0.45641025641025645 0.0071794871794871795 0.3947100712105799 0.5890132248219735 0.01627670396744659 0.3191919191919192 0.6565656565656566 0.024242424242424242 0.2844221105527638 0.685427135678392 0.030150753768844216 0.5765673175745119 0.41829393627954775 0.0051387461459403904 0.6152263374485597 0.38065843621399176 0.00411522633744856 0.47546012269938653 0.5143149284253579 0.010224948875255624 0.38477157360406095 0.5979695431472081 0.017258883248730966 0.3468149646107179 0.6319514661274014 0.021233569261880688 0.6436663233779609 0.35324407826982496 0.0030895983522142125 0.6790505675954592 0.31785345717234265 0.0030959752321981426 0.5456410256410257 0.4471794871794872 0.0071794871794871795 0.46475995914198165 0.5240040858018387 0.011235955056179775 0.42507645259938837 0.561671763506626 0.013251783893985729 0.7135470527404343 0.28438469493278185 0.002068252326783868 0.7448132780082988 0.25311203319502074 0.002074688796680498 0.6244855967078189 0.3713991769547325 0.00411522633744856 0.5364102564102564 0.45641025641025645 0.0071794871794871795 0.4953940634595701 0.4953940634595701 0.009211873080859774 0.7677083333333333 0.23125 0.0010416666666666667 0.7945492662473794 0.20440251572327042 0.0010482180293501047 0.688728024819028 0.3092037228541882 0.0020682523267838674 0.6152263374485597 0.38065843621399176 0.00411522633744856 0.5765673175745119 0.41829393627954775 0.0051387461459403904 0.8192389006342494 0.17970401691331925 0.0010570824524312897 0.8418803418803419 0.15705128205128202 0.0010683760683760683 0.7533818938605619 0.24557752341311134 0.001040582726326743 0.12438302073050345 0.7847976307996051 0.0908193484698914 0.10650887573964497 0.7869822485207101 0.10650887573964497 0.3014112903225806 0.6713709677419355 0.027217741935483868 0.3377148634984833 0.640040444893832 0.022244691607684525 0.22111553784860558 0.7340637450199203 0.0448207171314741 0.16831683168316833 0.7673267326732673 0.06435643564356436 0.14525691699604742 0.7786561264822135 0.07608695652173914 0.3752535496957404 0.6064908722109533 0.018255578093306288 0.41446028513238287 0.5712830957230143 0.014256619144602852 0.2844221105527638 0.685427135678392 0.030150753768844216 0.21414342629482072 0.7390438247011952 0.046812749003984064 0.1865079365079365 0.7569444444444444 0.05654761904761905 0.4448979591836735 0.5428571428571429 0.012244897959183675 0.48515864892528143 0.5056294779938587 0.009211873080859774 0.3468149646107179 0.6319514661274014 0.021233569261880688 0.27582748244734206 0.6920762286860581 0.0320962888665998 0.24375624375624377 0.7172827172827173 0.03896103896103897 0.5261538461538462 0.4666666666666667 0.0071794871794871795 0.5657084188911705 0.42813141683778233 0.006160164271047228 0.42507645259938837 0.561671763506626 0.013251783893985729 0.3377148634984833 0.640040444893832 0.022244691607684525 0.3014112903225806 0.6713709677419355 0.027217741935483868 0.595679012345679 0.3991769547325103 0.0051440329218107 0.6337448559670782 0.3621399176954732 0.00411522633744856 0.4953940634595701 0.4953940634595701 0.009211873080859774 0.41446028513238287 0.5712830957230143 0.014256619144602852 0.3752535496957404 0.6064908722109533 0.018255578093306288 0.6707946336429309 0.32610939112487103 0.0030959752321981426 0.7052740434332988 0.2926577042399172 0.0020682523267838674 0.5765673175745119 0.41829393627954775 0.0051387461459403904 0.053624627606752726 0.7527308838133068 0.1936444885799404 0.0448207171314741 0.7340637450199203 0.22111553784860558 0.1562809099901088 0.7734915924826904 0.07022749752720078 0.18055555555555555 0.7609126984126984 0.058531746031746025 0.10650887573964497 0.7869822485207101 0.10650887573964497 0.07608695652173914 0.7786561264822135 0.14525691699604742 0.06435643564356436 0.7673267326732673 0.16831683168316833 0.20696517412935325 0.7442786069651742 0.048756218905472645 0.23576423576423577 0.7232767232767233 0.04095904095904097 0.14525691699604742 0.7786561264822135 0.07608695652173914 0.10256410256410256 0.7869822485207101 0.11045364891518737 0.08687068114511352 0.7838104639684108 0.12931885488647582 0.2595190380761523 0.7054108216432865 0.03507014028056112 0.29275653923541245 0.6780684104627767 0.029175050301810862 0.1865079365079365 0.7569444444444444 0.05654761904761905 0.1393280632411067 0.7806324110671937 0.0800395256916996 0.12031558185404338 0.7850098619329389 0.09467455621301775 0.3282828282828283 0.6484848484848484 0.02323232323232323 0.3657548125633232 0.6149949341438703 0.019250253292806482 0.24375624375624377 0.7172827172827173 0.03896103896103897 0.18055555555555555 0.7609126984126984 0.058531746031746025 0.1562809099901088 0.7734915924826904 0.07022749752720078 0.3947100712105799 0.5890132248219735 0.01627670396744659 0.43425076452599387 0.5524974515800204 0.013251783893985729 0.3014112903225806 0.6713709677419355 0.027217741935483868 0.23576423576423577 0.7232767232767233 0.04095904095904097 0.20696517412935325 0.7442786069651742 0.048756218905472645 0.47546012269938653 0.5143149284253579 0.010224948875255624 0.5153688524590164 0.4764344262295082 0.00819672131147541 0.3752535496957404 0.6064908722109533 0.018255578093306288 0.21414342629482072 0.7390438247011952 0.046812749003984064 0.1865079365079365 0.7569444444444444 0.05654761904761905 0.4448979591836735 0.5428571428571429 0.012244897959183675 0.48515864892528143 0.5056294779938587 0.009211873080859774 0.3468149646107179 0.6319514661274014 0.021233569261880688 0.27582748244734206 0.6920762286860581 0.0320962888665998 0.24375624375624377 0.7172827172827173 0.03896103896103897 0.5261538461538462 0.4666666666666667 0.0071794871794871795 0.5657084188911705 0.42813141683778233 0.006160164271047228 0.42507645259938837 0.561671763506626 0.013251783893985729 0.3377148634984833 0.640040444893832 0.022244691607684525 0.3014112903225806 0.6713709677419355 0.027217741935483868 0.595679012345679 0.3991769547325103 0.0051440329218107 0.6337448559670782 0.3621399176954732 0.00411522633744856 0.4953940634595701 0.4953940634595701 0.009211873080859774 0.41446028513238287 0.5712830957230143 0.014256619144602852 0.3752535496957404 0.6064908722109533 0.018255578093306288 0.6707946336429309 0.32610939112487103 0.0030959752321981426 0.7052740434332988 0.2926577042399172 0.0020682523267838674 0.5765673175745119 0.41829393627954775 0.0051387461459403904 0.48515864892528143 0.5056294779938587 0.009211873080859774 0.4448979591836735 0.5428571428571429 0.012244897959183675 0.7295336787564767 0.2683937823834197 0.002072538860103627 0.7606659729448492 0.23829344432882416 0.001040582726326743 0.6436663233779609 0.35324407826982496 0.0030895983522142125 0.5657084188911705 0.42813141683778233 0.006160164271047228 0.5261538461538462 0.4666666666666667 0.0071794871794871795 0.7884816753926702 0.2104712041884817 0.0010471204188481676 0.8132911392405063 0.18565400843881855 0.0010548523206751054 0.7135470527404343 0.28438469493278185 0.002068252326783868 0.10256410256410256 0.7869822485207101 0.11045364891518737 0.08687068114511352 0.7838104639684108 0.12931885488647582 0.2595190380761523 0.7054108216432865 0.03507014028056112 0.29275653923541245 0.6780684104627767 0.029175050301810862 0.1865079365079365 0.7569444444444444 0.05654761904761905 0.1393280632411067 0.7806324110671937 0.0800395256916996 0.12031558185404338 0.7850098619329389 0.09467455621301775 0.3282828282828283 0.6484848484848484 0.02323232323232323 0.3657548125633232 0.6149949341438703 0.019250253292806482 0.24375624375624377 0.7172827172827173 0.03896103896103897 0.18055555555555555 0.7609126984126984 0.058531746031746025 0.1562809099901088 0.7734915924826904 0.07022749752720078 0.3947100712105799 0.5890132248219735 0.01627670396744659 0.43425076452599387 0.5524974515800204 0.013251783893985729 0.3014112903225806 0.6713709677419355 0.027217741935483868 0.23576423576423577 0.7232767232767233 0.04095904095904097 0.20696517412935325 0.7442786069651742 0.048756218905472645 0.47546012269938653 0.5143149284253579 0.010224948875255624 0.5153688524590164 0.4764344262295082 0.00819672131147541 0.3752535496957404 0.6064908722109533 0.018255578093306288 0.29275653923541245 0.6780684104627767 0.029175050301810862 0.2595190380761523 0.7054108216432865 0.03507014028056112 0.5456410256410257 0.4471794871794872 0.0071794871794871795 0.5858170606372045 0.40904419321685515 0.0051387461459403904 0.4448979591836735 0.5428571428571429 0.012244897959183675 0.3657548125633232 0.6149949341438703 0.019250253292806482 0.3282828282828283 0.6484848484848484 0.02323232323232323 0.6244855967078189 0.3713991769547325 0.00411522633744856 0.6618556701030928 0.33505154639175255 0.003092783505154639 0.5261538461538462 0.4666666666666667 0.0071794871794871795 0.042871385842472576 0.7288135593220338 0.2283150548354935 0.03507014028056112 0.7054108216432865 0.2595190380761523 0.1293188548864758 0.7838104639684106 0.08687068114511351 0.15034619188921858 0.7764589515331355 0.07319485657764588 0.08687068114511352 0.7838104639684108 0.12931885488647582 0.06144697720515362 0.7641228939544104 0.17443012884043607 0.05168986083499006 0.7485089463220675 0.19980119284294234 0.17443012884043604 0.7641228939544102 0.06144697720515361 0.19980119284294234 0.7485089463220675 0.05168986083499006 0.12031558185404338 0.7850098619329389 0.09467455621301775 0.08300395256916997 0.782608695652174 0.13438735177865613 0.0702274975272008 0.7734915924826905 0.15628090999010882 0.22111553784860558 0.7340637450199203 0.0448207171314741 0.25125125125125125 0.7117117117117117 0.037037037037037035 0.1562809099901088 0.7734915924826904 0.07022749752720078 0.11538461538461539 0.7859960552268245 0.09861932938856016 0.09861932938856016 0.7859960552268245 0.11538461538461539 0.2844221105527638 0.685427135678392 0.030150753768844216 0.3191919191919192 0.6565656565656566 0.024242424242424242 0.20696517412935325 0.7442786069651742 0.048756218905472645 0.15034619188921858 0.7764589515331355 0.07319485657764588 0.1293188548864758 0.7838104639684106 0.08687068114511351 0.3468149646107179 0.6319514661274014 0.021233569261880688 0.38477157360406095 0.5979695431472081 0.017258883248730966 0.2595190380761523 0.7054108216432865 0.03507014028056112 0.19980119284294234 0.7485089463220675 0.05168986083499006 0.17443012884043604 0.7641228939544102 0.06144697720515361 0.42507645259938837 0.561671763506626 0.013251783893985729 0.46475995914198165 0.5240040858018387 0.011235955056179775 0.3282828282828283 0.6484848484848484 0.02323232323232323 0.18055555555555555 0.7609126984126984 0.058531746031746025 0.1562809099901088 0.7734915924826904 0.07022749752720078 0.3947100712105799 0.5890132248219735 0.01627670396744659 0.43425076452599387 0.5524974515800204 0.013251783893985729 0.3014112903225806 0.6713709677419355 0.027217741935483868 0.23576423576423577 0.7232767232767233 0.04095904095904097 0.20696517412935325 0.7442786069651742 0.048756218905472645 0.47546012269938653 0.5143149284253579 0.010224948875255624 0.5153688524590164 0.4764344262295082 0.00819672131147541 0.3752535496957404 0.6064908722109533 0.018255578093306288 0.29275653923541245 0.6780684104627767 0.029175050301810862 0.2595190380761523 0.7054108216432865 0.03507014028056112 0.5456410256410257 0.4471794871794872 0.0071794871794871795 0.5858170606372045 0.40904419321685515 0.0051387461459403904 0.4448979591836735 0.5428571428571429 0.012244897959183675 0.3657548125633232 0.6149949341438703 0.019250253292806482 0.3282828282828283 0.6484848484848484 0.02323232323232323 0.6244855967078189 0.3713991769547325 0.00411522633744856 0.6618556701030928 0.33505154639175255 0.003092783505154639 0.5261538461538462 0.4666666666666667 0.0071794871794871795 0.43425076452599387 0.5524974515800204 0.013251783893985729 0.3947100712105799 0.5890132248219735 0.01627670396744659 0.688728024819028 0.3092037228541882 0.0020682523267838674 0.7215320910973084 0.27639751552795033 0.002070393374741201 0.595679012345679 0.3991769547325103 0.0051440329218107 0.5153688524590164 0.4764344262295082 0.00819672131147541 0.47546012269938653 0.5143149284253579 0.010224948875255624 0.7533818938605619 0.24557752341311134 0.001040582726326743 0.7816091954022989 0.2173458725182863 0.0010449320794148381 0.6707946336429309 0.32610939112487103 0.0030959752321981426 0.08300395256916997 0.782608695652174 0.13438735177865613 0.0702274975272008 0.7734915924826905 0.15628090999010882 0.22111553784860558 0.7340637450199203 0.0448207171314741 0.25125125125125125 0.7117117117117117 0.037037037037037035 0.1562809099901088 0.7734915924826904 0.07022749752720078 0.11538461538461539 0.7859960552268245 0.09861932938856016 0.09861932938856016 0.7859960552268245 0.11538461538461539 0.2844221105527638 0.685427135678392 0.030150753768844216 0.3191919191919192 0.6565656565656566 0.024242424242424242 0.20696517412935325 0.7442786069651742 0.048756218905472645 0.15034619188921858 0.7764589515331355 0.07319485657764588 0.1293188548864758 0.7838104639684106 0.08687068114511351 0.3468149646107179 0.6319514661274014 0.021233569261880688 0.38477157360406095 0.5979695431472081 0.017258883248730966 0.2595190380761523 0.7054108216432865 0.03507014028056112 0.19980119284294234 0.7485089463220675 0.05168986083499006 0.17443012884043604 0.7641228939544102 0.06144697720515361 0.42507645259938837 0.561671763506626 0.013251783893985729 0.46475995914198165 0.5240040858018387 0.011235955056179775 0.3282828282828283 0.6484848484848484 0.02323232323232323 0.25125125125125125 0.7117117117117117 0.037037037037037035 0.22111553784860558 0.7340637450199203 0.0448207171314741 0.4953940634595701 0.4953940634595701 0.009211873080859774 0.5364102564102564 0.45641025641025645 0.0071794871794871795 0.3947100712105799 0.5890132248219735 0.01627670396744659 0.3191919191919192 0.6565656565656566 0.024242424242424242 0.2844221105527638 0.685427135678392 0.030150753768844216 0.5765673175745119 0.41829393627954775 0.0051387461459403904 0.6152263374485597 0.38065843621399176 0.00411522633744856 0.47546012269938653 0.5143149284253579 0.010224948875255624 0.033099297893681046 0.6990972918756269 0.2678034102306921 0.02721774193548387 0.6713709677419355 0.3014112903225806 0.10650887573964497 0.7869822485207101 0.10650887573964497 0.12438302073050345 0.7847976307996051 0.0908193484698914 0.0702274975272008 0.7734915924826905 0.15628090999010882 0.04875621890547263 0.744278606965174 0.2069651741293532 0.04095904095904097 0.7232767232767233 0.23576423576423577 0.14525691699604742 0.7786561264822135 0.07608695652173914 0.16831683168316833 0.7673267326732673 0.06435643564356436 0.09861932938856016 0.7859960552268245 0.11538461538461539 0.0672601384767557 0.7705242334322454 0.16221562809099904 0.05654761904761905 0.7569444444444444 0.1865079365079365 0.1865079365079365 0.7569444444444444 0.05654761904761905 0.21414342629482072 0.7390438247011952 0.046812749003984064 0.1293188548864758 0.7838104639684106 0.08687068114511351 0.09467455621301775 0.7850098619329389 0.12031558185404338 0.0800395256916996 0.7806324110671937 0.1393280632411067 0.24375624375624377 0.7172827172827173 0.03896103896103897 0.27582748244734206 0.6920762286860581 0.0320962888665998 0.17443012884043604 0.7641228939544102 0.06144697720515361 0.12438302073050345 0.7847976307996051 0.0908193484698914 0.10650887573964497 0.7869822485207101 0.10650887573964497 0.3014112903225806 0.6713709677419355 0.027217741935483868 0.3377148634984833 0.640040444893832 0.022244691607684525 0.22111553784860558 0.7340637450199203 0.0448207171314741 0.16831683168316833 0.7673267326732673 0.06435643564356436 0.14525691699604742 0.7786561264822135 0.07608695652173914 0.3752535496957404 0.6064908722109533 0.018255578093306288 0.41446028513238287 0.5712830957230143 0.014256619144602852 0.2844221105527638 0.685427135678392 0.030150753768844216 0.017258883248730966 0.5979695431472081 0.38477157360406095 0.013251783893985727 0.5616717635066258 0.4250764525993883 0.06144697720515362 0.7641228939544104 0.17443012884043607 0.07319485657764589 0.7764589515331356 0.1503461918892186 0.03896103896103897 0.7172827172827173 0.24375624375624377 0.026209677419354836 0.6633064516129032 0.31048387096774194 0.021233569261880688 0.6319514661274014 0.34681496461071787 0.08687068114511352 0.7838104639684108 0.12931885488647582 0.10256410256410256 0.7869822485207101 0.11045364891518737 0.05654761904761905 0.7569444444444444 0.1865079365079365 0.037037037037037035 0.7117117117117117 0.25125125125125125 0.030150753768844216 0.685427135678392 0.2844221105527638 0.11538461538461539 0.7859960552268245 0.09861932938856016 0.13438735177865613 0.782608695652174 0.08300395256916997 0.07608695652173914 0.7786561264822135 0.14525691699604742 0.053624627606752726 0.7527308838133068 0.1936444885799404 0.0448207171314741 0.7340637450199203 0.22111553784860558 0.1562809099901088 0.7734915924826904 0.07022749752720078 0.18055555555555555 0.7609126984126984 0.058531746031746025 0.10650887573964497 0.7869822485207101 0.10650887573964497 0.07319485657764589 0.7764589515331356 0.1503461918892186 0.06144697720515362 0.7641228939544104 0.17443012884043607 0.19980119284294234 0.7485089463220675 0.05168986083499006 0.22831505483549355 0.728813559322034 0.04287138584247258 0.1393280632411067 0.7806324110671937 0.0800395256916996 0.10256410256410256 0.7869822485207101 0.11045364891518737 0.08687068114511352 0.7838104639684108 0.12931885488647582 0.2595190380761523 0.7054108216432865 0.03507014028056112 0.29275653923541245 0.6780684104627767 0.029175050301810862 0.1865079365079365 0.7569444444444444 0.05654761904761905 0.0051387461459403904 0.40904419321685515 0.5858170606372045 0.00411522633744856 0.3713991769547325 0.6244855967078189 0.023232323232323233 0.6484848484848486 0.3282828282828283 0.029175050301810865 0.6780684104627767 0.29275653923541245 0.013251783893985727 0.5616717635066258 0.4250764525993883 0.00819672131147541 0.48565573770491804 0.5061475409836066 0.007179487179487179 0.44717948717948713 0.5456410256410256 0.03507014028056112 0.7054108216432865 0.2595190380761523 0.042871385842472576 0.7288135593220338 0.2283150548354935 0.021233569261880688 0.6319514661274014 0.34681496461071787 0.013251783893985727 0.5524974515800204 0.4342507645259938 0.010224948875255624 0.5143149284253579 0.47546012269938653 0.04875621890547263 0.744278606965174 0.2069651741293532 0.058531746031746025 0.7609126984126984 0.18055555555555555 0.030150753768844216 0.685427135678392 0.2844221105527638 0.020242914979757085 0.6234817813765182 0.3562753036437247 0.01627670396744659 0.5890132248219735 0.3947100712105799 0.0702274975272008 0.7734915924826905 0.15628090999010882 0.08300395256916997 0.782608695652174 0.13438735177865613 0.0448207171314741 0.7340637450199203 0.22111553784860558 0.029175050301810865 0.6780684104627767 0.29275653923541245 0.023232323232323233 0.6484848484848486 0.3282828282828283 0.09467455621301775 0.7850098619329389 0.12031558185404338 0.11045364891518737 0.7869822485207101 0.10256410256410256 0.06144697720515362 0.7641228939544104 0.17443012884043607 0.042871385842472576 0.7288135593220338 0.2283150548354935 0.03507014028056112 0.7054108216432865 0.2595190380761523 0.1293188548864758 0.7838104639684106 0.08687068114511351 0.15034619188921858 0.7764589515331355 0.07319485657764588 0.08687068114511352 0.7838104639684108 0.12931885488647582 0.001040582726326743 0.23829344432882416 0.7606659729448492 0.0010471204188481674 0.21047120418848167 0.7884816753926701 0.007179487179487179 0.4666666666666666 0.5261538461538461 0.009211873080859774 0.5056294779938587 0.48515864892528143 0.00411522633744856 0.3713991769547325 0.6244855967078189 0.0020682523267838674 0.3009307135470527 0.6970010341261634 0.002072538860103627 0.2683937823834197 0.7295336787564767 0.012244897959183675 0.5428571428571429 0.4448979591836735 0.01525940996948118 0.5798575788402848 0.404883011190234 0.007179487179487179 0.44717948717948713 0.5456410256410256 0.00411522633744856 0.3621399176954732 0.6337448559670782 0.003095975232198142 0.326109391124871 0.6707946336429308 0.018255578093306288 0.6064908722109533 0.3752535496957404 0.022244691607684525 0.640040444893832 0.3377148634984833 0.010224948875255624 0.5143149284253579 0.47546012269938653 0.006160164271047228 0.43737166324435317 0.5564681724845997 0.0051440329218107 0.3991769547325103 0.595679012345679 0.02721774193548387 0.6713709677419355 0.3014112903225806 0.033099297893681046 0.6990972918756269 0.2678034102306921 0.01627670396744659 0.5890132248219735 0.3947100712105799 0.009211873080859774 0.5056294779938587 0.48515864892528143 0.007179487179487179 0.4666666666666666 0.5261538461538461 0.03896103896103897 0.7172827172827173 0.24375624375624377 0.046812749003984064 0.7390438247011952 0.21414342629482072 0.023232323232323233 0.6484848484848486 0.3282828282828283 0.01525940996948118 0.5798575788402848 0.404883011190234 0.012244897959183675 0.5428571428571429 0.4448979591836735 0.05654761904761905 0.7569444444444444 0.1865079365079365 0.0672601384767557 0.7705242334322454 0.16221562809099904 0.03507014028056112 0.7054108216432865 0.2595190380761523 0.013251783893985727 0.5524974515800204 0.4342507645259938 0.010224948875255624 0.5143149284253579 0.47546012269938653 0.04875621890547263 0.744278606965174 0.2069651741293532 0.058531746031746025 0.7609126984126984 0.18055555555555555 0.030150753768844216 0.685427135678392 0.2844221105527638 0.020242914979757085 0.6234817813765182 0.3562753036437247 0.01627670396744659 0.5890132248219735 0.3947100712105799 0.0702274975272008 0.7734915924826905 0.15628090999010882 0.08300395256916997 0.782608695652174 0.13438735177865613 0.0448207171314741 0.7340637450199203 0.22111553784860558 0.029175050301810865 0.6780684104627767 0.29275653923541245 0.023232323232323233 0.6484848484848486 0.3282828282828283 0.09467455621301775 0.7850098619329389 0.12031558185404338 0.11045364891518737 0.7869822485207101 0.10256410256410256 0.06144697720515362 0.7641228939544104 0.17443012884043607 0.042871385842472576 0.7288135593220338 0.2283150548354935 0.03507014028056112 0.7054108216432865 0.2595190380761523 0.1293188548864758 0.7838104639684106 0.08687068114511351 0.15034619188921858 0.7764589515331355 0.07319485657764588 0.08687068114511352 0.7838104639684108 0.12931885488647582 0.058531746031746025 0.7609126984126984 0.18055555555555555 0.04875621890547263 0.744278606965174 0.2069651741293532 0.16831683168316833 0.7673267326732673 0.06435643564356436 0.1936444885799404 0.7527308838133068 0.053624627606752726 0.11538461538461539 0.7859960552268245 0.09861932938856016 0.08300395256916997 0.782608695652174 0.13438735177865613 0.0702274975272008 0.7734915924826905 0.15628090999010882 0.22111553784860558 0.7340637450199203 0.0448207171314741 0.25125125125125125 0.7117117117117117 0.037037037037037035 0.1562809099901088 0.7734915924826904 0.07022749752720078 0.00411522633744856 0.3621399176954732 0.6337448559670782 0.003095975232198142 0.326109391124871 0.6707946336429308 0.018255578093306288 0.6064908722109533 0.3752535496957404 0.022244691607684525 0.640040444893832 0.3377148634984833 0.010224948875255624 0.5143149284253579 0.47546012269938653 0.006160164271047228 0.43737166324435317 0.5564681724845997 0.0051440329218107 0.3991769547325103 0.595679012345679 0.02721774193548387 0.6713709677419355 0.3014112903225806 0.033099297893681046 0.6990972918756269 0.2678034102306921 0.01627670396744659 0.5890132248219735 0.3947100712105799 0.009211873080859774 0.5056294779938587 0.48515864892528143 0.007179487179487179 0.4666666666666666 0.5261538461538461 0.03896103896103897 0.7172827172827173 0.24375624375624377 0.046812749003984064 0.7390438247011952 0.21414342629482072 0.023232323232323233 0.6484848484848486 0.3282828282828283 0.01525940996948118 0.5798575788402848 0.404883011190234 0.012244897959183675 0.5428571428571429 0.4448979591836735 0.05654761904761905 0.7569444444444444 0.1865079365079365 0.0672601384767557 0.7705242334322454 0.16221562809099904 0.03507014028056112 0.7054108216432865 0.2595190380761523 0.022244691607684525 0.640040444893832 0.3377148634984833 0.018255578093306288 0.6064908722109533 0.3752535496957404 0.07608695652173914 0.7786561264822135 0.14525691699604742 0.09081934846989143 0.7847976307996053 0.12438302073050347 0.04875621890547263 0.744278606965174 0.2069651741293532 0.033099297893681046 0.6990972918756269 0.2678034102306921 0.02721774193548387 0.6713709677419355 0.3014112903225806 0.10650887573964497 0.7869822485207101 0.10650887573964497 0.12438302073050345 0.7847976307996051 0.0908193484698914 0.0702274975272008 0.7734915924826905 0.15628090999010882 0.0010482180293501049 0.20440251572327045 0.7945492662473795 0.0010570824524312897 0.17970401691331925 0.8192389006342494 0.0051387461459403904 0.41829393627954775 0.5765673175745119 0.007179487179487179 0.4564102564102564 0.5364102564102564 0.003095975232198142 0.326109391124871 0.6707946336429308 0.002074688796680498 0.2603734439834025 0.737551867219917 0.0010416666666666667 0.23125 0.7677083333333333 0.009211873080859774 0.4953940634595701 0.4953940634595701 0.011235955056179773 0.5342185903983656 0.45454545454545453 0.0051440329218107 0.3991769547325103 0.595679012345679 0.003095975232198142 0.3178534571723426 0.6790505675954592 0.002068252326783868 0.28438469493278185 0.7135470527404343 0.013251783893985727 0.5616717635066258 0.4250764525993883 0.017258883248730966 0.5979695431472081 0.38477157360406095 0.007179487179487179 0.4666666666666666 0.5261538461538461 0.00411522633744856 0.38991769547325106 0.6059670781893004 0.003089598352214212 0.3532440782698249 0.6436663233779608 0.021233569261880688 0.6319514661274014 0.34681496461071787 0.026209677419354836 0.6633064516129032 0.31048387096774194 0.012244897959183675 0.5428571428571429 0.4448979591836735 0.007179487179487179 0.4564102564102564 0.5364102564102564 0.0051387461459403904 0.41829393627954775 0.5765673175745119 0.030150753768844216 0.685427135678392 0.2844221105527638 0.037037037037037035 0.7117117117117117 0.25125125125125125 0.018255578093306288 0.6064908722109533 0.3752535496957404 0.011235955056179773 0.5342185903983656 0.45454545454545453 0.009211873080859774 0.4953940634595701 0.4953940634595701 0.0448207171314741 0.7340637450199203 0.22111553784860558 0.053624627606752726 0.7527308838133068 0.1936444885799404 0.02721774193548387 0.6713709677419355 0.3014112903225806 0.009211873080859774 0.5056294779938587 0.48515864892528143 0.007179487179487179 0.4666666666666666 0.5261538461538461 0.03896103896103897 0.7172827172827173 0.24375624375624377 0.046812749003984064 0.7390438247011952 0.21414342629482072 0.023232323232323233 0.6484848484848486 0.3282828282828283 0.01525940996948118 0.5798575788402848 0.404883011190234 0.012244897959183675 0.5428571428571429 0.4448979591836735 0.05654761904761905 0.7569444444444444 0.1865079365079365 0.0672601384767557 0.7705242334322454 0.16221562809099904 0.03507014028056112 0.7054108216432865 0.2595190380761523 0.022244691607684525 0.640040444893832 0.3377148634984833 0.018255578093306288 0.6064908722109533 0.3752535496957404 0.07608695652173914 0.7786561264822135 0.14525691699604742 0.09081934846989143 0.7847976307996053 0.12438302073050347 0.04875621890547263 0.744278606965174 0.2069651741293532 0.033099297893681046 0.6990972918756269 0.2678034102306921 0.02721774193548387 0.6713709677419355 0.3014112903225806 0.10650887573964497 0.7869822485207101 0.10650887573964497 0.12438302073050345 0.7847976307996051 0.0908193484698914 0.0702274975272008 0.7734915924826905 0.15628090999010882 0.046812749003984064 0.7390438247011952 0.21414342629482072 0.03896103896103897 0.7172827172827173 0.24375624375624377 0.1393280632411067 0.7806324110671937 0.0800395256916996 0.162215628090999 0.7705242334322452 0.06726013847675569 0.09467455621301775 0.7850098619329389 0.12031558185404338 0.0672601384767557 0.7705242334322454 0.16221562809099904 0.05654761904761905 0.7569444444444444 0.1865079365079365 0.1865079365079365 0.7569444444444444 0.05654761904761905 0.21414342629482072 0.7390438247011952 0.046812749003984064 0.1293188548864758 0.7838104639684106 0.08687068114511351 0.003095975232198142 0.3178534571723426 0.6790505675954592 0.002068252326783868 0.28438469493278185 0.7135470527404343 0.013251783893985727 0.5616717635066258 0.4250764525993883 0.017258883248730966 0.5979695431472081 0.38477157360406095 0.007179487179487179 0.4666666666666666 0.5261538461538461 0.00411522633744856 0.38991769547325106 0.6059670781893004 0.003089598352214212 0.3532440782698249 0.6436663233779608 0.021233569261880688 0.6319514661274014 0.34681496461071787 0.026209677419354836 0.6633064516129032 0.31048387096774194 0.012244897959183675 0.5428571428571429 0.4448979591836735 0.007179487179487179 0.4564102564102564 0.5364102564102564 0.0051387461459403904 0.41829393627954775 0.5765673175745119 0.030150753768844216 0.685427135678392 0.2844221105527638 0.037037037037037035 0.7117117117117117 0.25125125125125125 0.018255578093306288 0.6064908722109533 0.3752535496957404 0.011235955056179773 0.5342185903983656 0.45454545454545453 0.009211873080859774 0.4953940634595701 0.4953940634595701 0.0448207171314741 0.7340637450199203 0.22111553784860558 0.053624627606752726 0.7527308838133068 0.1936444885799404 0.02721774193548387 0.6713709677419355 0.3014112903225806 0.017258883248730966 0.5979695431472081 0.38477157360406095 0.013251783893985727 0.5616717635066258 0.4250764525993883 0.06144697720515362 0.7641228939544104 0.17443012884043607 0.07319485657764589 0.7764589515331356 0.1503461918892186 0.03896103896103897 0.7172827172827173 0.24375624375624377 0.026209677419354836 0.6633064516129032 0.31048387096774194 0.021233569261880688 0.6319514661274014 0.34681496461071787 0.08687068114511352 0.7838104639684108 0.12931885488647582 0.10256410256410256 0.7869822485207101 0.11045364891518737 0.05654761904761905 0.7569444444444444 0.1865079365079365 0.001059322033898305 0.17372881355932204 0.8252118644067796 0.0 0.15145005370569278 0.8485499462943072 0.00411522633744856 0.3713991769547325 0.6244855967078189 0.0051387461459403904 0.40904419321685515 0.5858170606372045 0.002068252326783868 0.28438469493278185 0.7135470527404343 0.0010438413361169103 0.2244258872651357 0.7745302713987474 0.001050420168067227 0.19747899159663868 0.8014705882352942 0.007179487179487179 0.44717948717948713 0.5456410256410256 0.00819672131147541 0.48565573770491804 0.5061475409836066 0.003089598352214212 0.3532440782698249 0.6436663233779608 0.002070393374741201 0.27639751552795033 0.7215320910973084 0.001040582726326743 0.24557752341311134 0.7533818938605619 0.010224948875255624 0.5143149284253579 0.47546012269938653 0.013251783893985727 0.5524974515800204 0.4342507645259938 0.0051387461459403904 0.41829393627954775 0.5765673175745119 0.0030927835051546395 0.34432989690721655 0.6525773195876289 0.0020682523267838674 0.3092037228541882 0.688728024819028 0.01627670396744659 0.5890132248219735 0.3947100712105799 0.020242914979757085 0.6234817813765182 0.3562753036437247 0.009211873080859774 0.4953940634595701 0.4953940634595701 0.0051387461459403904 0.40904419321685515 0.5858170606372045 0.00411522633744856 0.3713991769547325 0.6244855967078189 0.023232323232323233 0.6484848484848486 0.3282828282828283 0.029175050301810865 0.6780684104627767 0.29275653923541245 0.013251783893985727 0.5616717635066258 0.4250764525993883 0.00819672131147541 0.48565573770491804 0.5061475409836066 0.007179487179487179 0.44717948717948713 0.5456410256410256 0.03507014028056112 0.7054108216432865 0.2595190380761523 0.042871385842472576 0.7288135593220338 0.2283150548354935 0.021233569261880688 0.6319514661274014 0.34681496461071787 0.020263424518743668 0.6281661600810537 0.3515704154002026 0.016260162601626018 0.5934959349593496 0.3902439024390244 0.07213438735177866 0.7747035573122529 0.15316205533596838 0.08489634748272458 0.7828232971372163 0.13228035538005925 0.04586241276171485 0.7367896311066798 0.21734795613160515 0.031124497991967866 0.6887550200803213 0.28012048192771083 0.025227043390514632 0.6599394550958627 0.31483350151362255 0.1004926108374384 0.786206896551724 0.11330049261083742 0.11735700197238658 0.7859960552268245 0.09664694280078896 0.06534653465346535 0.7693069306930693 0.16534653465346535 0.04386839481555333 0.7318045862412761 0.22432701894317048 0.036036036036036036 0.7087087087087087 0.2552552552552553 0.13228035538005922 0.7828232971372161 0.08489634748272457 0.15316205533596838 0.7747035573122529 0.07213438735177866 0.08875739644970414 0.7840236686390533 0.12721893491124261 0.06243805748265609 0.7661050545094152 0.1714568880079286 0.05263157894736841 0.7507447864945381 0.19662363455809334 0.1774033696729435 0.7621407333994055 0.060455896927651145 0.20398009950248758 0.746268656716418 0.04975124378109454 0.1222879684418146 0.7850098619329389 0.09270216962524655 0.08489634748272458 0.7828232971372163 0.13228035538005925 0.07213438735177866 0.7747035573122529 0.15316205533596838 0.22432701894317053 0.7318045862412762 0.043868394815553345 0.2552552552552553 0.7087087087087087 0.036036036036036036 0.1594059405940594 0.7722772277227723 0.06831683168316832 0.11735700197238658 0.7859960552268245 0.09664694280078896 0.1004926108374384 0.786206896551724 0.11330049261083742 0.28873239436619713 0.682092555331992 0.029175050301810862 0.32391523713420783 0.651866801210898 0.024217961654894045 0.21015936254980078 0.7420318725099602 0.04780876494023904 0.006160164271047228 0.44250513347022585 0.5513347022587269 0.0051387461459403904 0.40390544707091475 0.5909558067831449 0.02819738167170191 0.67472306143001 0.29707955689828797 0.03406813627254509 0.7024048096192385 0.2635270541082164 0.016260162601626018 0.5934959349593496 0.3902439024390244 0.010224948875255624 0.5194274028629857 0.47034764826175873 0.008205128205128205 0.481025641025641 0.5107692307692308 0.04191616766467066 0.7255489021956087 0.23253493013972057 0.04975124378109452 0.7462686567164178 0.20398009950248752 0.025227043390514632 0.6599394550958627 0.31483350151362255 0.01525940996948118 0.5849440488301119 0.3997965412004069 0.012244897959183675 0.5479591836734694 0.43979591836734694 0.05753968253968254 0.7589285714285714 0.18353174603174602 0.06831683168316832 0.7722772277227723 0.1594059405940594 0.036036036036036036 0.7087087087087087 0.2552552552552553 0.024217961654894045 0.651866801210898 0.32391523713420783 0.019269776876267748 0.6196754563894523 0.3610547667342799 0.08193484698914118 0.7808489634748274 0.13721618953603162 0.09664694280078896 0.7859960552268245 0.11735700197238658 0.05263157894736841 0.7507447864945381 0.19662363455809334 0.03406813627254509 0.7024048096192385 0.2635270541082164 0.02819738167170191 0.67472306143001 0.29707955689828797 0.10848126232741617 0.7869822485207101 0.10453648915187376 0.12721893491124261 0.7840236686390533 0.08875739644970414 0.07213438735177866 0.7747035573122529 0.15316205533596838 0.04975124378109452 0.7462686567164178 0.20398009950248752 0.04191616766467066 0.7255489021956087 0.23253493013972057 0.1482213438735178 0.7766798418972333 0.07509881422924901 0.17145688800792866 0.7661050545094154 0.0624380574826561 0.1004926108374384 0.786206896551724 0.11330049261083742 0.002072538860103627 0.26424870466321243 0.7336787564766839 0.0010416666666666667 0.23437500000000003 0.7645833333333334 0.009211873080859774 0.5005117707267144 0.49027635619242577 0.012244897959183675 0.5377551020408163 0.45 0.0051387461459403904 0.40390544707091475 0.5909558067831449 0.0030927835051546395 0.3309278350515464 0.665979381443299 0.0020682523267838674 0.29679420889348496 0.7011375387797311 0.015274949083503055 0.575356415478615 0.4093686354378819 0.0182741116751269 0.6111675126903553 0.37055837563451777 0.008205128205128205 0.481025641025641 0.5107692307692308 0.0051387461459403904 0.39465570400822203 0.6002055498458376 0.004119464469618949 0.3573635427394439 0.6385169927909372 0.021255060728744942 0.6366396761133604 0.34210526315789475 0.026209677419354836 0.6673387096774194 0.3064516129032258 0.012244897959183675 0.5479591836734694 0.43979591836734694 0.00819672131147541 0.4713114754098361 0.5204918032786885 0.006166495375128468 0.4326824254881808 0.5611510791366906 0.033099297893681046 0.6950852557673018 0.27181544633901705 0.03996003996003997 0.7202797202797203 0.23976023976023977 0.019269776876267748 0.6196754563894523 0.3610547667342799 0.012244897959183675 0.5377551020408163 0.45 0.009211873080859774 0.5005117707267144 0.49027635619242577 0.04586241276171485 0.7367896311066798 0.21734795613160515 0.05467196819085487 0.7554671968190855 0.18986083499005965 0.02819738167170191 0.67472306143001 0.29707955689828797 0.0182741116751269 0.6111675126903553 0.37055837563451777 0.015274949083503055 0.575356415478615 0.4093686354378819 0.06534653465346535 0.7693069306930693 0.16534653465346535 0.07806324110671936 0.7796442687747036 0.14229249011857706 0.04191616766467066 0.7255489021956087 0.23253493013972057 0.01525940996948118 